9.023594751935829494e-01
5.186182423237555295e-01
9.075725240286662554e-02
-1.022612273330151672e-01
-3.208873268390931566e-01
-4.532989843008186082e-01
-5.057317509986116733e-01
-1.295556804486703850e-01
-1.822369820906704740e+00
-1.501850491591662839e+00
-9.939315144247746758e-01
-4.743688904655810612e-01
-1.855689624096846790e-01
-4.321907182875362602e-02
6.032807352468846918e-02
4.960980678102496988e+00
1.332574383514346095e-01
1.410447387438584221e-01
5.130207395904150258e-02
5.762899601566159186e-02
-2.498018368264664016e-02
-7.232568542974544823e-02
-9.394294218906097671e-02
-1.919844357685415170e-01
2.078432065433007403e-01
1.162435501723260017e-01
-2.106904631895890542e-02
-1.506648259369785386e-02
-7.827594302814808169e-02
-4.393235481378414409e-02
-9.418754249872841877e-02
-7.155538746230281910e-02
-2.094703884810682551e-02
-1.504519898062974849e-02
9.911544014294061677e-02
-3.371239440765415318e-02
-6.599592493161997309e-02
-2.674794530295407716e-02
7.739393935482341558e-03
5.559366839254753501e-02
6.940318928036780244e-02
-4.355974801741849256e-02
2.568261218739571750e-02
3.585452958356189629e-02
-8.573119046451850578e-02
-2.954286624537633826e-02
-5.776242939133648460e-03
3.366971661512230957e-02
7.059778687583841139e-02
-5.484741759482392176e-02
1.102484275219894373e-02
-4.659854132437516588e-02
-8.806967115383468325e-02
-2.826358540163337665e-02
3.886157679464818243e-02
9.729500905198207317e-02
7.488537242452186771e-02
4.596784688416286069e-02
4.581191157311374773e-02
2.913421666986110159e-02
-6.824585743948312355e-02
1.403828015152431413e-02
-5.841119117231012570e-02
-8.318057909138823480e-02
1.073197249548089177e-01
3.459454311017808037e-02
5.179063138434207569e-02
4.937184951555277646e-02
-3.356424425870097733e-02
6.188275070574306841e-03
-1.031841155551992129e-01
-1.125166642215575385e-01
6.211900639777404726e-02
1.779287592524806880e-02
-1.753807243932367296e-02
9.856433373696352196e-02
-3.582080170138064040e-02
-6.778355740071191626e-02
-1.434822429651562078e-02
-4.298556022205329841e-02
1.866990506722111809e-02
-7.142242541771011768e-03
-4.991238161475892304e-02
-8.138490209934506892e-02
-3.334015058753857924e-02
1.945655167731072735e-02
-3.286294396402538592e-02
1.665161640629066186e-01
6.107592525293181751e-02
2.045423135752741720e-02
1.822701752984987392e-02
-1.621504863664176635e-02
-5.478085466416113963e-02
3.761864106092521060e-02
-2.810340894842555323e-02
-3.827650295200481917e-02
-5.623720862070782922e-02
7.769823808844827928e-02
8.159703921775165666e-03
-1.725017126116120195e-02
1.966683280015486812e-03
3.446707874715365660e-02
2.416818662839250245e-02
-7.297251078391533974e-02
6.326597810293242870e-03
2.803115892905998219e-02
-3.439724494842129332e-02
-2.080167305736252761e-02
-3.791162115910042679e-02
2.020386695635819144e-02
8.381146065112550503e-02
-4.526254518195398091e-02
-8.660066446499553594e-02
7.048667105870095456e-03
-7.908202035012240616e-02
3.647808496975978032e-02
9.984314226016248461e-02
1.190213895224995211e-01
-2.316243824569790347e-02
-7.354616079747236523e-02
-8.652182404755962009e-02
-1.171974174198644469e-01
-8.148639323557795022e-02
4.679211630817498718e-02
-1.383233003562457826e-02
9.917966971152872291e-02
-3.608011640597742330e-03
1.566741903595224861e-01
1.380944717159056194e-02
2.551361552663527349e-02
2.758489404326314870e-02
4.534926530650278120e-02
-1.346500277532240199e-02
-2.358036090940141341e-02
-3.030778222388547105e-02
-4.490407613938280501e-02
6.599607429153228101e-04
-2.969269460793627288e-02
1.890494070497188541e-03
-4.854094642770593465e-02
6.065314902622466475e-02
-3.848818035805949556e-02
4.848228223275512921e-02
5.035935321310391552e-03
3.194390779969782934e-02
-8.215889333396092509e-02
-4.562921855889022797e-04
4.117954297525285023e-02
5.755409127973902528e-02
-4.139029779904271171e-03
-1.073415874884208754e-01
6.341826073318670987e-02
1.150459211499334777e-01
-8.918372068098883235e-03
-9.921814414599739243e-03
-3.974115426130786499e-02
-1.031824113509770269e-02
-3.736320080044830405e-02
5.115515396041872553e-02
-5.993829243080097541e-02
-4.190933710582542965e-02
1.957533776109367935e-02
-9.804969548499497308e-04
8.975258702236919503e-03
6.002205553973213176e-02
-4.236047343649682051e-02
1.721081686817951817e-02
-2.053316137407004346e-02
1.622702150752803052e-01
7.271784567481108519e-02
6.749831576276137113e-02
1.364664737461354291e-02
-1.892521107906646599e-02
-1.363659741680843529e-02
-1.514567855635455262e-01
-1.321144298280421125e-01
5.014165817232539568e-02
3.450514925280295797e-02
1.692372675171545104e-01
-5.354329625893812158e-03
2.529321038208359046e-02
-1.586649728704215556e-01
-8.937284301645716245e-02
-2.578513981159844676e-02
1.539107953395254733e-02
3.984298378635023341e-03
9.757261092535669811e-02
-3.570271158983905763e-02
-2.672296258649961911e-02
-1.786115975040745638e-02
-1.456477442045227624e-02
-2.209638049074591146e-02
8.887563584770521996e-02
5.898457827707807855e-02
1.083912487115143387e-03
4.977015494696743203e-02
-5.717460223692407556e-02
-2.737860851327872727e-02
1.896125579224268096e-02
-1.331223266009052275e-01
1.204002665024715146e-01
7.217904200860970898e-02
4.125479970388463979e-02
-6.014914016415930098e-02
-4.709496845056774378e-02
-1.642552033847683932e-02
-5.837639690487782251e-02
-5.178808235688368150e-02
1.446611607606294592e-01
2.279472682811071321e-02
-5.249325462877732669e-03
-3.565263778647592696e-02
7.970510499731056978e-03
-2.348854152924874719e-02
-1.118417039751317954e-01
8.058106652622299727e-04
-3.784625221927327698e-02
-5.286397715611587667e-02
1.227777166763888671e-02
1.206005122350973374e-01
6.142678226172144755e-03
-2.301137668911438366e-02
7.456297693952622548e-03
-3.275565375835735177e-02
5.385270438034798698e-03
1.681339133047456830e-02
-1.289954564987917940e-01
2.395418124828022424e-02
1.685469212429926283e-02
-1.043532121506219636e-02
-2.939649790815180175e-03
7.936289236358179400e-02
-1.765556470110621334e-01
-1.420098014914470408e-01
3.035184969760871404e-02
-2.862375096508736755e-02
3.863958271209078782e-02
-1.069546893608793424e-02
1.249317812771717079e-01
1.639614547168118663e-01
1.114334611800078811e-01
-1.618173691575858567e-02
3.956318116029815951e-02
-3.970928346798558578e-02
-5.370752982586777385e-02
9.606144735711889468e-03
-1.779019214822286435e-02
-3.321404471818264342e-02
-2.571511603699162818e-02
-5.121554995366945501e-02
-3.198409792861563877e-02
9.166069116226581437e-02
1.381602989284822121e-02
-1.516897854248302167e-02
3.961817170328829629e-02
-2.101115029664178679e-02
1.179018544946637270e-01
1.844657142136562483e-02
-3.792661269045449887e-04
-1.239025359469268783e-02
3.466423804956541427e-02
-7.625519476975086038e-03
-7.037267885157552118e-03
-1.435803568818632692e-01
2.804305194232955545e-01
8.484172639766243695e-02
-4.853705595114256310e-02
2.292802775359188000e-02
-7.384923379098483126e-04
-3.569485481548569789e-02
-1.466582523028978069e-01
-1.565716181671172602e-01
1.009413558675943401e-01
7.618234192289108885e-03
-3.839971588708730732e-02
-4.757770658477679382e-02
-3.194461409842594413e-02
-1.623812658256323579e-02
6.618458667731739499e-04
2.493872722619979929e-02
5.170121830472006880e-02
2.523078628534599493e-02
4.492482162174986880e-03
2.630025604000748446e-02
4.741170056785923986e-02
1.082644457149033353e-02
-6.945898735179130423e-02
-9.650390057980685887e-02
-6.984973801548836209e-03
-3.063103235394548304e-02
-1.516951419742736638e-02
-9.623112209490010047e-03
-3.455722945623737608e-02
2.343894784123186012e-02
-6.732873385066655107e-03
8.025978756248397517e-02
6.181086371190334244e-03
-1.211400535110335186e-02
-1.551227528684128755e-02
-6.536908452843404049e-02
-8.996089584768555969e-02
3.317473062428662189e-02
3.869124952654105776e-02
1.049091944920460540e-01
4.244917950800637836e-03
2.427533826759640037e-02
-3.277271223791206056e-02
-6.031118846851432624e-02
-2.746823434358918944e-02
3.325608454295089257e-03
-3.223173064562381840e-02
1.209380010229480773e-01
-1.236731910748054553e-01
-2.878783234302592989e-02
1.533338744904747669e-02
-3.523145588202170053e-02
-1.520882078207476916e-02
-4.805435707312632337e-03
-3.118449191496185449e-02
2.235578402551538224e-01
6.852293865326029854e-02
2.151316743282540023e-02
4.034334497946209797e-02
-2.128937249206874077e-02
-5.709778101472581628e-03
-9.167855469621095932e-02
-3.833857778122072568e-02
2.663683200542718219e-02
-3.707914310445017958e-02
-3.484283114769205769e-02
1.019739709690315327e-01
-1.812041039836664175e-02
-2.878437667045021658e-02
7.537103671807396377e-02
3.785891589166175044e-03
-6.230413795531525301e-02
5.549834306182436193e-03
-1.706218211081475880e-02
-1.189125323962629023e-02
-2.574598528272489546e-03
8.487074667113429435e-03
2.230348525203905419e-02
-6.322890400949696468e-03
1.510530054328369006e-03
-3.528421831638123979e-02
1.427469320370558514e-01
-9.219831006402707738e-03
2.793714499536129568e-03
-1.721107296561178931e-02
-5.087034813316204142e-03
-3.892476903081718009e-02
-3.981372040406284951e-02
3.557510344686365400e-02
6.325233382328054876e-02
-5.023444017498225264e-03
-1.000809094638192287e-01
3.277008742340787456e-02
-9.160297856467079086e-03
-3.285004273130662233e-02
1.551716937553710915e-02
1.189067450980162838e-01
-8.763283124445688096e-04
1.209181561783375797e-01
2.148224836458920498e-02
-3.829521481350335599e-02
-4.813287023267397158e-02
-5.766375033096893948e-02
-1.163389859513521002e-01
-5.481733374512910706e-02
-2.855579513496439570e-02
9.432495165192530603e-03
-2.871803536112021993e-02
6.259609570025029095e-03
2.686778444837873564e-02
4.788063384289781288e-02
2.165064121471828307e-02
1.591735097424572531e-01
1.668896317664921025e-01
-3.960257536869130068e-02
-7.390266037748784156e-02
-8.644373432504755261e-02
-4.950939474159424952e-02
-3.423700795335257036e-02
-4.236776874277679850e-02
2.870343141513738254e-03
3.801869517569816254e-02
6.968993545529918177e-02
6.920011934758407701e-02
-9.889022051050272433e-02
-2.819759777574926476e-02
4.557035794149812830e-02
-9.826163277533910001e-02
-1.285997750266763273e-01
-1.893203468289963651e-02
-6.295824929585036589e-02
-3.560297964965533635e-02
-4.258113996323870110e-02
2.161688623789227368e-02
1.232220750587564168e-01
1.438352173216710661e-01
-6.595433645964760352e-03
3.332774857317279127e-02
1.144831910078137130e-02
3.969772106342038531e-02
-2.043839475467864285e-03
-1.517522449355732279e-02
-7.064200299770613534e-02
9.982711875320715231e-03
-1.088833295864837097e-01
-1.371204145241983752e-01
-1.308992664262865757e-01
1.604820046864961769e-02
2.560378809881178053e-02
-4.633161399391160645e-02
5.051094137146148327e-02
3.310716945919529031e-01
-3.847862519321567504e-02
8.150022338391627041e-02
4.744860699944702942e-02
-4.298564778695166538e-02
3.943138337496957663e-02
-2.568505936620951724e-02
-1.880296220331862528e-02
-4.242791920863751148e-02
-4.190811773924060790e-02
4.643016245517050944e-02
3.840436949388481569e-02
2.399601093324271045e-02
-1.161174603361499018e-02
-2.615131849842264322e-02
5.940015370841288979e-03
-3.509937598186070595e-02
4.389366033639986037e-02
1.039356743490228371e-02
1.247299637884615453e-01
9.357108475596827291e-02
1.778156535082041703e-02
1.699119497460387790e-02
-1.408458407865597617e-01
-1.665151958545979805e-01
7.164571032039021570e-02
1.491631153833876677e-01
6.708046940503477329e-02
-9.500685257800169092e-02
-1.111671965430531123e-01
4.532045787330566365e-03
-1.925711194487186861e-02
-6.699017983021679501e-02
7.638816308191599680e-02
-1.292871566347345361e-02
4.085212638482209335e-02
4.547764179305301829e-02
-5.117396100828083827e-02
-5.298181408660785491e-02
9.566304459330693139e-04
-4.659007094736172111e-02
1.898116454778178003e-02
1.100314629368021602e-01
-9.723265303144670857e-03
-4.208205148660010969e-02
6.676514295894463158e-02
-4.453529298962462940e-02
-7.715395092139364086e-02
-2.228320974276538219e-02
-7.417058339824196544e-02
7.089697806403354521e-03
7.508409512662994612e-02
2.489451200866454536e-02
6.140216277783817900e-02
-3.412461184848596119e-02
3.458808770760032208e-02
-9.476336018040902587e-02
6.248608686983308375e-02
7.503333236677547924e-02
9.333591620898806784e-02
-5.754862271644615133e-03
-6.101227036961040517e-02
1.141798603940866012e-02
-7.000250619742070558e-03
-1.685059382240050307e-01
1.039299199461976159e-01
6.144207386577754670e-02
2.303632490348496778e-02
-3.758332342738811976e-02
2.230796015951996489e-02
-3.591247006806594366e-02
-4.768057976573497614e-02
-8.953990561378986912e-02
1.390969053840978298e-01
7.114712695825833877e-02
-9.386699282228886179e-03
2.381556629882048207e-02
2.261299964678766677e-02
-4.643620864410633736e-02
-6.845813962748169279e-02
-1.323915507341484055e-01
-2.179123323078919483e-01
-2.181766458159818123e-01
-2.119294043771860758e-01
3.271901365940865086e-02
5.683714500530457486e-02
-2.884909365922423349e-02
1.740061647232103714e-01
4.133051527723516361e-01
-1.849514796758887358e-02
-9.606892662838299735e-02
3.666606724201253859e-03
4.053025253906691189e-02
-5.134316779874054104e-02
4.715866272497576395e-02
7.900454822462107951e-02
-4.452827818152701317e-03
-1.821864585824575083e-02
-1.121528887607479638e-02
-5.640323863830362314e-03
-3.745693564135482018e-02
5.956069224440527915e-02
4.802911665114314305e-02
-1.074573444545980951e-02
-2.431288021058269216e-02
1.679760693342931266e-02
6.116769776413128606e-02
-3.667513254650621619e-03
7.047661659033746528e-02
-5.800720574602858011e-03
4.745666833822156233e-02
-7.700040038757108296e-02
-1.094299554092933446e-01
-1.955940213147448412e-02
1.554570531453728591e-03
-4.251533698877211359e-02
-7.386808706214688207e-04
-4.843602117433807447e-02
-3.693668095104683802e-02
9.599347017581675093e-03
1.370322045672166811e-01
0.000000000000000000e+00
0.000000000000000000e+00
0.000000000000000000e+00
0.000000000000000000e+00
0.000000000000000000e+00
0.000000000000000000e+00
0.000000000000000000e+00
0.000000000000000000e+00
6.211900639777404726e-02
1.779287592524806880e-02
-1.753807243932367296e-02
9.856433373696352196e-02
-3.582080170138064040e-02
-6.778355740071191626e-02
-1.434822429651562078e-02
-4.298556022205329841e-02
3.470436273280893408e-02
6.103168784888936271e-02
9.774862836945766298e-02
2.636552253094076592e-02
-7.892260587464935973e-02
4.832832056171398882e-02
-1.141756716918209402e-01
-7.508024447734484852e-02
2.637156252012226934e-02
-4.057745649136231675e-02
-7.952161083960766763e-02
-4.258057116758291738e-02
2.414175121048726946e-02
-1.070967950078895517e-02
8.607226274339360717e-02
3.680374152533676807e-02
-5.623720862070782922e-02
7.769823808844827928e-02
8.159703921775165666e-03
-1.725017126116120195e-02
1.966683280015486812e-03
3.446707874715365660e-02
2.416818662839250245e-02
-7.297251078391533974e-02
-4.262233124730046424e-02
-6.454370317034198445e-02
1.154780651340621628e-03
9.036924320767725227e-02
7.446522878137747103e-02
-3.230192536043221402e-02
-2.596446692957656618e-03
-2.392484616936278383e-02
6.326597810293242870e-03
2.803115892905998219e-02
-3.439724494842129332e-02
-2.080167305736252761e-02
-3.791162115910042679e-02
2.020386695635819144e-02
8.381146065112550503e-02
-4.526254518195398091e-02
3.094238919848211686e-02
1.663268102836995554e-01
-5.802345670243588133e-02
-3.966444623659810126e-02
-4.456538725380428806e-02
8.983892702519594847e-03
-3.427123430125175729e-02
-2.972856769061288373e-02
-9.627213356331068561e-02
-8.761593545903226254e-02
-1.640998758877575819e-02
-1.074714485375630017e-02
7.193162876298435371e-02
1.440577060870439630e-01
1.431349671568903949e-02
-1.925763010084157942e-02
2.135141114713203295e-02
-7.118504548457804670e-03
-5.803356710251567595e-03
-3.479567147563253967e-03
-1.988328030396080328e-03
-1.718283906629250977e-03
-6.082539671779203317e-04
-6.351168366561407664e-04
-1.225169699416524954e-02
-8.633652608470833087e-03
-5.790497206643758360e-02
4.194816182920563935e-02
4.446201218984918713e-02
-7.444483635868595628e-02
7.708740359918990828e-03
5.911624364878548255e-02
-7.427012705339339216e-02
-1.085637648113930986e-01
-2.358142116914042213e-02
4.843954478969682634e-03
-5.829434222547398570e-02
1.736245060702151510e-01
-1.131675200051669716e-02
9.755794671073517166e-02
1.380944717159056194e-02
2.551361552663527349e-02
2.758489404326314870e-02
4.534926530650278120e-02
-1.346500277532240199e-02
-2.358036090940141341e-02
-3.030778222388547105e-02
-4.490407613938280501e-02
6.599607429153228101e-04
-2.969269460793627288e-02
1.890494070497188541e-03
-4.854094642770593465e-02
6.065314902622466475e-02
-3.848818035805949556e-02
4.848228223275512921e-02
5.035935321310391552e-03
3.194390779969782934e-02
-8.215889333396092509e-02
-4.562921855889022797e-04
4.117954297525285023e-02
5.755409127973902528e-02
-4.139029779904271171e-03
-1.073415874884208754e-01
6.341826073318670987e-02
1.150459211499334777e-01
-8.918372068098883235e-03
-9.921814414599739243e-03
-3.974115426130786499e-02
-1.031824113509770269e-02
-3.736320080044830405e-02
5.115515396041872553e-02
-5.993829243080097541e-02
-2.921121688051326118e-02
1.106209010059612877e-02
-1.768713936763478128e-02
1.900226511770798307e-02
5.328380454894340867e-02
-1.220549723826386962e-02
-9.114696137435330733e-03
-1.512961014340012851e-02
4.136640184614221068e-03
1.388729557941954999e-05
1.372946187056347514e-03
-1.478483038100920216e-02
1.796142461654999176e-02
-2.152788012318819499e-02
8.127256977283173894e-03
4.700555243114209678e-03
-1.683476040992627765e-02
8.499360364918176480e-03
1.533369622572846279e-02
4.757823965538204511e-03
-1.122317362576123051e-02
-8.627096075044818346e-03
1.819825602833165940e-02
-1.010410647378417147e-02
7.164301821309499232e-03
5.020144416476748223e-02
4.409994519636513399e-02
2.384363222318617442e-02
9.192439593383795390e-03
2.576678447522109255e-02
-5.295706456991128297e-02
-1.073114829043192303e-01
2.331977962094420598e-01
5.720866081797848501e-02
-4.982305920364354934e-02
-3.266508847121031567e-02
-6.553078318834655580e-02
-2.191753096093031553e-02
-5.951341354186660826e-02
-6.095658166142488982e-02
-1.285647868189262466e-01
-7.259038852091506677e-02
-1.656274278405931583e-02
-2.700389170064745881e-02
5.313710791633155517e-02
-1.421269826425196510e-02
1.088106697315260607e-01
9.698673044094190121e-02
5.724338560657794145e-02
3.520100335224358307e-02
-7.921749314857007285e-03
-1.664302007863174837e-02
1.516749447903631767e-02
1.202371232507679077e-02
-3.479804095928259317e-02
-6.027278541016142105e-02
-1.102392279566460354e-01
-5.945412315831497679e-02
-2.234117826867353801e-02
1.039280033270610359e-01
1.071209983305952268e-01
-8.535126530493934716e-02
-3.875093466670197911e-02
1.050877276976213276e-01
-8.437137699014991832e-02
-8.350197114998185455e-02
1.069082488560072104e-02
5.473656822778618161e-03
-1.113528519434522652e-03
3.474729392687721241e-02
2.775931535772353104e-02
9.031578566658773899e-02
3.901611878753819540e-01
1.422164667805700389e-01
3.580081894393678799e-02
-6.621987736800068192e-02
-1.335197542757144418e-01
-7.965452422814807421e-02
-9.531176151383596862e-02
-1.934725562141909883e-01
5.896280645215763033e-02
7.536320823572037475e-02
1.625005106498521312e-01
-3.004975448856150172e-02
-1.133683973106252713e-01
-1.830337684536923956e-02
-5.623168209521169775e-02
-7.887331459796376176e-02
3.066405810425808579e-02
3.321711441513794036e-03
3.900848028550574914e-02
2.187300114323497899e-02
3.338599736462571216e-02
-5.555519801150785031e-02
6.245399666255734179e-03
-7.894344999388649975e-02
-2.196139332228878253e-03
-1.440096079498027690e-02
1.060966365287754481e-01
-2.966575605632411350e-02
-2.095008667133605590e-02
-1.345669829461859299e-02
-1.105391248931933239e-02
-1.437308288996818305e-02
1.758721886618139565e-02
1.838525917361532105e-02
-8.524025603418637284e-03
-6.036955533514989231e-03
-5.772875915163528521e-03
-4.404461455788890277e-03
-3.510861931132946024e-03
-7.723297600777739684e-03
-5.651972356341663367e-02
-8.674802546259366420e-02
7.688909677247730834e-02
3.372171989190585195e-02
1.335106950628089928e-02
3.136666023960532970e-03
7.482921235398645038e-03
8.686275595987259790e-03
1.453953594111210279e-01
1.457326037396720897e-01
-7.580518428536243969e-02
1.604843505506080986e-02
-7.052567174320507892e-02
-3.051527453723919606e-02
1.147833455684418510e-02
-1.418086021968915922e-01
1.204002665024715146e-01
7.217904200860970898e-02
4.125479970388463979e-02
-6.014914016415930098e-02
-4.709496845056774378e-02
-1.642552033847683932e-02
-5.837639690487782251e-02
-5.178808235688368150e-02
1.446611607606294592e-01
2.279472682811071321e-02
-5.249325462877732669e-03
-3.565263778647592696e-02
7.970510499731056978e-03
-2.348854152924874719e-02
-1.118417039751317954e-01
8.058106652622299727e-04
-3.784625221927327698e-02
-5.286397715611587667e-02
1.227777166763888671e-02
1.206005122350973374e-01
6.142678226172144755e-03
-2.301137668911438366e-02
7.456297693952622548e-03
-3.275565375835735177e-02
3.549936684456732328e-02
-1.156930688837205512e-01
-4.701845992920879874e-02
-2.756135477084591286e-03
-7.074631345809138938e-02
3.238983040043678235e-02
2.551280131399469298e-02
1.428119791891068746e-01
-1.312140350229228959e-02
3.314549017655540192e-02
-9.465477605346580073e-03
-5.352142568802219572e-03
-2.124174945632557009e-03
-1.351148477451728910e-03
-7.915171180421240807e-04
-9.396259589879355336e-04
-1.699269290424047438e-02
9.936097003763816327e-02
-7.251151896423903287e-02
3.206245929416720597e-02
8.972518052802357091e-02
-4.147400313804722877e-02
-2.766093398676755868e-02
-6.250946086653511036e-02
1.114334611800078811e-01
-1.618173691575858567e-02
3.956318116029815951e-02
-3.970928346798558578e-02
-5.370752982586777385e-02
9.606144735711889468e-03
-1.779019214822286435e-02
-3.321404471818264342e-02
-2.571511603699162818e-02
-5.121554995366945501e-02
-3.198409792861563877e-02
9.166069116226581437e-02
1.381602989284822121e-02
-1.516897854248302167e-02
3.961817170328829629e-02
-2.101115029664178679e-02
-1.015043112493414224e-01
8.724963860063517096e-02
9.470573423065492547e-02
2.497776848467540139e-02
5.506060022515178211e-03
-3.063588896568466072e-02
4.020049967021310615e-03
-8.431905109047541091e-02
2.194061657440058710e-01
-6.880306717926940041e-02
-9.508500035755938773e-02
-3.736802207936784637e-02
2.915817802705030631e-02
2.301036948870969351e-02
-1.105731785217883151e-02
-5.926130579138930848e-02
4.875034706008620627e-02
6.953060602253784139e-02
-2.622743892203771229e-02
4.203860434128917078e-02
-1.476730755783776765e-02
-1.993526234961131433e-02
-2.714082667050693107e-02
-7.224872192392238490e-02
1.339298288359081490e-01
6.199598180815418802e-02
2.385142709640202321e-03
-4.755605134734543910e-02
-6.253774152953912868e-02
-1.555301250654920336e-02
1.447511706002037064e-03
-7.411165967627061923e-02
-4.676499965177517704e-02
-8.193329561169851449e-02
-1.265317675125593976e-02
-2.581074228877960203e-02
-2.091323009125174714e-02
3.491441321307199586e-02
3.514476070719196876e-02
1.180162704744999458e-01
0.000000000000000000e+00
0.000000000000000000e+00
0.000000000000000000e+00
0.000000000000000000e+00
0.000000000000000000e+00
0.000000000000000000e+00
0.000000000000000000e+00
0.000000000000000000e+00
-3.497382037662798149e-02
-4.197505802670344066e-02
-1.904242923433825934e-03
-1.624951728994123573e-02
6.627366508020232638e-02
-1.566426493947508866e-02
-8.789599875914589494e-03
5.328283835189313172e-02
5.170121830472006880e-02
2.523078628534599493e-02
4.492482162174986880e-03
2.630025604000748446e-02
4.741170056785923986e-02
1.082644457149033353e-02
-6.945898735179130423e-02
-9.650390057980685887e-02
1.005160376266181349e-01
2.060789661837829356e-02
5.170666565220537886e-02
-9.300684486739775256e-03
-7.076368962724681466e-02
-5.397010056493885960e-02
-7.986444879975830580e-02
4.106832358148057582e-02
1.978281663639074386e-03
6.577054163005001571e-03
-4.848729845441462905e-02
3.507340159748927044e-02
-1.078194857988653936e-02
1.462042862417029312e-02
-4.928855480882019663e-02
5.030863579481740372e-02
-1.824864607167343139e-02
-1.167607788731520740e-01
-1.178515763934213922e-01
1.830082374943739834e-02
1.250167886971246742e-02
-4.975991560864017477e-02
1.585765236081511098e-01
1.132418907195870961e-01
-5.134413819295486486e-02
-2.110195593166446296e-02
-3.160978663975774587e-03
-2.851136148112550211e-03
-2.260802617870715653e-02
2.431067872099998417e-02
4.353514534195947194e-02
3.322041105245732151e-02
1.727849143312006064e-02
2.465024459866361692e-02
-4.739683109763307561e-02
1.024978432946631627e-03
5.481186791930267588e-02
1.700763100497716673e-02
-1.046785810473234851e-01
3.730219875594441986e-02
3.638180270549775698e-03
-7.161200455127142428e-02
6.646361936954467420e-02
-3.842686498364965286e-02
6.622011375877165373e-02
1.561401442410010991e-02
4.609781890927069914e-02
-8.799487719731530211e-02
4.300865449077598962e-02
5.615827128626205145e-02
-8.040077132808966590e-03
-2.413771454019155230e-02
-2.652437889666252324e-02
4.605478821360224628e-02
-2.816279400876787326e-02
-5.835674941220950207e-02
-7.690417554356646090e-02
4.955391578218139997e-02
3.773725562961822294e-02
8.344650106862454980e-03
-1.993805781354970885e-02
1.942004041357940983e-02
-3.624227492861206538e-03
-1.458940108226450781e-02
5.553963538495207408e-02
2.729151822324637610e-03
-3.457065211836597013e-02
-1.230027280481810160e-03
-2.644433122103705125e-02
-5.854753661417073929e-02
3.635467330421186111e-02
2.616908672256610530e-02
-9.102551661187567589e-02
-1.951436968512003378e-01
-7.298858568695386351e-02
-5.464889580778479333e-02
5.658918662790252997e-04
1.798206821687060586e-01
5.945435587012968398e-02
1.739657650526992005e-01
-4.004638609470529548e-02
1.716445225934896956e-01
4.916474462158849229e-02
2.511690297145460771e-02
1.465472353574834644e-02
-1.013165081391813743e-01
-1.466767261085877988e-02
-1.045503268775355987e-01
-2.646139902256572363e-02
5.334411178576483302e-03
-2.362613110162579272e-02
-3.254953897523003153e-02
-4.069821885244297166e-02
2.311640126606833313e-03
-1.319124226965738035e-02
1.288804789163378595e-01
6.302787667759912615e-02
2.778568018155618338e-02
-1.827563153550809671e-02
3.874480739317828770e-02
-6.585471926879579718e-02
-4.962705506807767869e-02
-7.881060988297139414e-02
8.300965150301947704e-02
-9.770142519013345211e-03
-9.828502208939457474e-02
-8.505021735046895681e-02
-5.017777517207584054e-02
3.253759248592566489e-02
1.043648838961578895e-01
7.163165163422692550e-02
3.474902911464108207e-02
-4.901281620778485948e-02
9.477468017543333456e-02
7.055313664806520113e-02
-4.887822068961702321e-02
5.848892439280944586e-03
-5.141222037378619103e-02
-2.505277239688030039e-02
3.179320405287341684e-03
-1.020841300540815677e-01
-3.933876932991772074e-02
4.250396974486043977e-03
3.164197913756604252e-02
1.931876549038881452e-02
2.183518205383366481e-02
6.776228328293583403e-02
-3.385707555211926734e-03
-3.888550398505236094e-02
6.793561399176577253e-02
2.957216181993784637e-02
-1.974951510885059741e-02
1.104166940794716265e-02
-4.205060465135004172e-02
-4.042024541512710678e-02
3.255642394073095247e-02
1.729644296432893483e-02
-5.738467700487339535e-02
-1.848917134537619855e-02
-4.712391991073699993e-02
-4.556925568041132746e-02
1.540998689020387641e-02
-5.852652978276969703e-02
1.943871238696350812e-01
-5.986863983370410529e-03
7.642771665691867541e-03
1.934700938957623420e-02
5.281740161264420613e-02
-6.751495171788706243e-03
-4.215896109272983250e-02
2.808226827356069544e-02
-5.299213069358377215e-02
1.376934010557535372e-02
-4.971923328532160818e-02
1.670884687554169759e-02
-4.001159580399882287e-02
5.473476083953422722e-02
-6.414493816385750946e-03
-4.141648473285799992e-02
5.234885981791301962e-02
6.074046253105453569e-02
6.358962905245571506e-02
4.287488714343508714e-03
-3.409517830071463057e-02
-5.369304376921789357e-02
-4.310509978709413381e-02
-2.500436132192407693e-02
2.728010288109753573e-02
1.219043824585780977e-01
4.606985753545340782e-03
-3.268045908001824401e-02
-1.130180875089735193e-01
-2.356988455471391991e-02
-9.786432798462302643e-03
1.462090226053431793e-02
3.792259346951071947e-02
-8.199321195712128141e-02
-1.887016409337795991e-02
-4.344362392291791636e-02
-1.813171187762275052e-02
5.269839194704578969e-03
1.003452384399162040e-01
2.281369178257033892e-02
3.400994243384992261e-02
-6.738878449421742411e-02
1.549833580094075493e-02
2.124961928022208735e-01
4.507551589102479911e-02
-5.083013215162449430e-03
-5.119475735950602263e-02
-5.030209237845188752e-02
-9.910139704684965689e-02
-9.601529111688695758e-03
-3.607798860879922465e-02
-3.439813883025401309e-02
6.795387309720565816e-02
-5.401318095278482591e-03
3.600698843612634009e-02
1.665338992451404626e-02
-3.513527681182481571e-02
5.549834306182436193e-03
-1.706218211081475880e-02
-1.189125323962629023e-02
-2.574598528272489546e-03
8.487074667113429435e-03
2.230348525203905419e-02
-6.322890400949696468e-03
1.510530054328369006e-03
-3.528421831638123979e-02
1.427469320370558514e-01
-9.219831006402707738e-03
2.793714499536129568e-03
-1.721107296561178931e-02
-5.087034813316204142e-03
-3.892476903081718009e-02
-3.981372040406284951e-02
-5.938097867776605948e-02
2.120362167156296385e-02
2.827185327328408937e-02
-5.861893392795519686e-02
3.789978491802938054e-02
2.464128254088281990e-03
-4.064248496368085863e-03
3.222477298512395338e-02
9.495608212463094167e-02
4.204871215171746696e-02
-3.329529729078171268e-02
-4.146197553586309509e-02
-5.129697494622065430e-03
-1.162442611055524919e-02
-2.878579423493864489e-02
-1.670760360958688240e-02
1.189067450980162838e-01
-8.763283124445688096e-04
1.209181561783375797e-01
2.148224836458920498e-02
-3.829521481350335599e-02
-4.813287023267397158e-02
-5.766375033096893948e-02
-1.163389859513521002e-01
-1.090274626474513203e-01
5.429003920697548363e-02
1.031485970086186144e-01
3.312657169007880709e-02
4.129538590980249418e-02
-3.325055614045271946e-02
-2.797920055972514045e-02
-6.160337446784782539e-02
7.120929760116770542e-03
1.088087223289504191e-01
-4.504678707709280222e-02
-5.520305659543182225e-02
-8.664333753214205347e-02
6.371034173433733766e-03
1.006401709355671248e-02
5.452847784860927888e-02
2.610800426297906207e-01
3.790870230565430467e-03
-9.770438530021788304e-02
-5.182617547213511783e-02
-4.109578270270593248e-02
-2.262987277457475035e-02
-1.632182448718431933e-02
-3.529287212353902914e-02
-1.822095121818456398e-01
-1.653772374577597293e-01
-1.607203869884703262e-01
-8.926228936995639351e-02
-5.303652373502876216e-02
8.209105493096816031e-02
7.232192654670960286e-02
4.961929682553860022e-01
-2.803376890698682303e-02
1.007359337408958583e-01
1.155418381678276485e-01
2.007271072581589058e-02
-4.085286408930767434e-04
-9.234854760674635066e-02
1.989216488040338598e-02
-1.354518023603166754e-01
8.164350606215664552e-02
4.570926903396277385e-02
-1.777970047520721283e-02
3.358659899448555863e-02
1.086391241268259630e-02
3.187437891367121690e-02
3.100798363164318505e-02
-2.169059485733931536e-01
-1.451321593113105886e-02
1.033280502220493280e-02
1.786484261229125473e-02
6.683699226447413315e-03
9.192140373231451334e-02
-2.894539729291886222e-03
-4.925542939836419221e-02
-6.013956553447138281e-02
2.233052327593113007e-02
-4.659170542922748772e-04
-2.793969848100152920e-02
-3.489178474751578052e-02
1.075721394237774339e-02
6.174850657305136492e-03
4.553857692033302929e-02
-2.150376451313744733e-02
2.316204265196610560e-05
-6.901339975170897589e-02
4.440735098108302206e-03
1.966690223319717337e-02
8.760807630490372033e-02
1.047143145781962749e-02
-1.011318328007790182e-03
-5.218558905696401434e-02
5.279150632234359819e-02
8.532864171992152191e-02
1.183308207173480037e-01
8.661029788090808534e-02
-1.659816365471868949e-01
7.673949172758398087e-03
-1.330207766489520382e-01
-5.173280261713839728e-02
-1.673831537339557501e-02
-1.578856250122340557e-02
1.203326384171479399e-02
1.550197016293206574e-02
-6.523492081587895820e-03
-4.434496583987462132e-03
-3.096893331567580985e-03
1.904652586711510012e-02
-6.595433645964760352e-03
3.332774857317279127e-02
1.144831910078137130e-02
3.969772106342038531e-02
-2.043839475467864285e-03
-1.517522449355732279e-02
-7.064200299770613534e-02
9.982711875320715231e-03
2.262617554513816215e-02
2.471964228678420403e-02
5.008815597548047296e-03
7.561189583928409896e-02
2.871633069455216056e-02
-1.084089261600893750e-01
-1.078985254168829747e-02
-3.748408126152830144e-02
-1.315095051316217678e-01
-1.618400568109816251e-01
-1.359080820238326159e-01
-5.956369537063316288e-02
-3.112542595740334060e-03
6.207731216617799058e-02
6.130079391314960380e-02
3.685557758534818706e-01
-3.847862519321567504e-02
8.150022338391627041e-02
4.744860699944702942e-02
-4.298564778695166538e-02
3.943138337496957663e-02
-2.568505936620951724e-02
-1.880296220331862528e-02
-4.242791920863751148e-02
-4.190811773924060790e-02
4.643016245517050944e-02
3.840436949388481569e-02
2.399601093324271045e-02
-1.161174603361499018e-02
-2.615131849842264322e-02
5.940015370841288979e-03
-3.509937598186070595e-02
1.040869667481890415e-01
5.314403015376544664e-02
5.840463805867866093e-02
-9.824646464453080930e-02
-1.060971099813817209e-01
6.326733835872030975e-02
-2.813280437718761531e-02
-4.642659431625342781e-02
-4.019239286721098398e-02
1.216753713827125466e-01
8.864641340868789719e-04
-4.754112349687793226e-02
1.114169916511970927e-02
-4.567388209467538457e-02
1.775299872577922738e-02
-1.804913494893390161e-02
7.751136439412985649e-03
-2.565628615309070021e-02
7.789367212269117380e-03
5.078073556340646777e-02
-1.621178572679092544e-02
-1.306141047671461122e-02
-8.877306293463513645e-03
-2.514450565028874488e-03
-4.787961084040302101e-02
1.979882314753736786e-02
-8.335825370181184149e-03
-6.526070321954050013e-02
5.416936954593762343e-03
-1.424801022436922651e-02
1.887245821107218571e-02
9.163593134129119355e-02
2.058016723028560091e-01
9.354085055917382707e-02
9.081116048188649092e-02
-5.162612135191498725e-02
-7.819496015630213182e-02
-5.210590082189587441e-02
-5.611372519949460458e-02
-1.521129758143088540e-01
-3.651160725905817916e-02
1.272687761869827350e-01
-3.752004385953622290e-02
-3.007903073239440173e-02
-4.063345370263167500e-02
6.111438580708742664e-03
-5.927001709630915632e-02
7.063393788223794323e-02
-9.837502670175367336e-02
-1.658775366495975762e-02
2.425025282214393271e-02
-2.765317255444328225e-03
1.106102234545431467e-02
-1.001912933574214057e-02
2.261904035430164703e-02
6.981691143600142480e-02
-7.672398316199878499e-02
-8.440241411179556785e-02
-2.661006185204156660e-02
1.575825493401504518e-01
4.863289554158947703e-02
-9.547810477954379871e-02
3.178894493623508899e-02
4.521017408740438115e-02
7.390845769435330781e-02
3.569126044058571617e-02
9.750631672122237262e-03
2.290845650164943705e-03
-2.674277458777328184e-02
6.520914275096992285e-02
-9.403171527887935199e-02
-6.607584834154198172e-02
-8.780763675382273481e-02
-3.794382145958499070e-02
3.669677147090927988e-02
9.022274572294464168e-02
3.675763101750458700e-02
9.191198441752503751e-03
2.322619043075812434e-02
-7.034307887046223340e-02
1.074244012724538816e-01
-2.666894702884174337e-02
-2.270409846110629445e-02
-1.166161005323654437e-01
4.035237981850950048e-03
4.539890168831529904e-03
2.909652233651788007e-03
4.707996436552637498e-02
-1.202772270757995199e-01
-8.836125353306387153e-02
-3.687440487293416891e-02
-8.434871702458707557e-03
3.944004601358404999e-02
7.380787911273416213e-02
6.264118411696789623e-02
7.805864794096892267e-02
1.615978528388764546e-01
-1.161181062416052033e-02
7.610433767356231290e-03
6.694778695214405329e-02
-7.647920334093508132e-02
3.758925183057386377e-02
9.564334244964499063e-03
-1.952186456688204119e-01
-4.769129233788518482e-03
-2.365242557534801005e-02
3.777310586203703503e-03
3.215858921769033322e-03
2.553266092478545871e-02
-7.757946981062731340e-02
3.875028349266689681e-02
3.472491069433757821e-02
1.898116454778178003e-02
1.100314629368021602e-01
-9.723265303144670857e-03
-4.208205148660010969e-02
6.676514295894463158e-02
-4.453529298962462940e-02
-7.715395092139364086e-02
-2.228320974276538219e-02
-7.417058339824196544e-02
7.089697806403354521e-03
7.508409512662994612e-02
2.489451200866454536e-02
6.140216277783817900e-02
-3.412461184848596119e-02
3.458808770760032208e-02
-9.476336018040902587e-02
-6.376227817189969449e-02
1.652010653469912216e-01
1.520800495009651254e-01
-8.788218305914533013e-02
-5.147988860130022631e-02
2.352076848053912331e-02
-3.033676949110804613e-02
-1.073407640050409173e-01
1.355502565478522436e-01
-7.118980403466439177e-02
-6.172326598544584930e-02
4.043245580408148798e-02
-1.261979337691314894e-02
1.856551990022227514e-03
8.371356987402163441e-03
-4.067775793233494031e-02
-9.301891506121031869e-03
-1.897792894555009810e-02
2.979132693468714097e-03
4.169486498341967023e-02
3.087411608602187284e-03
-1.395933443115280649e-02
1.496516188396376269e-02
-2.048741628663030417e-02
1.039299199461976159e-01
6.144207386577754670e-02
2.303632490348496778e-02
-3.758332342738811976e-02
2.230796015951996489e-02
-3.591247006806594366e-02
-4.768057976573497614e-02
-8.953990561378986912e-02
1.390969053840978298e-01
7.114712695825833877e-02
-9.386699282228886179e-03
2.381556629882048207e-02
2.261299964678766677e-02
-4.643620864410633736e-02
-6.845813962748169279e-02
-1.323915507341484055e-01
7.572664723188846092e-02
6.982842712692288734e-02
1.459564173457157665e-01
7.850048327338985873e-03
8.681992880721674244e-02
-8.197142830459621353e-04
-8.550590910206215534e-02
-2.998558454539799190e-01
1.972137463609965613e-01
8.404443753671209105e-02
-2.322354231367444038e-02
1.878322491603130404e-02
-1.467011060601652525e-02
-4.807507850898611740e-02
-3.011779165767565491e-02
-1.839548857273879401e-01
-1.549804543801569789e-01
-1.112467224870344468e-01
-1.301530637666330481e-01
-7.437546202558648067e-02
-8.555929222875577334e-02
-6.241910969018352878e-02
5.012427195538657343e-02
5.686098326229616085e-01
-1.304902197402736941e-01
-8.486769280948294747e-02
5.750645522819439887e-02
5.738988359409068901e-02
-4.498646036076589007e-03
1.598574991519483846e-01
-4.499959687181685764e-02
-9.897682516583915929e-03
9.472641652295571424e-02
7.566831213304781034e-02
1.678105259636778757e-01
-5.627004619176719652e-02
-9.494194718297882182e-03
-4.148113124264202894e-02
-4.522706444070141371e-03
-2.264371760229029196e-01
2.416081494902258542e-02
2.890625022439652966e-03
-1.002461675043098688e-01
2.434851451506975517e-01
1.682167742040593106e-01
-2.334518426780548411e-02
-1.396072392484734026e-01
-1.755547683056304376e-01
-2.594080485980009287e-01
-2.392511669832094734e-01
-1.742475247739933564e-01
6.206181301799922057e-02
3.928745549605821424e-02
-2.754722387422597896e-02
1.234447225959301730e-01
4.756599731194416369e-01
1.395429652309324864e-01
8.973061069708358761e-02
7.367004923857534138e-02
-1.510114191096091456e-02
-8.811344142982462102e-02
-1.053583324105505648e-01
4.017587823519353646e-02
-1.345465876504484404e-01
1.676886259026534251e-02
-4.180100518311551105e-02
-2.655228121751473241e-02
-5.626532210205066956e-03
2.365819470523834733e-02
8.594702537500088779e-02
-5.297876544080702688e-02
5.845013811375477037e-04
3.401757570203985115e-02
1.553524949300146840e-01
-5.450539972304448144e-02
2.519600585178984054e-02
-4.005467674008131307e-02
-3.828151561988375751e-02
-2.421678649418179327e-02
-5.750769790665136855e-02
-8.069609263286500744e-02
-4.200484675943317453e-02
-1.184960184863272613e-02
-3.221412001343314235e-02
2.113082460799919557e-02
6.476277737465186909e-03
-3.504056506522510751e-04
1.395079645595521112e-01
-1.177063173355616804e-01
-9.586520960046757134e-02
5.542944050504537701e-02
-7.454311205831376519e-02
6.696643209708746936e-02
5.390497741285445177e-02
3.342791471055218261e-02
7.838587426880409825e-02
-1.849514796758887358e-02
-9.606892662838299735e-02
3.666606724201253859e-03
4.053025253906691189e-02
-5.134316779874054104e-02
4.715866272497576395e-02
7.900454822462107951e-02
-4.452827818152701317e-03
-1.821864585824575083e-02
-1.121528887607479638e-02
-5.640323863830362314e-03
-3.745693564135482018e-02
5.956069224440527915e-02
4.802911665114314305e-02
-1.074573444545980951e-02
-2.431288021058269216e-02
-7.949989654992041521e-02
1.000574230977156615e-01
7.335614066593380833e-02
1.889609768076738749e-01
-1.347426927716031085e-02
-9.599422835011245381e-02
-4.280481573796628136e-02
-1.306013306561643328e-01
1.230993819167734427e-01
-3.744931334327882000e-02
-9.584306165586242710e-02
-5.173952562282204543e-02
-9.418424489110095200e-04
5.962731219537539123e-02
3.807571851047191619e-02
-3.482866955174890311e-02
7.054999628663630173e-02
5.126793618460112612e-02
-6.140014199812184742e-02
-7.107204267396620423e-02
5.048197711094953855e-02
8.100245116308378568e-02
6.286469113440307233e-02
-1.836948672075840727e-01
2.475193374665843327e-01
-5.879779285608698492e-04
5.837543035277211606e-02
-8.832745642776687611e-02
-3.737978450845566569e-02
-3.097014775041612850e-02
-1.516934369635653812e-01
3.064035759407470610e-03
-2.949938251001475997e-01
-9.962547028178739272e-02
-1.095889135279553700e-01
-1.910092785346265837e-02
-7.172805748183558316e-02
-3.475483821772654830e-02
-2.638237058604124205e-02
6.561744030489616852e-01
-8.005657954520370434e-02
-1.124129026128281236e-02
6.010553183250220283e-02
2.312258398495942169e-02
-1.878629580036481018e-04
5.370778638494928814e-02
6.133268889983251732e-02
-1.067828583377540691e-01
3.205149059249327165e-02
-9.563550009180597777e-03
2.508263271597430469e-02
-6.322851031395702870e-02
3.988968897587930745e-02
-1.316178374784391855e-02
2.574458077884000246e-02
-3.681454899220464733e-02
-1.031985175673837130e-02
-2.235855491558490921e-02
-2.668520272843660779e-02
6.719693999454738609e-02
5.400494537483658750e-03
-6.555914574578501457e-03
1.369366384484793121e-02
-2.037157440154019686e-02
-1.250804791539161798e-02
2.869227761053687667e-02
3.637924122416179989e-02
-4.347168594394090757e-02
-2.824410572807344033e-02
7.992779576798648977e-02
3.063888913129764191e-02
-9.141436414657715115e-02
-1.207626863075847296e-01
-1.411193318517734718e-01
8.860455197442504427e-02
-3.588773507287046534e-03
4.956045299820056871e-02
3.025776951226404748e-02
2.403259240598954252e-02
7.301542477576353218e-02
-1.901977326601140272e-01
-1.356715534588472660e-01
-9.630522050748466234e-02
-3.530287166536370119e-02
1.107361203364055913e-01
1.024194471784003468e-01
8.827857587980343645e-02
1.560432348972008720e-01
8.717792035549447316e-02
-3.670959608709672972e-02
-1.006662607782020796e-01
-6.175571672645338572e-02
-9.870199448923184724e-03
4.107743520372453272e-02
3.610534315985169246e-02
4.464107432160561301e-02
6.241061352953779229e-02
1.377664933040363415e-01
6.806854670269790741e-02
2.170118329597302970e-02
-3.977874688352727416e-03
-7.013970622540444122e-02
-1.007875636162592625e-01
-1.150416923022321708e-01
1.015003662346192631e-01
5.583567656982458237e-03
1.997299485666963886e-02
-4.592475831381881424e-02
4.916562766407123891e-02
-6.548071764260415817e-02
1.739493714985328524e-02
-8.221201760577230566e-02
-1.268370550695335774e-01
-1.131032289488478754e-01
9.489505267656583865e-02
8.764147814491428379e-02
5.377839085689747195e-02
-1.738921653769680969e-02
1.680146082860059162e-02
4.213118049099659305e-03
-3.858421110115086566e-02
1.904874025597826440e-02
-3.777153656947234567e-02
1.127242966542435151e-02
-3.637873269317527108e-02
2.659859884564839266e-02
4.396050514338551568e-02
1.185420645336161816e-02
2.167953145320463959e-01
1.850948482725938218e-02
-2.856968830395726841e-02
-9.438406829357980088e-02
-3.788516169041327569e-02
-2.249710543116860764e-02
1.759566353825359891e-02
-6.956443917844236380e-02
2.467087144500703690e-03
-6.793103833454321172e-03
-3.863585899396540426e-03
-2.463103283906138349e-02
2.215823530608603681e-02
-4.416635633445235853e-02
-3.648773957830402093e-02
9.131649603408220628e-02
-8.589347171065417341e-02
5.027963727158165155e-03
-2.024762434351325829e-02
9.518574002061148259e-03
3.207576218803032120e-02
5.293266794342935816e-02
-2.204493374384669871e-02
2.863106193733347404e-02
-8.433631890544561471e-02
-1.741308287458177492e-02
1.569985885560540567e-03
1.066950970524891129e-01
-5.533648719297995511e-02
-1.004554362500126308e-01
6.854755047326870077e-02
8.072869181170488906e-02
1.146050632569956852e-02
-3.675405344569003530e-02
-5.350205296287742496e-02
-3.417507801393293576e-02
-2.288784647261933938e-02
1.206698642758702311e-02
4.624518830015477561e-03
1.191670193118181814e-01
-9.342914648572776815e-02
3.412487956047503129e-02
7.380720651205152638e-02
1.131953551721041201e-02
1.914333188603420388e-02
-4.121032807984539165e-02
2.899107155375972925e-02
-3.274655046395864161e-02
1.715148355182996298e-01
2.342229789294549350e-02
6.113161698303573588e-03
1.518844921658110171e-02
-9.511792662711326951e-02
-3.748431265984208255e-02
-1.063520382913095419e-01
2.271553325213976696e-02
-9.431239579074723878e-02
1.962275540388251811e-03
3.345087013562033501e-02
1.792684469091129773e-01
3.730194505251996362e-02
-8.283314510515647766e-02
1.878285981504669577e-02
-9.362085655678330232e-02
8.697888891470964556e-02
-8.328201045551637469e-04
-1.419114672469030253e-02
8.012772983144568831e-03
-3.626839358412115716e-02
-2.892268005178343440e-02
1.652279294758743659e-03
-1.642890072746356483e-02
-5.304281160199843942e-02
5.670679619058036774e-02
6.137391308273630608e-02
3.621551927366468970e-02
1.258017334776261043e-02
-7.648010128670400080e-03
-7.802974757944546036e-02
-2.815583258463108876e-02
5.134186690609156278e-02
-1.451188126591475003e-01
-7.793626589346064337e-02
-6.537692615495725723e-02
3.833094886507026899e-02
1.484235303942529893e-01
9.523579376563932886e-02
-4.490013522349172587e-02
-3.447033540856746930e-02
1.327604559087167402e-01
-2.665427269388689901e-02
-1.979039128347592769e-02
2.424031439810264352e-02
2.433047272948835049e-02
-2.958022790301182564e-02
-7.083601574736433926e-02
3.622025567972339544e-02
-9.758523986775680115e-03
2.365075282236386942e-03
-1.464611256829524179e-02
-9.029470431116761592e-03
1.734720203080087481e-02
-5.853168439059724948e-03
-1.664525756751322402e-02
4.949041901717969594e-02
2.637514956648866898e-02
2.805676684045525782e-02
-5.959808099403808568e-02
-1.307654839664283523e-02
-3.991297825742388082e-03
1.459359923125474036e-04
-2.740234420001422255e-02
-3.230756232123328797e-02
-1.052295979755623820e-02
-1.054973477363469782e-02
-9.542812365897079471e-03
-8.363534555482573726e-03
-8.836932624688464619e-03
1.737387418305923539e-02
6.274966225543308906e-02
-6.358825468666280678e-02
1.732042426852330869e-03
-1.009678410730774495e-01
3.064340312268546904e-02
2.477087849841514561e-02
3.010442832298964796e-02
-9.168335284668309437e-03
8.647367867346601733e-02
-7.450733258011996152e-02
-9.656169627168835132e-03
-2.958097335415464657e-02
-2.854639736089120694e-02
-1.036919684159285232e-01
-1.700001971071865743e-03
1.320150007010596760e-01
1.156678426082738825e-01
1.998862853136287865e-02
-9.748801721374084073e-02
-8.273653753123848265e-02
6.671264131418986037e-04
-6.008872605560837410e-02
-1.256526757057361415e-02
7.705591650835189044e-02
1.551668769183043028e-01
-1.693475981328110558e-01
-8.217272668482884790e-02
-2.342425118284503435e-02
-3.583680919520671609e-02
1.254424643183727206e-01
1.257193216644041101e-01
2.018946758393390384e-02
3.943013162897766183e-02
1.359052785591790824e-01
1.917262791879547137e-02
5.156974285785619755e-02
-6.895744947494014676e-02
-5.899405882700484161e-02
-7.883462570604082842e-02
-2.199949497660427800e-02
2.213797964875859753e-02
5.069326445124158753e-02
7.266149810346449189e-02
6.287855553706389600e-02
-5.954903615802560092e-03
5.994356337537382756e-02
-6.431405499194781106e-02
-8.404268464412686934e-02
-9.186523821526595968e-02
1.291930684254148087e-01
3.495482959983058080e-02
1.641773081239207219e-02
-6.943818692964880135e-02
-8.345213494080408467e-02
2.511202409707532016e-02
-5.948582860188557538e-03
-4.683874820406797035e-02
-9.696336905113285554e-02
6.446728915434446483e-02
4.950316542446713680e-02
3.298213260339967826e-03
-1.827426226060230655e-02
2.680375147314895123e-03
1.780062224390028397e-02
-2.251203391862980144e-02
7.977079694058915316e-02
-1.616493854929461349e-02
-1.699853517839121364e-02
7.448465498347510427e-02
-4.198870834011005776e-02
-1.034173593352494397e-01
2.817912083943534610e-02
-3.865031360455837596e-03
-7.690045379907560485e-02
5.418363372499275521e-02
8.668847063368749495e-02
-5.284535635892518256e-03
-5.690151217039179921e-02
7.521976155949967879e-02
1.739123710206304935e-02
-9.439660141488510903e-02
1.679760693342931266e-02
6.116769776413128606e-02
-3.667513254650621619e-03
7.047661659033746528e-02
-5.800720574602858011e-03
4.745666833822156233e-02
-7.700040038757108296e-02
-1.094299554092933446e-01
4.774597765939767036e-02
6.298172770267523868e-02
-1.244822555344161745e-02
4.705977476679464033e-02
1.650039030273093557e-03
-1.116595005124915857e-02
3.783180928345546406e-03
-1.396065244827955909e-01
-1.209102666512030036e-02
7.712856914728083435e-02
1.649356216982681214e-02
-1.177143421711035476e-02
3.409343761310235782e-03
-1.952403615888517047e-02
-3.597553469241242946e-02
-1.766944334488955437e-02
0.000000000000000000e+00
0.000000000000000000e+00
0.000000000000000000e+00
0.000000000000000000e+00
0.000000000000000000e+00
0.000000000000000000e+00
0.000000000000000000e+00
0.000000000000000000e+00
6.211900639777404726e-02
1.779287592524806880e-02
-1.753807243932367296e-02
9.856433373696352196e-02
-3.582080170138064040e-02
-6.778355740071191626e-02
-1.434822429651562078e-02
-4.298556022205329841e-02
-6.307317916328923635e-02
-1.257158541961765352e-01
-8.259862883056186267e-02
-8.153888003393582051e-02
1.235207152174996048e-01
8.997755182256855777e-02
8.603161991354699167e-02
5.339665527034945930e-02
3.470436273280893408e-02
6.103168784888936271e-02
9.774862836945766298e-02
2.636552253094076592e-02
-7.892260587464935973e-02
4.832832056171398882e-02
-1.141756716918209402e-01
-7.508024447734484852e-02
8.944474168341400022e-02
8.513839770481587688e-02
3.077017990953902302e-03
3.895830886635245210e-02
-9.937896400701200228e-02
-1.006872313233585087e-01
4.064282984662703134e-05
-1.659291374501217428e-02
-5.623720862070782922e-02
7.769823808844827928e-02
8.159703921775165666e-03
-1.725017126116120195e-02
1.966683280015486812e-03
3.446707874715365660e-02
2.416818662839250245e-02
-7.297251078391533974e-02
6.326597810293242870e-03
2.803115892905998219e-02
-3.439724494842129332e-02
-2.080167305736252761e-02
-3.791162115910042679e-02
2.020386695635819144e-02
8.381146065112550503e-02
-4.526254518195398091e-02
3.094238919848211686e-02
1.663268102836995554e-01
-5.802345670243588133e-02
-3.966444623659810126e-02
-4.456538725380428806e-02
8.983892702519594847e-03
-3.427123430125175729e-02
-2.972856769061288373e-02
-4.576960828156727279e-02
-2.972561098040693225e-02
3.976852552534810431e-02
-8.661726184960345451e-03
4.579891924216002858e-02
1.171500444208562891e-01
1.503419229755531029e-02
-1.335947360389847793e-01
-5.050252528174287159e-02
-5.789032447862414721e-02
-5.617851311412357801e-02
-2.085418668795970768e-03
2.613270952082454024e-02
2.690766166618425298e-02
-7.206955818661607603e-04
1.143371059381438903e-01
2.135141114713203295e-02
-7.118504548457804670e-03
-5.803356710251567595e-03
-3.479567147563253967e-03
-1.988328030396080328e-03
-1.718283906629250977e-03
-6.082539671779203317e-04
-6.351168366561407664e-04
-4.262233124730046424e-02
-6.454370317034198445e-02
1.154780651340621628e-03
9.036924320767725227e-02
7.446522878137747103e-02
-3.230192536043221402e-02
-2.596446692957656618e-03
-2.392484616936278383e-02
-1.225169699416524954e-02
-8.633652608470833087e-03
-5.790497206643758360e-02
4.194816182920563935e-02
4.446201218984918713e-02
-7.444483635868595628e-02
7.708740359918990828e-03
5.911624364878548255e-02
-7.427012705339339216e-02
-1.085637648113930986e-01
-2.358142116914042213e-02
4.843954478969682634e-03
-5.829434222547398570e-02
1.736245060702151510e-01
-1.131675200051669716e-02
9.755794671073517166e-02
1.380944717159056194e-02
2.551361552663527349e-02
2.758489404326314870e-02
4.534926530650278120e-02
-1.346500277532240199e-02
-2.358036090940141341e-02
-3.030778222388547105e-02
-4.490407613938280501e-02
6.599607429153228101e-04
-2.969269460793627288e-02
1.890494070497188541e-03
-4.854094642770593465e-02
6.065314902622466475e-02
-3.848818035805949556e-02
4.848228223275512921e-02
5.035935321310391552e-03
3.194390779969782934e-02
-8.215889333396092509e-02
-4.562921855889022797e-04
4.117954297525285023e-02
5.755409127973902528e-02
-4.139029779904271171e-03
-1.073415874884208754e-01
6.341826073318670987e-02
1.150459211499334777e-01
-8.918372068098883235e-03
-9.921814414599739243e-03
-3.974115426130786499e-02
-1.031824113509770269e-02
-3.736320080044830405e-02
5.115515396041872553e-02
-5.993829243080097541e-02
-1.683476040992627765e-02
8.499360364918176480e-03
1.533369622572846279e-02
4.757823965538204511e-03
-1.122317362576123051e-02
-8.627096075044818346e-03
1.819825602833165940e-02
-1.010410647378417147e-02
-2.921121688051326118e-02
1.106209010059612877e-02
-1.768713936763478128e-02
1.900226511770798307e-02
5.328380454894340867e-02
-1.220549723826386962e-02
-9.114696137435330733e-03
-1.512961014340012851e-02
4.136640184614221068e-03
1.388729557941954999e-05
1.372946187056347514e-03
-1.478483038100920216e-02
1.796142461654999176e-02
-2.152788012318819499e-02
8.127256977283173894e-03
4.700555243114209678e-03
-7.809188295547284109e-02
-3.469225930793583268e-02
7.322142977003834319e-02
2.246810362263799987e-02
3.741313251589534206e-02
-1.748585093109921926e-02
-3.898630745176650397e-02
3.615363473770228514e-02
7.164301821309499232e-03
5.020144416476748223e-02
4.409994519636513399e-02
2.384363222318617442e-02
9.192439593383795390e-03
2.576678447522109255e-02
-5.295706456991128297e-02
-1.073114829043192303e-01
2.331977962094420598e-01
5.720866081797848501e-02
-4.982305920364354934e-02
-3.266508847121031567e-02
-6.553078318834655580e-02
-2.191753096093031553e-02
-5.951341354186660826e-02
-6.095658166142488982e-02
2.900229189251576911e-02
4.530973163202830362e-02
-1.160426599513889878e-01
-3.168113340000630607e-02
-5.966310552574891068e-03
2.571236805563963373e-03
3.433188445891417057e-02
4.247495911494715559e-02
6.527454834259706351e-02
-1.358846813158995012e-02
-2.489887054973233607e-02
-7.970380912881963598e-02
8.376134537146696923e-02
-8.332425277102679939e-02
3.690892399904385779e-02
1.557058286805928539e-02
-1.285647868189262466e-01
-7.259038852091506677e-02
-1.656274278405931583e-02
-2.700389170064745881e-02
5.313710791633155517e-02
-1.421269826425196510e-02
1.088106697315260607e-01
9.698673044094190121e-02
5.724338560657794145e-02
3.520100335224358307e-02
-7.921749314857007285e-03
-1.664302007863174837e-02
1.516749447903631767e-02
1.202371232507679077e-02
-3.479804095928259317e-02
-6.027278541016142105e-02
-1.102392279566460354e-01
-5.945412315831497679e-02
-2.234117826867353801e-02
1.039280033270610359e-01
1.071209983305952268e-01
-8.535126530493934716e-02
-3.875093466670197911e-02
1.050877276976213276e-01
3.505590898143624411e-03
1.339659329286298772e-01
-5.355360708207791698e-02
8.085382396394473481e-02
-1.224114218817297650e-01
-4.289478382107909243e-02
3.150635808821437844e-02
-3.097189309404674989e-02
7.390845769435330781e-02
3.569126044058571617e-02
9.750631672122237262e-03
2.290845650164943705e-03
-2.674277458777328184e-02
6.520914275096992285e-02
-9.403171527887935199e-02
-6.607584834154198172e-02
5.896280645215763033e-02
7.536320823572037475e-02
1.625005106498521312e-01
-3.004975448856150172e-02
-1.133683973106252713e-01
-1.830337684536923956e-02
-5.623168209521169775e-02
-7.887331459796376176e-02
3.066405810425808579e-02
3.321711441513794036e-03
3.900848028550574914e-02
2.187300114323497899e-02
3.338599736462571216e-02
-5.555519801150785031e-02
6.245399666255734179e-03
-7.894344999388649975e-02
-8.787696788829386929e-02
-2.174679040786109963e-01
6.424443196767794240e-02
-7.538016714116725636e-02
1.212978933622941569e-01
7.764207774795656158e-02
-3.747042730491363487e-03
1.212876787606343432e-01
-2.196139332228878253e-03
-1.440096079498027690e-02
1.060966365287754481e-01
-2.966575605632411350e-02
-2.095008667133605590e-02
-1.345669829461859299e-02
-1.105391248931933239e-02
-1.437308288996818305e-02
1.758721886618139565e-02
1.838525917361532105e-02
-8.524025603418637284e-03
-6.036955533514989231e-03
-5.772875915163528521e-03
-4.404461455788890277e-03
-3.510861931132946024e-03
-7.723297600777739684e-03
-5.651972356341663367e-02
-8.674802546259366420e-02
7.688909677247730834e-02
3.372171989190585195e-02
1.335106950628089928e-02
3.136666023960532970e-03
7.482921235398645038e-03
8.686275595987259790e-03
1.453953594111210279e-01
1.457326037396720897e-01
-7.580518428536243969e-02
1.604843505506080986e-02
-7.052567174320507892e-02
-3.051527453723919606e-02
1.147833455684418510e-02
-1.418086021968915922e-01
1.204002665024715146e-01
7.217904200860970898e-02
4.125479970388463979e-02
-6.014914016415930098e-02
-4.709496845056774378e-02
-1.642552033847683932e-02
-5.837639690487782251e-02
-5.178808235688368150e-02
1.602636682127213108e-01
8.446574322851803374e-02
3.804259321131706062e-02
2.451900020614487113e-02
4.794525778024668478e-02
-2.760860736936393903e-02
-1.248620161795305772e-01
-2.027656390900554328e-01
-1.560250745209223674e-02
-6.167101640040764665e-02
-4.329191867419449058e-02
-6.017163799262072871e-02
-3.997474728051601117e-02
4.120065840115216121e-03
1.302031220439895005e-02
2.035714497553170466e-01
-3.784625221927327698e-02
-5.286397715611587667e-02
1.227777166763888671e-02
1.206005122350973374e-01
6.142678226172144755e-03
-2.301137668911438366e-02
7.456297693952622548e-03
-3.275565375835735177e-02
3.549936684456732328e-02
-1.156930688837205512e-01
-4.701845992920879874e-02
-2.756135477084591286e-03
-7.074631345809138938e-02
3.238983040043678235e-02
2.551280131399469298e-02
1.428119791891068746e-01
-1.312140350229228959e-02
3.314549017655540192e-02
-9.465477605346580073e-03
-5.352142568802219572e-03
-2.124174945632557009e-03
-1.351148477451728910e-03
-7.915171180421240807e-04
-9.396259589879355336e-04
-1.699269290424047438e-02
9.936097003763816327e-02
-7.251151896423903287e-02
3.206245929416720597e-02
8.972518052802357091e-02
-4.147400313804722877e-02
-2.766093398676755868e-02
-6.250946086653511036e-02
1.114334611800078811e-01
-1.618173691575858567e-02
3.956318116029815951e-02
-3.970928346798558578e-02
-5.370752982586777385e-02
9.606144735711889468e-03
-1.779019214822286435e-02
-3.321404471818264342e-02
-2.571511603699162818e-02
-5.121554995366945501e-02
-3.198409792861563877e-02
9.166069116226581437e-02
1.381602989284822121e-02
-1.516897854248302167e-02
3.961817170328829629e-02
-2.101115029664178679e-02
-1.015043112493414224e-01
8.724963860063517096e-02
9.470573423065492547e-02
2.497776848467540139e-02
5.506060022515178211e-03
-3.063588896568466072e-02
4.020049967021310615e-03
-8.431905109047541091e-02
2.194061657440058710e-01
-6.880306717926940041e-02
-9.508500035755938773e-02
-3.736802207936784637e-02
2.915817802705030631e-02
2.301036948870969351e-02
-1.105731785217883151e-02
-5.926130579138930848e-02
4.875034706008620627e-02
6.953060602253784139e-02
-2.622743892203771229e-02
4.203860434128917078e-02
-1.476730755783776765e-02
-1.993526234961131433e-02
-2.714082667050693107e-02
-7.224872192392238490e-02
1.339298288359081490e-01
6.199598180815418802e-02
2.385142709640202321e-03
-4.755605134734543910e-02
-6.253774152953912868e-02
-1.555301250654920336e-02
1.447511706002037064e-03
-7.411165967627061923e-02
-7.028361044005605740e-02
-6.466626017394168369e-02
2.285824000107635270e-02
2.549188212353371147e-02
1.462030157534601436e-02
1.856208713091104037e-02
-5.681240549362179607e-03
5.909860033249268729e-02
-4.676499965177517704e-02
-8.193329561169851449e-02
-1.265317675125593976e-02
-2.581074228877960203e-02
-2.091323009125174714e-02
3.491441321307199586e-02
3.514476070719196876e-02
1.180162704744999458e-01
0.000000000000000000e+00
0.000000000000000000e+00
0.000000000000000000e+00
0.000000000000000000e+00
0.000000000000000000e+00
0.000000000000000000e+00
0.000000000000000000e+00
0.000000000000000000e+00
3.530979006342821469e-02
2.269120214723872528e-02
-2.476248292451045663e-02
-4.174139941347523863e-02
5.165336350485597028e-02
-3.422635207038630251e-02
-3.108359326552260268e-03
-5.815761980599829656e-03
-6.920258914958064486e-03
-7.000508563412462422e-03
-7.393539223686790632e-03
-7.495653313420199207e-03
-8.581490960365270593e-03
-5.585293154394202139e-03
1.773699346839287955e-02
2.523975066184407090e-02
5.862147721967799624e-02
3.223129484875838363e-02
1.188602138586176624e-02
3.379590935342798724e-02
5.599319152822469087e-02
1.641173772588445934e-02
-8.719598082018366336e-02
-1.217436512416509853e-01
1.005160376266181349e-01
2.060789661837829356e-02
5.170666565220537886e-02
-9.300684486739775256e-03
-7.076368962724681466e-02
-5.397010056493885960e-02
-7.986444879975830580e-02
4.106832358148057582e-02
1.978281663639074386e-03
6.577054163005001571e-03
-4.848729845441462905e-02
3.507340159748927044e-02
-1.078194857988653936e-02
1.462042862417029312e-02
-4.928855480882019663e-02
5.030863579481740372e-02
-1.824864607167343139e-02
-1.167607788731520740e-01
-1.178515763934213922e-01
1.830082374943739834e-02
1.250167886971246742e-02
-4.975991560864017477e-02
1.585765236081511098e-01
1.132418907195870961e-01
-8.244729486300966803e-02
1.856717273132812984e-02
8.843035901182351444e-02
3.579461342950146941e-03
8.969542313064330155e-03
4.868891922755123891e-02
-2.567842839112760914e-02
-6.010973137258009830e-02
-5.134413819295486486e-02
-2.110195593166446296e-02
-3.160978663975774587e-03
-2.851136148112550211e-03
-2.260802617870715653e-02
2.431067872099998417e-02
4.353514534195947194e-02
3.322041105245732151e-02
1.727849143312006064e-02
2.465024459866361692e-02
-4.739683109763307561e-02
1.024978432946631627e-03
5.481186791930267588e-02
1.700763100497716673e-02
-1.046785810473234851e-01
3.730219875594441986e-02
-4.156442515605541371e-02
1.825341645333587726e-02
-6.677621680698496431e-02
4.831552193921003630e-02
4.287246591441402216e-02
4.468052337024237125e-02
-8.545712377166071738e-02
3.967583805750166809e-02
4.520260542660491793e-02
-8.986542100460734317e-02
1.332398361765289307e-01
-8.674238692285911323e-02
2.334764784435918589e-02
-2.906650894614121877e-02
1.315549426809314859e-01
-1.276707152548164081e-01
-7.690417554356646090e-02
4.955391578218139997e-02
3.773725562961822294e-02
8.344650106862454980e-03
-1.993805781354970885e-02
1.942004041357940983e-02
-3.624227492861206538e-03
-1.458940108226450781e-02
4.300865449077598962e-02
5.615827128626205145e-02
-8.040077132808966590e-03
-2.413771454019155230e-02
-2.652437889666252324e-02
4.605478821360224628e-02
-2.816279400876787326e-02
-5.835674941220950207e-02
5.553963538495207408e-02
2.729151822324637610e-03
-3.457065211836597013e-02
-1.230027280481810160e-03
-2.644433122103705125e-02
-5.854753661417073929e-02
3.635467330421186111e-02
2.616908672256610530e-02
-9.102551661187567589e-02
-1.951436968512003378e-01
-7.298858568695386351e-02
-5.464889580778479333e-02
5.658918662790252997e-04
1.798206821687060586e-01
5.945435587012968398e-02
1.739657650526992005e-01
-4.004638609470529548e-02
1.716445225934896956e-01
4.916474462158849229e-02
2.511690297145460771e-02
1.465472353574834644e-02
-1.013165081391813743e-01
-1.466767261085877988e-02
-1.045503268775355987e-01
1.637143881003378099e-01
6.050757728030936242e-03
3.193769688014960056e-02
-3.287552716873985963e-03
-6.448329239727003392e-02
-4.764108353184521444e-02
7.095808536927350994e-03
-9.338672259945429710e-02
-2.646139902256572363e-02
5.334411178576483302e-03
-2.362613110162579272e-02
-3.254953897523003153e-02
-4.069821885244297166e-02
2.311640126606833313e-03
-1.319124226965738035e-02
1.288804789163378595e-01
6.302787667759912615e-02
2.778568018155618338e-02
-1.827563153550809671e-02
3.874480739317828770e-02
-6.585471926879579718e-02
-4.962705506807767869e-02
-7.881060988297139414e-02
8.300965150301947704e-02
-9.770142519013345211e-03
-9.828502208939457474e-02
-8.505021735046895681e-02
-5.017777517207584054e-02
3.253759248592566489e-02
1.043648838961578895e-01
7.163165163422692550e-02
3.474902911464108207e-02
-4.901281620778485948e-02
9.477468017543333456e-02
7.055313664806520113e-02
-4.887822068961702321e-02
5.848892439280944586e-03
-5.141222037378619103e-02
-2.505277239688030039e-02
3.179320405287341684e-03
-3.548470135281726195e-02
1.642107926725101530e-01
2.929010128368373864e-02
-1.748595605068817629e-02
1.395389778288898090e-02
-4.129848008836923406e-02
-1.102782734628373340e-01
-2.907380784369974994e-03
-1.020841300540815677e-01
-3.933876932991772074e-02
4.250396974486043977e-03
3.164197913756604252e-02
1.931876549038881452e-02
2.183518205383366481e-02
6.776228328293583403e-02
-3.385707555211926734e-03
-3.400802632235674916e-03
-9.627517868074114693e-02
2.820605362538627600e-04
-2.263559058162487904e-03
-2.912228374941781394e-03
-7.521245629817983978e-04
6.985802804770900598e-02
3.546380472510020365e-02
4.933087495733512462e-02
5.766419110152844370e-03
2.570022504647601069e-02
2.362921323769046761e-02
-1.531614878044448326e-02
4.267247475478782442e-02
-6.413091117190621027e-02
-6.765214715409087476e-02
-5.986863983370410529e-03
7.642771665691867541e-03
1.934700938957623420e-02
5.281740161264420613e-02
-6.751495171788706243e-03
-4.215896109272983250e-02
2.808226827356069544e-02
-5.299213069358377215e-02
1.376934010557535372e-02
-4.971923328532160818e-02
1.670884687554169759e-02
-4.001159580399882287e-02
5.473476083953422722e-02
-6.414493816385750946e-03
-4.141648473285799992e-02
5.234885981791301962e-02
6.074046253105453569e-02
6.358962905245571506e-02
4.287488714343508714e-03
-3.409517830071463057e-02
-5.369304376921789357e-02
-4.310509978709413381e-02
-2.500436132192407693e-02
2.728010288109753573e-02
1.219043824585780977e-01
4.606985753545340782e-03
-3.268045908001824401e-02
-1.130180875089735193e-01
-2.356988455471391991e-02
-9.786432798462302643e-03
1.462090226053431793e-02
3.792259346951071947e-02
-8.199321195712128141e-02
-1.887016409337795991e-02
-4.344362392291791636e-02
-1.813171187762275052e-02
5.269839194704578969e-03
1.003452384399162040e-01
2.281369178257033892e-02
3.400994243384992261e-02
-6.738878449421742411e-02
1.549833580094075493e-02
2.124961928022208735e-01
4.507551589102479911e-02
-5.083013215162449430e-03
-5.119475735950602263e-02
-5.030209237845188752e-02
-9.910139704684965689e-02
-9.601529111688695758e-03
-3.607798860879922465e-02
-3.439813883025401309e-02
6.795387309720565816e-02
-5.401318095278482591e-03
3.600698843612634009e-02
1.665338992451404626e-02
-3.513527681182481571e-02
5.549834306182436193e-03
-1.706218211081475880e-02
-1.189125323962629023e-02
-2.574598528272489546e-03
8.487074667113429435e-03
2.230348525203905419e-02
-6.322890400949696468e-03
1.510530054328369006e-03
-2.319319165126133148e-02
6.561836288977410114e-02
-2.571339317622951468e-02
1.456514871664653724e-02
-2.062041672692212918e-02
1.443700134556902964e-02
-2.949234338404623998e-03
-2.214427705917300718e-02
-5.938097867776605948e-02
2.120362167156296385e-02
2.827185327328408937e-02
-5.861893392795519686e-02
3.789978491802938054e-02
2.464128254088281990e-03
-4.064248496368085863e-03
3.222477298512395338e-02
9.495608212463094167e-02
4.204871215171746696e-02
-3.329529729078171268e-02
-4.146197553586309509e-02
-5.129697494622065430e-03
-1.162442611055524919e-02
-2.878579423493864489e-02
-1.670760360958688240e-02
1.189067450980162838e-01
-8.763283124445688096e-04
1.209181561783375797e-01
2.148224836458920498e-02
-3.829521481350335599e-02
-4.813287023267397158e-02
-5.766375033096893948e-02
-1.163389859513521002e-01
7.120929760116770542e-03
1.088087223289504191e-01
-4.504678707709280222e-02
-5.520305659543182225e-02
-8.664333753214205347e-02
6.371034173433733766e-03
1.006401709355671248e-02
5.452847784860927888e-02
-1.090274626474513203e-01
5.429003920697548363e-02
1.031485970086186144e-01
3.312657169007880709e-02
4.129538590980249418e-02
-3.325055614045271946e-02
-2.797920055972514045e-02
-6.160337446784782539e-02
-1.822095121818456398e-01
-1.653772374577597293e-01
-1.607203869884703262e-01
-8.926228936995639351e-02
-5.303652373502876216e-02
8.209105493096816031e-02
7.232192654670960286e-02
4.961929682553860022e-01
-2.803376890698682303e-02
1.007359337408958583e-01
1.155418381678276485e-01
2.007271072581589058e-02
-4.085286408930767434e-04
-9.234854760674635066e-02
1.989216488040338598e-02
-1.354518023603166754e-01
8.164350606215664552e-02
4.570926903396277385e-02
-1.777970047520721283e-02
3.358659899448555863e-02
1.086391241268259630e-02
3.187437891367121690e-02
3.100798363164318505e-02
-2.169059485733931536e-01
-1.451321593113105886e-02
1.033280502220493280e-02
1.786484261229125473e-02
6.683699226447413315e-03
9.192140373231451334e-02
-2.894539729291886222e-03
-4.925542939836419221e-02
-6.013956553447138281e-02
2.233052327593113007e-02
-4.659170542922748772e-04
-2.793969848100152920e-02
-3.489178474751578052e-02
1.075721394237774339e-02
6.174850657305136492e-03
4.553857692033302929e-02
-2.150376451313744733e-02
2.316204265196610560e-05
-6.901339975170897589e-02
4.440735098108302206e-03
1.966690223319717337e-02
8.760807630490372033e-02
1.047143145781962749e-02
-1.011318328007790182e-03
-5.218558905696401434e-02
5.279150632234359819e-02
8.532864171992152191e-02
1.183308207173480037e-01
8.661029788090808534e-02
-1.659816365471868949e-01
7.673949172758398087e-03
-1.330207766489520382e-01
-5.173280261713839728e-02
-1.673831537339557501e-02
-1.578856250122340557e-02
1.203326384171479399e-02
1.550197016293206574e-02
-6.523492081587895820e-03
-4.434496583987462132e-03
-3.096893331567580985e-03
1.904652586711510012e-02
-6.595433645964760352e-03
3.332774857317279127e-02
1.144831910078137130e-02
3.969772106342038531e-02
-2.043839475467864285e-03
-1.517522449355732279e-02
-7.064200299770613534e-02
9.982711875320715231e-03
-1.109112937102428864e-01
5.604344119710422123e-02
1.028719831897558640e-01
-3.963332952574331880e-02
5.396615075017519719e-02
-6.379936094245697298e-02
-2.988477646800416845e-03
4.450886688209726438e-03
-1.315095051316217678e-01
-1.618400568109816251e-01
-1.359080820238326159e-01
-5.956369537063316288e-02
-3.112542595740334060e-03
6.207731216617799058e-02
6.130079391314960380e-02
3.685557758534818706e-01
1.335374692553823739e-01
-3.132379891031971536e-02
-9.786316759220747841e-02
1.152452253650262104e-01
-2.524982005562345297e-02
-4.460956521763199956e-02
-7.801374894887681127e-03
-4.193496794973743114e-02
-3.847862519321567504e-02
8.150022338391627041e-02
4.744860699944702942e-02
-4.298564778695166538e-02
3.943138337496957663e-02
-2.568505936620951724e-02
-1.880296220331862528e-02
-4.242791920863751148e-02
-4.190811773924060790e-02
4.643016245517050944e-02
3.840436949388481569e-02
2.399601093324271045e-02
-1.161174603361499018e-02
-2.615131849842264322e-02
5.940015370841288979e-03
-3.509937598186070595e-02
1.040869667481890415e-01
5.314403015376544664e-02
5.840463805867866093e-02
-9.824646464453080930e-02
-1.060971099813817209e-01
6.326733835872030975e-02
-2.813280437718761531e-02
-4.642659431625342781e-02
-4.019239286721098398e-02
1.216753713827125466e-01
8.864641340868789719e-04
-4.754112349687793226e-02
1.114169916511970927e-02
-4.567388209467538457e-02
1.775299872577922738e-02
-1.804913494893390161e-02
7.751136439412985649e-03
-2.565628615309070021e-02
7.789367212269117380e-03
5.078073556340646777e-02
-1.621178572679092544e-02
-1.306141047671461122e-02
-8.877306293463513645e-03
-2.514450565028874488e-03
-4.787961084040302101e-02
1.979882314753736786e-02
-8.335825370181184149e-03
-6.526070321954050013e-02
5.416936954593762343e-03
-1.424801022436922651e-02
1.887245821107218571e-02
9.163593134129119355e-02
2.058016723028560091e-01
9.354085055917382707e-02
9.081116048188649092e-02
-5.162612135191498725e-02
-7.819496015630213182e-02
-5.210590082189587441e-02
-5.611372519949460458e-02
-1.521129758143088540e-01
-3.651160725905817916e-02
1.272687761869827350e-01
-3.752004385953622290e-02
-3.007903073239440173e-02
-4.063345370263167500e-02
6.111438580708742664e-03
-5.927001709630915632e-02
7.063393788223794323e-02
-9.837502670175367336e-02
-1.658775366495975762e-02
2.425025282214393271e-02
-2.765317255444328225e-03
1.106102234545431467e-02
-1.001912933574214057e-02
2.261904035430164703e-02
6.981691143600142480e-02
-7.672398316199878499e-02
-8.440241411179556785e-02
-2.661006185204156660e-02
1.575825493401504518e-01
4.863289554158947703e-02
-9.547810477954379871e-02
3.178894493623508899e-02
4.521017408740438115e-02
-8.780763675382273481e-02
-3.794382145958499070e-02
3.669677147090927988e-02
9.022274572294464168e-02
3.675763101750458700e-02
9.191198441752503751e-03
2.322619043075812434e-02
-7.034307887046223340e-02
1.074244012724538816e-01
-2.666894702884174337e-02
-2.270409846110629445e-02
-1.166161005323654437e-01
4.035237981850950048e-03
4.539890168831529904e-03
2.909652233651788007e-03
4.707996436552637498e-02
-1.202772270757995199e-01
-8.836125353306387153e-02
-3.687440487293416891e-02
-8.434871702458707557e-03
3.944004601358404999e-02
7.380787911273416213e-02
6.264118411696789623e-02
7.805864794096892267e-02
1.615978528388764546e-01
-1.161181062416052033e-02
7.610433767356231290e-03
6.694778695214405329e-02
-7.647920334093508132e-02
3.758925183057386377e-02
9.564334244964499063e-03
-1.952186456688204119e-01
-4.769129233788518482e-03
-2.365242557534801005e-02
3.777310586203703503e-03
3.215858921769033322e-03
2.553266092478545871e-02
-7.757946981062731340e-02
3.875028349266689681e-02
3.472491069433757821e-02
1.898116454778178003e-02
1.100314629368021602e-01
-9.723265303144670857e-03
-4.208205148660010969e-02
6.676514295894463158e-02
-4.453529298962462940e-02
-7.715395092139364086e-02
-2.228320974276538219e-02
-7.417058339824196544e-02
7.089697806403354521e-03
7.508409512662994612e-02
2.489451200866454536e-02
6.140216277783817900e-02
-3.412461184848596119e-02
3.458808770760032208e-02
-9.476336018040902587e-02
-6.376227817189969449e-02
1.652010653469912216e-01
1.520800495009651254e-01
-8.788218305914533013e-02
-5.147988860130022631e-02
2.352076848053912331e-02
-3.033676949110804613e-02
-1.073407640050409173e-01
1.355502565478522436e-01
-7.118980403466439177e-02
-6.172326598544584930e-02
4.043245580408148798e-02
-1.261979337691314894e-02
1.856551990022227514e-03
8.371356987402163441e-03
-4.067775793233494031e-02
-9.301891506121031869e-03
-1.897792894555009810e-02
2.979132693468714097e-03
4.169486498341967023e-02
3.087411608602187284e-03
-1.395933443115280649e-02
1.496516188396376269e-02
-2.048741628663030417e-02
1.039299199461976159e-01
6.144207386577754670e-02
2.303632490348496778e-02
-3.758332342738811976e-02
2.230796015951996489e-02
-3.591247006806594366e-02
-4.768057976573497614e-02
-8.953990561378986912e-02
1.390969053840978298e-01
7.114712695825833877e-02
-9.386699282228886179e-03
2.381556629882048207e-02
2.261299964678766677e-02
-4.643620864410633736e-02
-6.845813962748169279e-02
-1.323915507341484055e-01
7.572664723188846092e-02
6.982842712692288734e-02
1.459564173457157665e-01
7.850048327338985873e-03
8.681992880721674244e-02
-8.197142830459621353e-04
-8.550590910206215534e-02
-2.998558454539799190e-01
1.972137463609965613e-01
8.404443753671209105e-02
-2.322354231367444038e-02
1.878322491603130404e-02
-1.467011060601652525e-02
-4.807507850898611740e-02
-3.011779165767565491e-02
-1.839548857273879401e-01
-1.549804543801569789e-01
-1.112467224870344468e-01
-1.301530637666330481e-01
-7.437546202558648067e-02
-8.555929222875577334e-02
-6.241910969018352878e-02
5.012427195538657343e-02
5.686098326229616085e-01
-1.348801111646040496e-01
-1.153471687473945906e-01
-1.183032817405489379e-01
-1.014485891656382588e-01
-6.943897063740402109e-02
-5.193434370268375233e-03
2.701462706841210593e-01
2.744652851417361261e-01
-1.304902197402736941e-01
-8.486769280948294747e-02
5.750645522819439887e-02
5.738988359409068901e-02
-4.498646036076589007e-03
1.598574991519483846e-01
-4.499959687181685764e-02
-9.897682516583915929e-03
9.472641652295571424e-02
7.566831213304781034e-02
1.678105259636778757e-01
-5.627004619176719652e-02
-9.494194718297882182e-03
-4.148113124264202894e-02
-4.522706444070141371e-03
-2.264371760229029196e-01
1.009533417836091518e-01
8.728803211745060631e-02
-5.707705857547508248e-03
-6.687442038011827405e-02
7.345082684655928479e-03
3.655759758901036549e-02
-9.672122631861514294e-04
-1.585947156738758412e-01
-7.536665950205075071e-02
-3.159722759627591609e-02
3.629576026518954723e-02
7.068357763744756439e-02
3.755599012424248873e-02
-5.725054730585622809e-02
4.466933270477689566e-02
-2.499022632747343112e-02
-1.147652028442146532e-01
-1.741058393515855229e-01
-6.259614692435896965e-02
3.065131385408714770e-01
1.973559643154803589e-01
-9.759972018559502638e-02
-1.126501713066800775e-01
5.784797775608926246e-02
1.395429652309324864e-01
8.973061069708358761e-02
7.367004923857534138e-02
-1.510114191096091456e-02
-8.811344142982462102e-02
-1.053583324105505648e-01
4.017587823519353646e-02
-1.345465876504484404e-01
1.676886259026534251e-02
-4.180100518311551105e-02
-2.655228121751473241e-02
-5.626532210205066956e-03
2.365819470523834733e-02
8.594702537500088779e-02
-5.297876544080702688e-02
5.845013811375477037e-04
3.797267600962812156e-02
8.970843225657462727e-02
-3.194231472240247061e-02
3.846426989952596905e-03
-3.648427279607856233e-02
3.769693832877960005e-02
-2.598985567860677068e-02
-7.480803038784629433e-02
3.401757570203985115e-02
1.553524949300146840e-01
-5.450539972304448144e-02
2.519600585178984054e-02
-4.005467674008131307e-02
-3.828151561988375751e-02
-2.421678649418179327e-02
-5.750769790665136855e-02
-1.840413890959496923e-01
-2.076539393869318018e-01
-2.105432850391842914e-01
-8.621764619448357703e-03
1.731465371815465960e-03
2.970332343163017974e-02
7.877538989115236145e-02
5.006501994469165773e-01
-8.069609263286500744e-02
-4.200484675943317453e-02
-1.184960184863272613e-02
-3.221412001343314235e-02
2.113082460799919557e-02
6.476277737465186909e-03
-3.504056506522510751e-04
1.395079645595521112e-01
-3.961443438008937362e-02
-6.117295029253280725e-02
-1.779198926499428110e-02
-9.701121568095170955e-02
2.955329958119266159e-02
7.139082834395420185e-02
7.241422216231839515e-02
4.223223953110481071e-02
-1.849514796758887358e-02
-9.606892662838299735e-02
3.666606724201253859e-03
4.053025253906691189e-02
-5.134316779874054104e-02
4.715866272497576395e-02
7.900454822462107951e-02
-4.452827818152701317e-03
-1.821864585824575083e-02
-1.121528887607479638e-02
-5.640323863830362314e-03
-3.745693564135482018e-02
5.956069224440527915e-02
4.802911665114314305e-02
-1.074573444545980951e-02
-2.431288021058269216e-02
-1.118074341189319032e-01
4.771326087002885491e-02
3.566293110043058760e-03
2.481237818556324137e-01
-1.653930957079225925e-02
-1.110922289519239263e-02
-9.670822356649083629e-02
-6.323914568429657435e-02
1.230993819167734427e-01
-3.744931334327882000e-02
-9.584306165586242710e-02
-5.173952562282204543e-02
-9.418424489110095200e-04
5.962731219537539123e-02
3.807571851047191619e-02
-3.482866955174890311e-02
-1.569915743992272017e-01
7.626709871683606812e-02
-1.227438248127343812e-02
-1.592557426013521335e-02
2.356232846869711281e-02
5.650482362502148859e-02
9.784568369596720327e-02
-6.898840336588936417e-02
9.289735448683600350e-02
-2.789181188037578862e-02
-3.822753810569010091e-02
-3.966379463086080331e-02
5.752011166031515549e-02
-3.152300585233586833e-02
-3.228887427147960482e-02
1.917755859359094803e-02
2.475193374665843327e-01
-5.879779285608698492e-04
5.837543035277211606e-02
-8.832745642776687611e-02
-3.737978450845566569e-02
-3.097014775041612850e-02
-1.516934369635653812e-01
3.064035759407470610e-03
-2.949938251001475997e-01
-9.962547028178739272e-02
-1.095889135279553700e-01
-1.910092785346265837e-02
-7.172805748183558316e-02
-3.475483821772654830e-02
-2.638237058604124205e-02
6.561744030489616852e-01
-8.005657954520370434e-02
-1.124129026128281236e-02
6.010553183250220283e-02
2.312258398495942169e-02
-1.878629580036481018e-04
5.370778638494928814e-02
6.133268889983251732e-02
-1.067828583377540691e-01
3.230753756901170309e-02
5.234416222768777105e-02
6.978984755589169586e-02
-5.916280504795801143e-02
3.065040293631810051e-03
-8.488500545492068394e-02
5.390340782852341694e-02
-6.736218497186634291e-02
3.205149059249327165e-02
-9.563550009180597777e-03
2.508263271597430469e-02
-6.322851031395702870e-02
3.988968897587930745e-02
-1.316178374784391855e-02
2.574458077884000246e-02
-3.681454899220464733e-02
-1.031985175673837130e-02
-2.235855491558490921e-02
-2.668520272843660779e-02
6.719693999454738609e-02
5.400494537483658750e-03
-6.555914574578501457e-03
1.369366384484793121e-02
-2.037157440154019686e-02
-1.250804791539161798e-02
2.869227761053687667e-02
3.637924122416179989e-02
-4.347168594394090757e-02
-2.824410572807344033e-02
7.992779576798648977e-02
3.063888913129764191e-02
-9.141436414657715115e-02
-1.207626863075847296e-01
-1.411193318517734718e-01
8.860455197442504427e-02
-3.588773507287046534e-03
4.956045299820056871e-02
3.025776951226404748e-02
2.403259240598954252e-02
7.301542477576353218e-02
-1.901977326601140272e-01
-1.356715534588472660e-01
-9.630522050748466234e-02
-3.530287166536370119e-02
1.107361203364055913e-01
1.024194471784003468e-01
8.827857587980343645e-02
1.560432348972008720e-01
8.717792035549447316e-02
-3.670959608709672972e-02
-1.006662607782020796e-01
-6.175571672645338572e-02
-9.870199448923184724e-03
4.107743520372453272e-02
3.610534315985169246e-02
4.464107432160561301e-02
9.160159830025660366e-02
7.710520223520771210e-02
1.214352172627016641e-01
-6.332919933370174774e-03
-1.269582975137286129e-01
8.934980155511772215e-03
-1.254972703016448143e-01
-4.028851020493069007e-02
6.241061352953779229e-02
1.377664933040363415e-01
6.806854670269790741e-02
2.170118329597302970e-02
-3.977874688352727416e-03
-7.013970622540444122e-02
-1.007875636162592625e-01
-1.150416923022321708e-01
1.015003662346192631e-01
5.583567656982458237e-03
1.997299485666963886e-02
-4.592475831381881424e-02
4.916562766407123891e-02
-6.548071764260415817e-02
1.739493714985328524e-02
-8.221201760577230566e-02
-8.433631890544561471e-02
-1.741308287458177492e-02
1.569985885560540567e-03
1.066950970524891129e-01
-5.533648719297995511e-02
-1.004554362500126308e-01
6.854755047326870077e-02
8.072869181170488906e-02
-3.858421110115086566e-02
1.904874025597826440e-02
-3.777153656947234567e-02
1.127242966542435151e-02
-3.637873269317527108e-02
2.659859884564839266e-02
4.396050514338551568e-02
1.185420645336161816e-02
2.167953145320463959e-01
1.850948482725938218e-02
-2.856968830395726841e-02
-9.438406829357980088e-02
-3.788516169041327569e-02
-2.249710543116860764e-02
1.759566353825359891e-02
-6.956443917844236380e-02
2.467087144500703690e-03
-6.793103833454321172e-03
-3.863585899396540426e-03
-2.463103283906138349e-02
2.215823530608603681e-02
-4.416635633445235853e-02
-3.648773957830402093e-02
9.131649603408220628e-02
-1.959062267504400878e-01
-7.367830808726844039e-02
8.430430921855169499e-03
7.038385224729462597e-02
6.819374863745615578e-02
-4.354892708483155267e-02
6.950156779067680202e-02
9.662386232525965735e-02
9.476424843696501510e-02
1.010325325793522272e-01
8.369284395845913438e-02
2.627693565035457701e-02
-1.173161001295161543e-01
9.194200676625181867e-02
-1.292089278589989843e-01
-1.511835394028664403e-01
1.146050632569956852e-02
-3.675405344569003530e-02
-5.350205296287742496e-02
-3.417507801393293576e-02
-2.288784647261933938e-02
1.206698642758702311e-02
4.624518830015477561e-03
1.191670193118181814e-01
1.024770802647122364e-01
1.078031876477428264e-01
6.537677559019816620e-02
-5.906431673008372130e-02
-4.905041675142228497e-02
2.338599004985989719e-03
-4.051049623691660440e-02
-1.293704127892175149e-01
1.715148355182996298e-01
2.342229789294549350e-02
6.113161698303573588e-03
1.518844921658110171e-02
-9.511792662711326951e-02
-3.748431265984208255e-02
-1.063520382913095419e-01
2.271553325213976696e-02
9.435026019772355110e-02
6.467555798745468210e-02
-1.936159038262030285e-01
-3.398668448008998477e-02
5.222348156943465089e-03
-6.760433624399063424e-02
1.404201398239211026e-03
1.295545568099208955e-01
-9.431239579074723878e-02
1.962275540388251811e-03
3.345087013562033501e-02
1.792684469091129773e-01
3.730194505251996362e-02
-8.283314510515647766e-02
1.878285981504669577e-02
-9.362085655678330232e-02
8.697888891470964556e-02
-8.328201045551637469e-04
-1.419114672469030253e-02
8.012772983144568831e-03
-3.626839358412115716e-02
-2.892268005178343440e-02
1.652279294758743659e-03
-1.642890072746356483e-02
-5.304281160199843942e-02
5.670679619058036774e-02
6.137391308273630608e-02
3.621551927366468970e-02
1.258017334776261043e-02
-7.648010128670400080e-03
-7.802974757944546036e-02
-2.815583258463108876e-02
5.134186690609156278e-02
-1.451188126591475003e-01
-7.793626589346064337e-02
-6.537692615495725723e-02
3.833094886507026899e-02
1.484235303942529893e-01
9.523579376563932886e-02
-4.490013522349172587e-02
4.542651091329407559e-02
4.124135024136807437e-02
4.458633172335704775e-02
-8.323234866250586728e-02
2.736639898163748669e-02
-7.081767484390637246e-02
-3.192572867091574701e-02
2.735516031767216277e-02
7.061339326221731383e-02
-2.547571834814263414e-02
-8.173141740332555416e-02
8.424693999924598442e-02
1.869143599449379217e-02
-2.195828424942384768e-02
-1.197282069928531055e-02
-3.241352855577848274e-02
3.622025567972339544e-02
-9.758523986775680115e-03
2.365075282236386942e-03
-1.464611256829524179e-02
-9.029470431116761592e-03
1.734720203080087481e-02
-5.853168439059724948e-03
-1.664525756751322402e-02
-2.495401131846433362e-01
-1.400487177958064378e-01
-2.878715450957663666e-02
7.096300753614487311e-02
1.465068278551996117e-01
8.877378441146588361e-02
1.149247336187406848e-01
-2.792367931523580087e-03
-5.502134793648111311e-02
-1.872987303129708056e-02
1.205884323683984252e-02
-7.616434309113687823e-03
9.743681627296915670e-02
-2.058853692016970882e-03
-4.515353055631776691e-02
1.908438001541688106e-02
1.250468854025064691e-01
3.383671303485109166e-02
3.286493658479471003e-02
-7.417086793387046850e-02
-8.186786146143263873e-03
1.944145227561982353e-02
-9.608914834063926602e-02
-3.274318487712248038e-02
-7.555646638532800830e-02
-7.461563468362322066e-03
-4.808169744339041082e-03
1.457278693983103321e-02
-4.889762250499563555e-03
-2.343275010136247963e-02
9.623508433295087372e-02
5.340840677108542323e-03
-1.620574266152979837e-02
8.104543316872804548e-02
2.333185235283177783e-02
5.156141421289948956e-02
-1.040359826504254695e-02
-2.850088398215193039e-02
-8.118234941448251168e-03
-9.271023988428654661e-02
-3.230756232123328797e-02
-1.052295979755623820e-02
-1.054973477363469782e-02
-9.542812365897079471e-03
-8.363534555482573726e-03
-8.836932624688464619e-03
1.737387418305923539e-02
6.274966225543308906e-02
1.998862853136287865e-02
-9.748801721374084073e-02
-8.273653753123848265e-02
6.671264131418986037e-04
-6.008872605560837410e-02
-1.256526757057361415e-02
7.705591650835189044e-02
1.551668769183043028e-01
-1.693475981328110558e-01
-8.217272668482884790e-02
-2.342425118284503435e-02
-3.583680919520671609e-02
1.254424643183727206e-01
1.257193216644041101e-01
2.018946758393390384e-02
3.943013162897766183e-02
1.359052785591790824e-01
1.917262791879547137e-02
5.156974285785619755e-02
-6.895744947494014676e-02
-5.899405882700484161e-02
-7.883462570604082842e-02
-2.199949497660427800e-02
2.213797964875859753e-02
-3.962767742950663863e-02
-7.444894546232570104e-03
-1.077622371637509679e-01
-7.138767213545961499e-02
7.763501630941417597e-02
5.750628552765053164e-02
7.536297782084348806e-02
1.571820161704343133e-02
1.291930684254148087e-01
3.495482959983058080e-02
1.641773081239207219e-02
-6.943818692964880135e-02
-8.345213494080408467e-02
2.511202409707532016e-02
-5.948582860188557538e-03
-4.683874820406797035e-02
-1.268370550695335774e-01
-1.131032289488478754e-01
9.489505267656583865e-02
8.764147814491428379e-02
5.377839085689747195e-02
-1.738921653769680969e-02
1.680146082860059162e-02
4.213118049099659305e-03
-9.696336905113285554e-02
6.446728915434446483e-02
4.950316542446713680e-02
3.298213260339967826e-03
-1.827426226060230655e-02
2.680375147314895123e-03
1.780062224390028397e-02
-2.251203391862980144e-02
4.831802594588024274e-02
-6.795191545929440968e-02
6.720455492964930166e-02
9.812344115119805976e-02
3.338842224527865010e-04
-7.955521126807969801e-02
-1.400655493148396727e-02
-5.246622459032414254e-02
-7.989684632186035140e-02
9.151910566734673680e-02
-7.124060441724415493e-02
6.344195737903031429e-02
-3.126084583534285890e-03
9.514814757339309925e-02
2.345500767903623430e-03
-9.819117606503489915e-02
-8.589347171065417341e-02
5.027963727158165155e-03
-2.024762434351325829e-02
9.518574002061148259e-03
3.207576218803032120e-02
5.293266794342935816e-02
-2.204493374384669871e-02
2.863106193733347404e-02
1.431495300173356473e-02
-1.985138763072469628e-02
8.559621869543833361e-02
1.118404329654453938e-01
-6.874904388887312368e-02
-9.711233470196363460e-02
-1.399583565857600437e-02
-1.204300278247881148e-02
-6.069471113754679875e-02
-2.686179944373530068e-02
6.335661828085560610e-02
-5.684594984879128010e-02
-4.649791390534956798e-02
1.037206455416517792e-01
2.550947204351143929e-02
-1.686361530597559099e-03
6.545584393885743590e-02
3.686449081429881130e-03
-1.025947538738297415e-01
-3.735577798196899890e-02
2.676033554876267387e-02
-6.305024633285396564e-03
4.217495649801081270e-02
8.177971422023111794e-03
1.346442161990261399e-01
2.892649348141282037e-03
-1.089822141115816267e-02
-1.548267378297223627e-02
-3.060046301806187280e-02
5.602063339039684009e-02
-2.692118290085885723e-03
-1.338840224352889630e-01
1.321699595399410954e-01
1.044444455521010562e-01
1.448046525649067384e-01
4.845261787769821610e-02
-1.468314966973400248e-01
4.873957526915900784e-02
-1.736483785087212517e-01
-1.581313755977422353e-01
1.244502107978774919e-01
1.294911353776615481e-01
1.500587875934190039e-02
-3.627013397448924925e-02
-2.699487946955867954e-02
-9.095404847907082035e-02
-1.197206791423569422e-01
4.992516130594878455e-03
-4.998351517821154194e-02
4.886405792031415368e-02
7.470203859442098304e-02
-3.000524953574222609e-02
-3.306514991647344776e-02
-6.443143642561430240e-02
4.820400913154068018e-02
5.715245409766719561e-03
-3.203443199300717165e-02
-6.315109611502692233e-02
-4.418939639185191781e-02
-7.075313314842732182e-02
-3.025310689996656838e-02
-2.726248786458347964e-02
5.604381389137096103e-03
2.620392710237276490e-01
2.610800426297906207e-01
3.790870230565430467e-03
-9.770438530021788304e-02
-5.182617547213511783e-02
-4.109578270270593248e-02
-2.262987277457475035e-02
-1.632182448718431933e-02
-3.529287212353902914e-02
-6.730537979087251876e-02
-6.142715717122165797e-02
-3.006711143533045971e-02
-4.779845563741633163e-02
-5.008606020461119079e-02
-2.577073089979760312e-02
5.816166089236111773e-03
2.766387290500132434e-01
-1.490222855260313894e-01
-1.058963919467884873e-01
-1.779838384336097090e-01
-3.163713147082290733e-02
5.193832147304709712e-02
3.436749840834282810e-02
1.893594115480038975e-01
1.888744159478541185e-01
1.679760693342931266e-02
6.116769776413128606e-02
-3.667513254650621619e-03
7.047661659033746528e-02
-5.800720574602858011e-03
4.745666833822156233e-02
-7.700040038757108296e-02
-1.094299554092933446e-01
1.453953594111210279e-01
1.457326037396720897e-01
-7.580518428536243969e-02
1.604843505506080986e-02
-7.052567174320507892e-02
-3.051527453723919606e-02
1.147833455684418510e-02
-1.418086021968915922e-01
-1.225169699416524954e-02
-8.633652608470833087e-03
-5.790497206643758360e-02
4.194816182920563935e-02
4.446201218984918713e-02
-7.444483635868595628e-02
7.708740359918990828e-03
5.911624364878548255e-02
6.326597810293242870e-03
2.803115892905998219e-02
-3.439724494842129332e-02
-2.080167305736252761e-02
-3.791162115910042679e-02
2.020386695635819144e-02
8.381146065112550503e-02
-4.526254518195398091e-02
-5.938097867776605948e-02
2.120362167156296385e-02
2.827185327328408937e-02
-5.861893392795519686e-02
3.789978491802938054e-02
2.464128254088281990e-03
-4.064248496368085863e-03
3.222477298512395338e-02
1.146050632569956852e-02
-3.675405344569003530e-02
-5.350205296287742496e-02
-3.417507801393293576e-02
-2.288784647261933938e-02
1.206698642758702311e-02
4.624518830015477561e-03
1.191670193118181814e-01
3.066405810425808579e-02
3.321711441513794036e-03
3.900848028550574914e-02
2.187300114323497899e-02
3.338599736462571216e-02
-5.555519801150785031e-02
6.245399666255734179e-03
-7.894344999388649975e-02
-8.069609263286500744e-02
-4.200484675943317453e-02
-1.184960184863272613e-02
-3.221412001343314235e-02
2.113082460799919557e-02
6.476277737465186909e-03
-3.504056506522510751e-04
1.395079645595521112e-01
-9.601529111688695758e-03
-3.607798860879922465e-02
-3.439813883025401309e-02
6.795387309720565816e-02
-5.401318095278482591e-03
3.600698843612634009e-02
1.665338992451404626e-02
-3.513527681182481571e-02
3.230753756901170309e-02
5.234416222768777105e-02
6.978984755589169586e-02
-5.916280504795801143e-02
3.065040293631810051e-03
-8.488500545492068394e-02
5.390340782852341694e-02
-6.736218497186634291e-02
-1.118074341189319032e-01
4.771326087002885491e-02
3.566293110043058760e-03
2.481237818556324137e-01
-1.653930957079225925e-02
-1.110922289519239263e-02
-9.670822356649083629e-02
-6.323914568429657435e-02
-1.031985175673837130e-02
-2.235855491558490921e-02
-2.668520272843660779e-02
6.719693999454738609e-02
5.400494537483658750e-03
-6.555914574578501457e-03
1.369366384484793121e-02
-2.037157440154019686e-02
-4.787961084040302101e-02
1.979882314753736786e-02
-8.335825370181184149e-03
-6.526070321954050013e-02
5.416936954593762343e-03
-1.424801022436922651e-02
1.887245821107218571e-02
9.163593134129119355e-02
-1.250804791539161798e-02
2.869227761053687667e-02
3.637924122416179989e-02
-4.347168594394090757e-02
-2.824410572807344033e-02
7.992779576798648977e-02
3.063888913129764191e-02
-9.141436414657715115e-02
3.094238919848211686e-02
1.663268102836995554e-01
-5.802345670243588133e-02
-3.966444623659810126e-02
-4.456538725380428806e-02
8.983892702519594847e-03
-3.427123430125175729e-02
-2.972856769061288373e-02
2.900229189251576911e-02
4.530973163202830362e-02
-1.160426599513889878e-01
-3.168113340000630607e-02
-5.966310552574891068e-03
2.571236805563963373e-03
3.433188445891417057e-02
4.247495911494715559e-02
-2.949938251001475997e-01
-9.962547028178739272e-02
-1.095889135279553700e-01
-1.910092785346265837e-02
-7.172805748183558316e-02
-3.475483821772654830e-02
-2.638237058604124205e-02
6.561744030489616852e-01
5.279150632234359819e-02
8.532864171992152191e-02
1.183308207173480037e-01
8.661029788090808534e-02
-1.659816365471868949e-01
7.673949172758398087e-03
-1.330207766489520382e-01
-5.173280261713839728e-02
-1.699269290424047438e-02
9.936097003763816327e-02
-7.251151896423903287e-02
3.206245929416720597e-02
8.972518052802357091e-02
-4.147400313804722877e-02
-2.766093398676755868e-02
-6.250946086653511036e-02
1.898116454778178003e-02
1.100314629368021602e-01
-9.723265303144670857e-03
-4.208205148660010969e-02
6.676514295894463158e-02
-4.453529298962462940e-02
-7.715395092139364086e-02
-2.228320974276538219e-02
-7.417058339824196544e-02
7.089697806403354521e-03
7.508409512662994612e-02
2.489451200866454536e-02
6.140216277783817900e-02
-3.412461184848596119e-02
3.458808770760032208e-02
-9.476336018040902587e-02
1.380944717159056194e-02
2.551361552663527349e-02
2.758489404326314870e-02
4.534926530650278120e-02
-1.346500277532240199e-02
-2.358036090940141341e-02
-3.030778222388547105e-02
-4.490407613938280501e-02
-1.451321593113105886e-02
1.033280502220493280e-02
1.786484261229125473e-02
6.683699226447413315e-03
9.192140373231451334e-02
-2.894539729291886222e-03
-4.925542939836419221e-02
-6.013956553447138281e-02
1.376934010557535372e-02
-4.971923328532160818e-02
1.670884687554169759e-02
-4.001159580399882287e-02
5.473476083953422722e-02
-6.414493816385750946e-03
-4.141648473285799992e-02
5.234885981791301962e-02
-1.673831537339557501e-02
-1.578856250122340557e-02
1.203326384171479399e-02
1.550197016293206574e-02
-6.523492081587895820e-03
-4.434496583987462132e-03
-3.096893331567580985e-03
1.904652586711510012e-02
-3.847862519321567504e-02
8.150022338391627041e-02
4.744860699944702942e-02
-4.298564778695166538e-02
3.943138337496957663e-02
-2.568505936620951724e-02
-1.880296220331862528e-02
-4.242791920863751148e-02
3.194390779969782934e-02
-8.215889333396092509e-02
-4.562921855889022797e-04
4.117954297525285023e-02
5.755409127973902528e-02
-4.139029779904271171e-03
-1.073415874884208754e-01
6.341826073318670987e-02
2.194061657440058710e-01
-6.880306717926940041e-02
-9.508500035755938773e-02
-3.736802207936784637e-02
2.915817802705030631e-02
2.301036948870969351e-02
-1.105731785217883151e-02
-5.926130579138930848e-02
-1.901977326601140272e-01
-1.356715534588472660e-01
-9.630522050748466234e-02
-3.530287166536370119e-02
1.107361203364055913e-01
1.024194471784003468e-01
8.827857587980343645e-02
1.560432348972008720e-01
1.040869667481890415e-01
5.314403015376544664e-02
5.840463805867866093e-02
-9.824646464453080930e-02
-1.060971099813817209e-01
6.326733835872030975e-02
-2.813280437718761531e-02
-4.642659431625342781e-02
1.150459211499334777e-01
-8.918372068098883235e-03
-9.921814414599739243e-03
-3.974115426130786499e-02
-1.031824113509770269e-02
-3.736320080044830405e-02
5.115515396041872553e-02
-5.993829243080097541e-02
4.933087495733512462e-02
5.766419110152844370e-03
2.570022504647601069e-02
2.362921323769046761e-02
-1.531614878044448326e-02
4.267247475478782442e-02
-6.413091117190621027e-02
-6.765214715409087476e-02
-3.203443199300717165e-02
-6.315109611502692233e-02
-4.418939639185191781e-02
-7.075313314842732182e-02
-3.025310689996656838e-02
-2.726248786458347964e-02
5.604381389137096103e-03
2.620392710237276490e-01
0.000000000000000000e+00
0.000000000000000000e+00
0.000000000000000000e+00
0.000000000000000000e+00
0.000000000000000000e+00
0.000000000000000000e+00
0.000000000000000000e+00
0.000000000000000000e+00
1.637143881003378099e-01
6.050757728030936242e-03
3.193769688014960056e-02
-3.287552716873985963e-03
-6.448329239727003392e-02
-4.764108353184521444e-02
7.095808536927350994e-03
-9.338672259945429710e-02
4.136640184614221068e-03
1.388729557941954999e-05
1.372946187056347514e-03
-1.478483038100920216e-02
1.796142461654999176e-02
-2.152788012318819499e-02
8.127256977283173894e-03
4.700555243114209678e-03
-3.651160725905817916e-02
1.272687761869827350e-01
-3.752004385953622290e-02
-3.007903073239440173e-02
-4.063345370263167500e-02
6.111438580708742664e-03
-5.927001709630915632e-02
7.063393788223794323e-02
-9.102551661187567589e-02
-1.951436968512003378e-01
-7.298858568695386351e-02
-5.464889580778479333e-02
5.658918662790252997e-04
1.798206821687060586e-01
5.945435587012968398e-02
1.739657650526992005e-01
-9.301891506121031869e-03
-1.897792894555009810e-02
2.979132693468714097e-03
4.169486498341967023e-02
3.087411608602187284e-03
-1.395933443115280649e-02
1.496516188396376269e-02
-2.048741628663030417e-02
-1.109112937102428864e-01
5.604344119710422123e-02
1.028719831897558640e-01
-3.963332952574331880e-02
5.396615075017519719e-02
-6.379936094245697298e-02
-2.988477646800416845e-03
4.450886688209726438e-03
1.335374692553823739e-01
-3.132379891031971536e-02
-9.786316759220747841e-02
1.152452253650262104e-01
-2.524982005562345297e-02
-4.460956521763199956e-02
-7.801374894887681127e-03
-4.193496794973743114e-02
1.998862853136287865e-02
-9.748801721374084073e-02
-8.273653753123848265e-02
6.671264131418986037e-04
-6.008872605560837410e-02
-1.256526757057361415e-02
7.705591650835189044e-02
1.551668769183043028e-01
-1.285647868189262466e-01
-7.259038852091506677e-02
-1.656274278405931583e-02
-2.700389170064745881e-02
5.313710791633155517e-02
-1.421269826425196510e-02
1.088106697315260607e-01
9.698673044094190121e-02
6.074046253105453569e-02
6.358962905245571506e-02
4.287488714343508714e-03
-3.409517830071463057e-02
-5.369304376921789357e-02
-4.310509978709413381e-02
