8.749007066728429691e-03
4.491150589638492896e-02
2.331010813996725953e-02
-7.967482423498192801e-03
-2.398470215575996059e-02
-3.157984099448962745e-02
-3.535705097787385232e-02
2.191845544854105141e-02
-5.456797219297927250e-04
-3.320114580436629519e-04
-2.061388012145188545e-04
-3.220803148849670926e-04
-4.185739432336829918e-04
-4.707379720824541799e-04
-4.875174796237090498e-04
2.782739691012785840e-03
6.667068140528707764e-05
3.793503475317825616e-03
1.698835068199816122e-03
-4.845370537803236725e-04
-1.564238962128346525e-03
-2.063963179932707878e-03
-2.427391954182102785e-03
9.811219251005503638e-04
1.400742219345348918e-03
3.265557738888454856e-03
1.132292798915189884e-03
-8.575196580047875390e-04
-1.723757767724022616e-03
-2.029048327715292713e-03
-2.315246903371911535e-03
1.126979899667016408e-03
-3.800057409802238932e-04
4.120163111263125920e-03
2.811610378102907034e-03
-3.740229276585046504e-04
-2.307650822156794533e-03
-3.328058741223937321e-03
-3.667708288587677185e-03
3.125673031241101539e-03
1.046986799329794812e-03
4.933194672205831917e-03
3.573860418520241784e-03
-3.996581838369258266e-04
-3.405711995358464556e-03
-4.309569376871994623e-03
-4.964022867038999851e-03
3.524920533050512981e-03
5.596873672732686870e-03
2.153791463395616709e-02
9.993911020210927837e-03
-4.939236992508566279e-03
-1.171585005982484808e-02
-1.503811709222479913e-02
-1.646720995279401731e-02
1.103171477045244292e-02
9.859652765878633679e-05
5.820444186985291755e-04
3.702028413030086264e-04
-7.873354714944559010e-05
-3.517194009246247827e-04
-3.347573884008493857e-04
-4.508343096327370393e-04
1.652008584473328083e-04
5.510198240462583445e-04
3.149553984867053610e-03
2.292113421162851258e-03
-3.184647077447971949e-04
-1.615439814529065054e-03
-2.221384768192811304e-03
-2.563512083909121834e-03
7.261141442996302221e-04
2.673909188369721381e-05
7.959988159903873381e-05
4.395951345277563478e-05
2.465570205743774181e-05
-3.757938610280799692e-05
-5.131523725645878865e-05
-4.566703940556191796e-05
-4.039252622812059018e-05
2.109264492497779555e-03
3.247440738773580381e-03
1.298684593347142072e-03
-9.370181427910972711e-04
-1.927470225393642040e-03
-2.593725097040092825e-03
-2.840443367265654741e-03
1.643267007871982485e-03
9.772439870067862056e-05
5.258807241307713503e-04
3.360461200368804473e-04
-8.664955520532772006e-05
-3.314060819256691207e-04
-3.102491762499646187e-04
-4.217400478925231559e-04
1.903936184051544683e-04
-5.420225371043655089e-05
1.641413943283379399e-04
6.959284077877389422e-05
-1.684309063557958881e-05
-3.537548704872699819e-05
-3.738644368521526072e-05
-6.582728835666962913e-05
-2.409967167048360985e-05
5.560734185129461990e-06
1.408325482444721148e-04
5.186102813834707060e-06
-1.288655992747521132e-05
-4.714648287151011649e-05
-3.948465410136424214e-05
-3.309593351198728244e-05
-1.896575483109950679e-05
-7.644474273563853814e-05
2.057844715887130742e-04
9.171622166782512811e-05
1.868354261015990215e-05
-4.315765449752158230e-05
-5.712747001659010528e-05
-1.639537351980617660e-04
2.449936658111395496e-05
6.779808708265009536e-05
2.445806414485918266e-04
5.755316976956312926e-05
-1.187217015024550567e-05
-1.397366516357565359e-04
-1.469061074483289132e-04
-2.078335023763168573e-04
1.364165333098427558e-04
8.721289581076527990e-07
5.616369456775817084e-05
3.415672126612771830e-05
7.916008055882104553e-06
-2.031331899895580094e-05
-2.450821215088450279e-05
-2.909426174021361236e-05
-2.519275995782172776e-05
-2.121032925621011103e-06
1.651370877160075138e-04
9.771695261125506690e-05
-5.912391076672025684e-05
-2.786051500846167925e-05
-1.225940493045693373e-04
-9.486578999829992521e-05
4.371125767640974587e-05
2.427488131061559607e-05
1.817872232080853422e-05
5.324026593368078915e-05
1.695393825139808553e-05
-6.283532957817637593e-06
-6.308488504486650379e-05
-1.063914719919587600e-04
6.311208217814009459e-05
4.748152917931741228e-05
1.056442397502562624e-04
2.817882572681115923e-05
-2.231993820112491739e-05
-3.775942338844920045e-05
-5.564428891729266227e-05
-3.954036376331619235e-05
-2.604058038620189535e-05
7.846448277025957811e-07
1.388476643302289035e-05
5.073895896673222813e-06
1.692631424533082687e-06
7.501460300927890364e-06
-1.711851626176438804e-05
-6.915528882055562457e-06
-4.903353739039710957e-06
4.202150523618096591e-05
7.409372629159907339e-04
5.570909437277532733e-04
-1.003207360306978852e-04
-2.831664928925222671e-04
-4.335106289762834524e-04
-5.784105240369245447e-04
5.535867005650297972e-05
5.777160047661411861e-04
2.277842804113937303e-03
1.837076909275275720e-03
-2.872161018996773584e-04
-1.261789664479359696e-03
-1.822001843446211054e-03
-1.921757908081160680e-03
6.001297997510544706e-04
6.685117990095038782e-06
5.892441870870556914e-06
2.637502926096694120e-05
-7.931060939698815780e-06
-7.582678709837592768e-06
-7.415028068051785806e-06
-7.324328505994561388e-06
-8.699492898349772685e-06
2.349463240034095884e-05
1.441718320736362147e-04
5.327841265729424755e-05
1.622182418562853838e-07
-5.417832347231362725e-05
-6.656502556207362733e-05
-6.523550239566915543e-05
-3.512824394307124146e-05
2.922266825579706849e-05
8.706272077135102485e-05
6.634171230791941561e-05
-2.780772438615908201e-05
-3.492369139103118912e-05
-3.857421423837204493e-05
-5.288927262438564657e-05
-2.843219869511958019e-05
4.290073722817522132e-05
1.177051193805277060e-04
6.721399597366551487e-05
-1.530221488679705356e-05
-3.428773543292676178e-05
-6.648997988510143827e-05
-1.050375329661971534e-04
-6.702389411345989459e-06
-4.143335843040640956e-06
-5.924381507918659240e-06
1.012897810285660728e-05
3.166375881443577036e-05
-2.550095614539536187e-06
-1.217382646845277225e-05
-6.973035355517864524e-06
-1.002806212782292735e-05
-7.993341647398563061e-06
3.336189231800949675e-04
8.452788530648256814e-05
8.976571142068214830e-07
-1.212875157932656622e-04
-1.604441226645756920e-04
-1.874709589748761989e-04
5.815147347933162156e-05
-4.060295628974415065e-05
4.765692889879513151e-03
2.405192911055580376e-03
-1.101384600331366172e-03
-2.568890000108508143e-03
-3.213845968995498754e-03
-3.459582842553157993e-03
3.213420567343170092e-03
3.290675560328543885e-05
5.373611286373871537e-05
3.136514425918566742e-05
-1.536676614233672798e-05
-2.879429262406198766e-05
-1.807611377616789424e-05
-2.771087297915836341e-05
-2.805996720448487882e-05
2.742814916217693529e-06
6.527061081755451222e-05
3.004389864904643276e-05
2.105551900131983375e-05
-2.109894641378228091e-05
-3.479057911917722513e-05
-2.911355403621204024e-05
-3.410976381496691793e-05
6.430495179640770677e-05
1.600549447409708884e-04
8.399862997388741874e-05
-1.435090246592001420e-05
-4.869592002950370640e-05
-7.110314422095193986e-05
-7.976993927266511335e-05
-9.443862052222498594e-05
2.667847452299327866e-03
8.018133002404287044e-03
3.063969648669871010e-03
-1.612575854387464629e-03
-4.333337102548629784e-03
-5.598577069679581963e-03
-6.330881792531256776e-03
4.125421715773433355e-03
1.106924969455124049e-03
2.269250423899320159e-03
7.096954882725447795e-04
-7.059261925197985550e-04
-1.318208118461859863e-03
-1.517116173292559550e-03
-1.670658030799390377e-03
1.126037633446617947e-03
1.731331932335004463e-05
1.205366204118007225e-04
5.448460830962552668e-05
-2.439507354117227555e-06
-8.655305456392963412e-06
-6.954736749570482335e-05
-1.124172392092772553e-04
7.248714707158713683e-07
4.605461191582924368e-04
2.692688383121416042e-03
1.752982002452010968e-03
-4.252634970175824154e-04
-1.839045621046404714e-03
-2.229147322244695237e-03
-2.683381264961467571e-03
2.270621200538433960e-03
1.707800664049956665e-05
2.911340196599029591e-04
1.484317701841289863e-04
-4.886886579975360768e-05
-1.681578898930601430e-04
-1.735685225861815248e-04
-2.386024490639969832e-04
1.725539308584608821e-04
9.139309498538369144e-05
7.242442819911017746e-04
2.012662919697027759e-04
-1.887492056526043124e-04
-3.054594764321661837e-04
-3.726870161531994560e-04
-4.484409844425047103e-04
2.984330137342875453e-04
-8.151818626066355082e-05
1.687351825860905832e-03
8.246533452060328742e-04
-3.009113928504364324e-04
-7.812260767810293334e-04
-1.035126613488694019e-03
-1.216402402766052172e-03
9.031795010799387657e-04
7.696703718285108744e-05
2.607146730978482894e-04
1.287222549485456786e-04
-5.582603732254015643e-05
-1.060812445751575605e-04
-1.691867935785062017e-04
-1.805870603471102409e-04
4.527717059406902281e-05
-1.052119705322400705e-04
5.896121837689295361e-04
6.474315583613566780e-04
-1.672484791514077548e-04
-3.560607402198633260e-04
-4.072640221859338719e-04
-5.797849599894667897e-04
3.785264299486261409e-04
1.076491474990218758e-05
3.737821976854553875e-06
4.978622625723002212e-06
1.720933866555656512e-06
-2.416067046309235781e-06
-2.009055045252028556e-06
-1.178836815648678197e-05
-4.988802970987347308e-06
-4.246242624676962508e-05
1.780592429593263744e-04
2.708345008275216690e-05
3.895854450185599302e-06
-4.528644406472897134e-05
-5.258719900901857750e-05
-7.619208834920934183e-05
7.489610177462334520e-06
9.812939823390865379e-05
2.876560938615541204e-04
8.000075188210556019e-05
-1.006260477499258346e-04
-8.643199943272759011e-05
-1.497846873498256850e-04
-1.863927119217198048e-04
5.744920247663042430e-05
4.483196095731661424e-05
7.230584846475040964e-05
2.361317166682545463e-04
-9.707189828173002187e-06
-8.537606658397142679e-05
-1.110087879042006014e-04
-1.237506426685774799e-04
-2.342683910539919369e-05
4.924528792612312003e-04
4.526384670449917422e-03
2.651756123045493404e-03
-1.130225551002842855e-03
-2.235423449525279251e-03
-2.841725803084439901e-03
-3.038711956311439689e-03
1.575493087167360428e-03
-2.208071909393236125e-05
3.138906556564317538e-04
1.554384775370333115e-04
-4.677516017351688416e-05
-1.279019370178041215e-04
-1.614807183010254904e-04
-1.882210993300489053e-04
7.713050072286330725e-05
3.679118049640864438e-04
9.802633324488589043e-04
5.743077440928483473e-04
-1.580328439957967882e-04
-6.507292822487793175e-04
-7.902431534251912150e-04
-7.975899941325190591e-04
4.741123922964916816e-04
-2.128649125237231971e-04
9.983660835548909679e-04
4.038226790547902868e-04
-1.290182765894326219e-04
-3.602726255701795563e-04
-4.674751424113372453e-04
-4.285819393957058989e-04
1.960241338806969667e-04
-3.326135975286577042e-06
2.771208760605219806e-04
1.009338189675417223e-04
5.874338818896236263e-07
-8.245367250909540026e-05
-1.318952040280869703e-04
-1.740011632110744465e-04
1.303404681358987411e-05
-1.855249266582595263e-05
5.067010548512568095e-04
1.778016927577076177e-04
-1.147903106885192405e-04
-2.548695462228272386e-04
-3.584520990399722848e-04
-3.377205548459849245e-04
3.998822558541648988e-04
-8.934578567425505142e-06
2.028558047519193070e-05
1.574293826668813907e-05
-8.562829860807723731e-06
6.806238045401128540e-06
-8.015497615417415387e-06
-7.917214949983812780e-06
-9.404635793646703995e-06
-5.213129523182335441e-06
1.391219207663259388e-05
1.441942720354623721e-05
5.201764867450229815e-06
-4.395663334790867343e-06
-9.203637618996296399e-06
-4.095896968676025514e-06
-1.062505670198354129e-05
-7.140555097722898508e-06
2.518440437313548374e-04
2.262567360109928852e-04
4.690185239731903310e-05
-1.102836465071856104e-04
-1.443727811778176698e-04
-2.212748802115941326e-04
-4.193076914534612761e-05
5.032152652344555865e-05
1.878212863550957935e-04
1.287544707328405595e-04
-7.154618664995228492e-05
-8.937842672297040562e-05
-6.105138105541033837e-05
-9.429220072146887624e-05
-5.062908846157995908e-05
5.864406801715020502e-04
2.240506289084416743e-03
1.820878416068231250e-03
2.560531318065676165e-05
-1.566666374312059842e-03
-2.080422054627296784e-03
-2.280641602077530545e-03
1.254299332512082490e-03
-2.243051984203078413e-05
1.685456734664786361e-04
5.240022344725298270e-05
-4.121526360930450109e-05
-1.577347363799082338e-05
-7.324141752490444680e-05
-8.695246609963927574e-05
1.866724380013797175e-05
-3.171853924864137644e-05
1.640416935035244066e-04
1.761896787472773938e-04
-1.331141131657286459e-05
-3.574958802190562174e-05
-1.022634199551706073e-04
-9.052049455522119157e-05
-6.666791915328975249e-05
7.074864834368954777e-05
1.169629894041773440e-04
1.032870279236767873e-04
-1.337413026330740665e-05
-9.949577063048837286e-05
-1.229875884622471586e-04
-1.496503965050968005e-04
9.450922018959589867e-05
8.779876471735537286e-05
2.604406160131620502e-04
1.519381715627943880e-04
-6.252282895184208726e-05
-6.523108381175329970e-05
-1.770405911198898250e-04
-2.077737467240663605e-04
1.239069831423987320e-05
8.975204951316120741e-05
2.193727373827345569e-04
6.235709724365228477e-05
-2.592485868630847756e-05
-5.296367790782133690e-05
-9.427224032260181992e-05
-1.173495106534069339e-04
-8.097159656940931816e-05
-1.971004526194169559e-04
1.433433069687911274e-03
8.114462289198222898e-04
8.686114781381852493e-05
-1.107505652621779916e-03
-1.712571153759029352e-03
-1.720577359892268158e-03
2.406014172470943065e-03
6.468065223918991477e-06
9.608472219744083412e-06
2.914354720468624181e-05
4.705386942857303375e-06
-3.267593002835364057e-05
-1.148621627180161978e-05
-1.087776268098976689e-05
5.114437389938413933e-06
1.144886419508095900e-05
4.635173810681965467e-06
7.469920954504994726e-07
-1.268149654471338619e-05
8.104961328116810730e-06
3.478584720289185605e-06
-1.131714746933143781e-05
-4.415932135574581133e-06
-3.039533208775205874e-06
2.205838775445139217e-05
9.932155614896012301e-06
2.932375233925400268e-05
-8.298620962716529801e-06
-2.151820779801970346e-06
-4.152409222314715301e-05
-6.300228534160554888e-06
-6.199584144381041311e-05
7.484291851847541411e-04
2.949455708954498538e-04
2.830836474925332025e-05
-2.415208394111656085e-04
-3.852477935563371442e-04
-4.270086580136999940e-04
4.409001159555634260e-05
0.000000000000000000e+00
0.000000000000000000e+00
0.000000000000000000e+00
0.000000000000000000e+00
0.000000000000000000e+00
0.000000000000000000e+00
0.000000000000000000e+00
0.000000000000000000e+00
2.673909188369721381e-05
7.959988159903873381e-05
4.395951345277563478e-05
2.465570205743774181e-05
-3.757938610280799692e-05
-5.131523725645878865e-05
-4.566703940556191796e-05
-4.039252622812059018e-05
7.142677801499357931e-05
2.189864873326123412e-04
2.349219699202713732e-04
-1.804083654233693438e-05
-1.399190144911566333e-04
-9.889429552392890147e-05
-2.006915509061662735e-04
-6.778953780428881185e-05
2.629762068568519372e-05
3.068942367981588736e-04
1.011241501166092231e-04
-6.860871866299078907e-05
-1.914870674345127313e-04
-2.113548807260360424e-04
-2.210484969863568553e-04
2.581831562094431039e-04
-5.420225371043655089e-05
1.641413943283379399e-04
6.959284077877389422e-05
-1.684309063557958881e-05
-3.537548704872699819e-05
-3.738644368521526072e-05
-6.582728835666962913e-05
-2.409967167048360985e-05
-1.905294776301818228e-05
-1.237699012820180900e-05
4.832182001521852249e-06
2.764748116790463793e-05
1.404079234722673778e-05
-1.532063362793417106e-05
-1.499096821170081654e-05
1.522108421420174076e-05
5.560734185129461990e-06
1.408325482444721148e-04
5.186102813834707060e-06
-1.288655992747521132e-05
-4.714648287151011649e-05
-3.948465410136424214e-05
-3.309593351198728244e-05
-1.896575483109950679e-05
-1.383492887316794578e-05
1.448473787879891788e-04
2.879155231052607923e-05
-1.614372246061298235e-05
-3.374525173454383741e-05
-2.765604537824927170e-05
-4.709078473660020960e-05
-3.516819791534097565e-05
-4.791395472768800721e-05
7.402737471053141697e-05
5.876183387139370358e-05
7.789291347813532965e-06
-2.287401213516375217e-05
-1.358570416170904743e-05
-1.013149074426699829e-04
4.511007853749215648e-05
4.357088628235615774e-06
-7.132917816056141100e-07
-6.693465156163908048e-07
-6.095074449453263055e-07
-5.791829750407254178e-07
-5.650868486975837651e-07
-5.570748070909958149e-07
-6.635982552389751087e-07
7.618624230458697700e-05
2.811934084021409930e-04
7.370610224118615472e-05
-7.565689944867597413e-06
-1.037671627486227901e-04
-1.724583307280118795e-04
-1.741704694884860596e-04
2.687589996207438909e-05
-8.388155221936891801e-06
-3.661276695354928162e-05
-1.615293247162296448e-05
-4.306480205377898941e-06
-3.596948888713380677e-05
2.555222327968288492e-05
-3.366303288783049951e-05
1.095406333477685158e-04
8.721289581076527990e-07
5.616369456775817084e-05
3.415672126612771830e-05
7.916008055882104553e-06
-2.031331899895580094e-05
-2.450821215088450279e-05
-2.909426174021361236e-05
-2.519275995782172776e-05
-2.121032925621011103e-06
1.651370877160075138e-04
9.771695261125506690e-05
-5.912391076672025684e-05
-2.786051500846167925e-05
-1.225940493045693373e-04
-9.486578999829992521e-05
4.371125767640974587e-05
2.427488131061559607e-05
1.817872232080853422e-05
5.324026593368078915e-05
1.695393825139808553e-05
-6.283532957817637593e-06
-6.308488504486650379e-05
-1.063914719919587600e-04
6.311208217814009459e-05
4.748152917931741228e-05
1.056442397502562624e-04
2.817882572681115923e-05
-2.231993820112491739e-05
-3.775942338844920045e-05
-5.564428891729266227e-05
-3.954036376331619235e-05
-2.604058038620189535e-05
-1.388940524032374013e-06
8.015369951697288005e-06
-1.629856949870187077e-06
3.887632424577471213e-06
9.148976440437558660e-06
-5.727023581100880208e-06
-5.658961745933877523e-06
-6.647196015774992916e-06
1.663307070767296702e-06
7.959444683205900331e-07
1.348274412148894422e-06
-2.924764113948542312e-06
2.436437831572179853e-06
-7.393508114827550365e-06
-2.304835372830506413e-06
6.379143818797637339e-06
5.102782809676734097e-07
5.073452013005004371e-06
5.355478434394511657e-06
7.297631139041554803e-07
-4.083953971081840525e-06
-3.997984565835975256e-06
1.048268236708821055e-06
-4.635301542062344368e-06
-2.045592238108189016e-05
5.411768246981152287e-04
4.217366898390618795e-04
-5.766658898024677596e-05
-1.786588819453665872e-04
-2.801119202710370976e-04
-3.831127421037773691e-04
-4.290745885566747290e-05
9.938455584631092354e-05
2.213844312964397855e-04
6.278964930179459334e-05
-3.794224703313491172e-05
-8.134717069882742031e-05
-8.833139443611815844e-05
-1.068105685942412727e-04
-6.912725568222371543e-05
-3.217430391846991315e-05
4.784944646832628732e-05
9.507348054479757395e-05
-2.187771676168746878e-05
-8.071029469707090948e-05
-2.357672010061721910e-04
-1.908708740921888141e-04
4.184774634624657775e-04
6.703527969037581058e-05
4.775559968489963649e-04
2.872910957617437065e-04
-4.900386946932276390e-05
-1.930658839356222574e-04
-2.810881784211841615e-04
-3.299049043544326535e-04
2.118046387944575094e-05
-3.771525720205901527e-05
-2.428582576322724541e-05
1.276034431686190586e-05
3.760641396382546366e-05
2.235531643303641212e-05
-7.537573802761768675e-05
-6.925963466059849825e-05
1.339143809397784794e-04
-8.966287811876827462e-05
5.604566846109967741e-04
3.275871420337613860e-04
5.594772285723214029e-07
-2.268643928871385824e-04
-2.765950558790782510e-04
-2.914726832660954805e-04
-4.008293722250436418e-06
6.993781871822763634e-04
1.155196616376006269e-03
8.419018205334931901e-04
-2.350303608532868448e-04
-6.931642386216863407e-04
-8.521330999660180292e-04
-9.215073116806337880e-04
5.358387029850917946e-06
1.284760142590502507e-05
6.118858715988195133e-05
2.737476001378804378e-04
-2.653283392184375918e-05
-1.215870975974292295e-04
-1.069087217488861479e-04
-1.294174645897405371e-04
3.666232913423213920e-05
1.500196178016860483e-05
1.248350475576206325e-05
2.399140598024898581e-05
6.242040226860444584e-06
2.402122907938739539e-06
-2.204340073298081783e-05
-1.173910832361680239e-05
-2.633852659438121313e-05
2.954591303149467808e-06
2.273895764465192863e-06
2.769457637903480110e-05
-6.709743188983653292e-06
-6.412556030100086447e-06
-6.270618424342606686e-06
-6.194111255050172702e-06
-7.336034548172923583e-06
3.730526686945570126e-06
3.618546106405362780e-06
-1.319547118067848671e-06
-1.221317750715162488e-06
-1.170122679737501663e-06
-1.144409643709183778e-06
-1.130217250944382757e-06
-1.363458350176855667e-06
-5.769014829829532037e-06
4.602554800093745509e-05
5.624411521254197958e-05
-1.842569584381420565e-06
-2.354828710333883672e-05
-3.702609766906176330e-05
-4.125665033063520874e-05
7.172956303767205351e-06
2.926364723017049087e-05
9.814628407269858346e-05
-2.965702555247689260e-06
2.004787826237708305e-06
-3.063003636897479730e-05
-2.953892789301191147e-05
-2.397885206503406867e-05
-4.230120024683847984e-05
2.922266825579706849e-05
8.706272077135102485e-05
6.634171230791941561e-05
-2.780772438615908201e-05
-3.492369139103118912e-05
-3.857421423837204493e-05
-5.288927262438564657e-05
-2.843219869511958019e-05
4.290073722817522132e-05
1.177051193805277060e-04
6.721399597366551487e-05
-1.530221488679705356e-05
-3.428773543292676178e-05
-6.648997988510143827e-05
-1.050375329661971534e-04
-6.702389411345989459e-06
-4.143335843040640956e-06
-5.924381507918659240e-06
1.012897810285660728e-05
3.166375881443577036e-05
-2.550095614539536187e-06
-1.217382646845277225e-05
-6.973035355517864524e-06
-1.002806212782292735e-05
-1.572325318839768906e-06
2.490671714197742145e-04
8.741527333587182909e-05
-4.324286845719882153e-06
-1.279359454874078766e-04
-1.327373229232800891e-04
-1.600907079268635539e-04
9.017814374646499723e-05
-1.297454341492647635e-06
8.519849816780327001e-06
-1.354354060594079169e-06
-1.210071193054215266e-06
-1.143520360969587280e-06
-1.113921310606620273e-06
-1.099351761651577384e-06
-1.301176788411604865e-06
-5.123561987066155625e-06
7.603190194354027189e-05
-1.533033968795244881e-06
6.432015152980914455e-06
7.791950055111870907e-06
-2.659287843068882060e-05
-2.628089928636111934e-05
-3.072549347872163253e-05
3.290675560328543885e-05
5.373611286373871537e-05
3.136514425918566742e-05
-1.536676614233672798e-05
-2.879429262406198766e-05
-1.807611377616789424e-05
-2.771087297915836341e-05
-2.805996720448487882e-05
2.742814916217693529e-06
6.527061081755451222e-05
3.004389864904643276e-05
2.105551900131983375e-05
-2.109894641378228091e-05
-3.479057911917722513e-05
-2.911355403621204024e-05
-3.410976381496691793e-05
-3.091245601084429063e-05
1.437633165245380919e-04
9.020875765386152545e-05
3.494409193956288073e-06
-3.742422904398017924e-05
-5.555348059241519695e-05
-5.458389393131224962e-05
-5.899242379380398478e-05
9.521740780725200417e-05
1.629162821643248473e-05
-6.210127679974039801e-06
-1.784531165987630482e-05
-1.127169098552350853e-05
-1.554966362853677002e-05
-2.518604534135281291e-05
-3.544619672842106892e-05
1.636040618217939416e-04
8.702264191978090462e-04
1.708755295926863479e-04
-8.825745409489159073e-05
-2.695726659975211702e-04
-3.188332410247089548e-04
-3.484150570430265834e-04
-1.796275924521407519e-04
5.332118060696131989e-04
6.766051561907649023e-04
1.938995523383435005e-04
-2.639695970406382482e-04
-4.042978923179732227e-04
-4.259454988760111955e-04
-4.712964974951590097e-04
1.617929711310600745e-04
3.962179080252367386e-04
3.717872100960742149e-04
1.908941713731481405e-04
-2.526264054618645397e-04
-4.851010775725508027e-04
-5.182161898527765662e-04
-5.770742265919445464e-04
8.741186099846777946e-04
0.000000000000000000e+00
0.000000000000000000e+00
0.000000000000000000e+00
0.000000000000000000e+00
0.000000000000000000e+00
0.000000000000000000e+00
0.000000000000000000e+00
0.000000000000000000e+00
1.389119353848073455e-05
3.506316384146727005e-04
1.540262349683666008e-04
-1.010727359224047726e-04
-1.592364825738157514e-04
-2.541212435390628331e-04
-2.738722496692578526e-04
2.697536447830211552e-04
1.731331932335004463e-05
1.205366204118007225e-04
5.448460830962552668e-05
-2.439507354117227555e-06
-8.655305456392963412e-06
-6.954736749570482335e-05
-1.124172392092772553e-04
7.248714707158713683e-07
3.375518580934579237e-05
8.059726981707642276e-07
3.354709349975904447e-05
-2.994124557186360851e-05
-6.903739780622315315e-05
-7.129523594168891683e-05
-8.478122575016267719e-05
1.869468530626625916e-04
1.386834255381585979e-04
8.839207977679635134e-04
3.613378984799422338e-04
-6.409387821498478135e-05
-4.582439177037619916e-04
-4.928365136919366125e-04
-6.071147614346846877e-04
2.383469492593039856e-04
9.111980407942966137e-07
8.219038622857535096e-05
4.321384269244270325e-05
-2.844930646994775210e-05
-1.244951737746279269e-04
-1.781547136941449090e-04
-1.048837884831786156e-04
3.096675554600870667e-04
-1.861016250919184320e-05
3.531189610441148700e-04
3.075498853660338025e-04
-8.402000638530961088e-05
-2.329019215860617077e-04
-2.510589288556949630e-04
-2.698197970012012280e-04
1.957419699273111376e-04
2.032312466099493460e-04
3.001497705278877940e-04
4.445201786886167794e-05
-8.584087032823973910e-05
-1.683893370705880381e-04
-2.581459776653224946e-04
-3.379043293917480717e-04
3.024474794492000812e-04
4.079529335243300763e-05
8.592649776100650489e-04
6.745493101723231376e-04
-9.437147419059187096e-05
-4.632094299559174570e-04
-6.184788462337776011e-04
-8.076762931376638924e-04
4.091264623831280959e-04
3.939260130363222344e-05
7.460453633565720748e-05
5.446357644890354772e-05
-8.242779710422158226e-06
-6.664953901612123872e-05
-5.626235307043292070e-05
-1.182518023805382765e-04
8.094576008932160703e-05
-4.458955392347406803e-05
2.636512156317564898e-05
4.454758915978440030e-05
1.221970994919950216e-05
-3.613299511775591705e-05
-3.303164723757055543e-05
-5.630180621964198578e-05
8.692358182628306972e-05
6.956669075625132907e-05
1.797652354329522923e-05
4.751374931295080273e-05
-2.945363225021451473e-05
-1.447875752375963341e-04
-1.806446288238308835e-04
-1.506348547667033487e-04
3.704637274658476183e-04
-1.328257348968239300e-05
-1.714373484546521755e-05
3.149360028694867339e-05
-1.680774412086470204e-05
-3.611153716905674043e-05
6.531773814565551155e-06
-5.207638455631030574e-05
9.739660007986527483e-05
-2.652437112354500394e-05
1.916645901669454511e-04
4.765167412032120502e-05
-8.690235194771398633e-06
-4.226248391177096135e-05
-8.932532506134646807e-05
-7.786507403002728052e-05
5.351225034194630886e-06
-1.096348195614965597e-07
1.040109579956190736e-04
4.401051574334459069e-05
-2.255013879691238155e-05
-6.093906489361766775e-05
-6.286541900367519618e-05
-8.624691759151028908e-05
8.468970136631325484e-05
9.570437772070668911e-06
1.156132008051691566e-04
2.929292178910293027e-05
-4.296007130363092807e-06
-5.875131900398001779e-05
-7.115473682710787623e-05
-8.479023484565497348e-05
6.451573744076313257e-05
1.354878698254819043e-04
3.931551738803300283e-05
-1.065573771045231485e-05
-5.861754452981418162e-05
-7.037909966874879763e-05
-5.919546497061950035e-05
-1.109025969839392688e-04
1.349470566500594881e-04
-5.366521261216867004e-05
5.693155637978994594e-04
1.826291078910519572e-04
-1.258356539924271658e-04
-1.763290577594374224e-04
-2.423368143554724386e-04
-2.527481526129103867e-04
9.897021964346488392e-05
-1.705239957092312734e-04
5.084540253963922181e-04
3.140008138660276742e-04
-2.881633697523877235e-05
-2.016492414877503491e-04
-3.016822367877426822e-04
-3.289585425905267794e-04
2.091755142880704656e-04
1.077761182453142760e-04
5.303741319902030701e-04
1.379468590703400758e-04
-1.709248942956154312e-04
-2.817747948451338738e-04
-4.134905893218787589e-04
-4.690493647474757409e-04
5.591425339042470875e-04
-1.877030879674649588e-05
6.485236684743110862e-04
3.727056722696646634e-04
-1.011701615795824864e-04
-2.978020404481450021e-04
-3.199537873790734449e-04
-4.183944954280510069e-04
1.348614528876219173e-04
1.551208417286979851e-05
4.962587937401695024e-05
3.628256920444639674e-05
1.074182264839422883e-05
-2.458850460952694621e-05
-5.237126975222154728e-05
-4.120363288409455594e-05
6.001051846115663241e-06
2.626614399074818387e-05
-5.742931144900578984e-06
8.859070370361076067e-06
-2.018939736893021324e-05
-2.255707997904698904e-06
-2.588143220172201120e-05
-4.016674048480319584e-05
5.911099483715146830e-05
3.518880901923309150e-05
2.168317248687319444e-04
8.358061537373829045e-05
-4.637846260200412289e-05
-7.923703196772592509e-05
-9.093409162456280251e-05
-9.921668697821240106e-05
-1.983487608919804097e-05
7.355335858793391498e-05
1.566266205505933203e-04
1.582655579243116394e-04
-9.876204320977965425e-05
-1.025098000813712355e-04
-1.272658108823608732e-04
-1.445236662148983238e-04
8.461578332557103581e-05
-1.486707057842040275e-04
3.795833237648718063e-04
3.222223355162719301e-04
-8.848882277370436215e-05
-2.073702788220435395e-04
-2.029343703595499050e-04
-3.353260416836051296e-04
2.809845601419635390e-04
-3.044283559931734365e-05
4.637794123822750896e-05
1.413328443401492922e-04
-1.908094769081008084e-06
-2.867556261325932777e-05
-4.717374460440901181e-05
-5.139226030553388101e-05
-2.811828768677622376e-05
3.482122633472604492e-07
7.024298215236778541e-06
2.561082058062411440e-05
2.191048160115727472e-05
-1.750509870318929108e-05
-2.989009633961381754e-05
-4.854299178542983474e-05
4.104437416786754935e-05
1.076491474990218758e-05
3.737821976854553875e-06
4.978622625723002212e-06
1.720933866555656512e-06
-2.416067046309235781e-06
-2.009055045252028556e-06
-1.178836815648678197e-05
-4.988802970987347308e-06
-4.246242624676962508e-05
1.780592429593263744e-04
2.708345008275216690e-05
3.895854450185599302e-06
-4.528644406472897134e-05
-5.258719900901857750e-05
-7.619208834920934183e-05
7.489610177462334520e-06
-3.320590026912791131e-06
5.568311581395789283e-05
3.445211340842369219e-05
-2.048072737182173687e-05
-2.999583488861181650e-06
-2.183597513432032714e-05
-3.121403356644478596e-05
-1.028431963402078599e-05
1.014499882608216308e-04
2.319729780475964106e-04
4.554863847368196286e-05
-8.014532037810407738e-05
-8.343241594386651815e-05
-1.279487122155056086e-04
-1.551786783552748766e-04
6.773352211065115100e-05
4.483196095731661424e-05
7.230584846475040964e-05
2.361317166682545463e-04
-9.707189828173002187e-06
-8.537606658397142679e-05
-1.110087879042006014e-04
-1.237506426685774799e-04
-2.342683910539919369e-05
-7.391134912104581150e-05
5.793637927323423372e-05
1.090937966850332727e-04
4.952732372217536843e-06
-3.177855789634451866e-05
-7.786662626200087898e-05
-9.581416751359572855e-05
1.073877924625017818e-04
2.626462009745751428e-06
6.104061218519829816e-05
5.272142836974648469e-06
-9.091211038075474769e-06
-3.613215876912824850e-05
-2.473084259153673646e-05
-3.400578362588420410e-05
3.502077899270585818e-05
4.920416801736769713e-05
1.949136641979989102e-04
4.107253801502526078e-05
-4.263668150765893692e-05
-5.999122035233135435e-05
-5.888324944748793936e-05
-5.840114819056916917e-05
-6.527807073234445472e-05
-4.527896004906370101e-05
-4.439716872257399330e-05
-4.688209991462346615e-05
-3.844929371486063071e-05
-3.678559397748755076e-05
-1.100801997184608006e-05
-1.061642973038684563e-05
2.334175660808422541e-04
-1.423236202666749897e-04
4.350263958902060666e-04
2.618906581703186217e-04
-5.932902493090447558e-05
-1.483949110562019316e-04
-2.260648007242077465e-04
-1.824286732647157564e-04
6.162397618217971675e-05
-2.526233220798438780e-05
6.077368563872590640e-04
1.888141207990948873e-04
-3.123995794366756309e-05
-1.750921205364903044e-04
-2.304023217152837745e-04
-2.355368364006033206e-04
-9.901740838232499058e-05
-1.364005768287320254e-05
4.640138758636286445e-05
3.779396746412216998e-05
1.076320078684621961e-06
1.523409478879204390e-07
-3.297116982449384325e-05
-5.697709866664975428e-05
1.816431009695925388e-05
9.840150826533221174e-06
5.396583992701545386e-05
2.764833673803725178e-05
-7.382692787109814268e-06
-1.489932566513180176e-05
-2.374854469922627233e-05
-2.312526249521898799e-05
-2.229850184489909451e-05
1.622759421166513573e-06
-9.445015135615561443e-06
6.177883980367141011e-06
7.132625957413625818e-06
1.764628248783368247e-05
-2.102942402819034367e-06
-6.961261650114657095e-06
-1.407033265823169769e-05
-3.049690475249197162e-06
1.630215075107629985e-04
1.516242001143714953e-04
4.290619919344815925e-05
-1.114312167290704787e-04
-8.383592495060693706e-05
-1.325176715618968230e-04
-2.671740310175940180e-05
-1.913717187300208990e-06
-2.099676157171290604e-06
3.012347714094854155e-06
3.169399954882394174e-06
-1.751727548704911065e-06
-1.714199300671613310e-06
-1.693585837714053804e-06
2.991158362584831138e-06
-3.326135975286577042e-06
2.771208760605219806e-04
1.009338189675417223e-04
5.874338818896236263e-07
-8.245367250909540026e-05
-1.318952040280869703e-04
-1.740011632110744465e-04
1.303404681358987411e-05
2.601370165168370108e-05
5.659116693980266975e-04
2.343416288551825250e-04
-7.709149096085461032e-05
-2.241328097005811754e-04
-3.386532679108528025e-04
-3.184070705683413613e-04
1.320176392357373749e-04
-4.456619431750963339e-05
-5.921061454676982024e-05
-5.653993609747502930e-05
-3.769881972766474541e-05
-3.073673652224604964e-05
-1.979883112911990918e-05
-1.931348427764326166e-05
2.678646166184283370e-04
-8.934578567425505142e-06
2.028558047519193070e-05
1.574293826668813907e-05
-8.562829860807723731e-06
6.806238045401128540e-06
-8.015497615417415387e-06
-7.917214949983812780e-06
-9.404635793646703995e-06
-5.213129523182335441e-06
1.391219207663259388e-05
1.441942720354623721e-05
5.201764867450229815e-06
-4.395663334790867343e-06
-9.203637618996296399e-06
-4.095896968676025514e-06
-1.062505670198354129e-05
4.609148674661335510e-05
1.464895776883633725e-04
1.155728277311575386e-04
-6.725026218957858243e-05
-8.134712736704031435e-05
-3.861508913098030170e-05
-8.217937018558245138e-05
-3.876204329295279938e-05
3.485192725507499870e-08
4.278016908743752656e-05
9.208966776954472319e-06
-1.382816105661574402e-05
-2.847659250583418139e-06
-1.738569760903566977e-05
-7.134380605036793088e-06
-1.082808927037539057e-05
4.195187849577128810e-06
-1.448460420705052626e-06
3.972676224728657799e-06
9.532236596241972071e-06
-5.183640105346918349e-06
-5.050594315394336400e-06
-4.978449930849707155e-06
-1.038955898251744998e-06
-1.367181339557545778e-05
2.469607608219863179e-05
1.887604637757397513e-05
-4.771429945662412057e-05
-8.767393370896794350e-05
-1.206762038439150223e-04
-1.168565164448668052e-04
3.430206443901771558e-04
9.644527129323583053e-05
1.409642895414832246e-04
1.207877729588147190e-04
-3.653407619334848470e-05
-8.043676483826872809e-05
-8.270693188143968038e-05
-9.129039880090442452e-05
-6.722916207957273422e-05
-1.390217249380241943e-05
3.333660725601575008e-05
-1.595560221587163910e-06
4.905903109174348244e-06
-2.188347967727788236e-05
-2.542571833826018710e-05
-4.468492235410151701e-05
6.924934271983918942e-05
-1.418198814200159146e-06
7.184628130775989896e-05
5.627670806933440838e-05
-1.035228693381932386e-05
-1.004584373648134124e-04
-1.286141507591348975e-04
-1.199035947207216919e-04
2.326236792155951972e-04
-4.705680503808565079e-05
1.406788776474661060e-04
1.244111025476275605e-04
1.243242223287425584e-04
-1.112580896313877723e-04
-2.097812959659284987e-04
-1.715882670294677085e-04
1.502702551410335001e-04
1.776973360787222143e-04
5.825570421476453315e-04
3.619901885510460552e-04
-4.702062184314040311e-05
-3.777007856064557218e-04
-3.878582014998117758e-04
-5.576090082356281426e-04
2.479440504076239806e-04
-8.331631566792090679e-05
2.631063382125695886e-04
2.749258857715580176e-04
1.132596427778164816e-04
-1.281289531854439630e-04
-2.174564828622918306e-04
-2.219411933724247028e-04
-4.489216738631320853e-07
3.145394912346181600e-04
4.355557632405691209e-04
2.942574547836653421e-04
-1.732669846360500939e-04
-2.505421945619448710e-04
-3.181062649343342026e-04
-3.418519948867262829e-04
3.941472976020315251e-05
1.369047218945359658e-05
3.721450887667197729e-04
2.895577576354284267e-04
3.639195600462240060e-05
-2.154800759689577585e-04
-3.231854173053479683e-04
-3.643227856897292998e-04
1.912030043678111585e-04
1.297217310202395811e-04
7.323818993870355161e-05
1.763828673155187678e-04
5.067008950750419950e-05
-1.145279329614044172e-04
-9.511206179244954134e-05
-1.227722319441818747e-04
-9.760065108392989414e-05
1.371168376481730158e-05
1.023817349432865889e-04
1.050081922792523023e-04
1.094176851577935441e-05
-7.857572680713711098e-05
-1.714993254443831724e-04
-1.278206885987808123e-04
1.458523613471652961e-04
-2.243051984203078413e-05
1.685456734664786361e-04
5.240022344725298270e-05
-4.121526360930450109e-05
-1.577347363799082338e-05
-7.324141752490444680e-05
-8.695246609963927574e-05
1.866724380013797175e-05
-3.171853924864137644e-05
1.640416935035244066e-04
1.761896787472773938e-04
-1.331141131657286459e-05
-3.574958802190562174e-05
-1.022634199551706073e-04
-9.052049455522119157e-05
-6.666791915328975249e-05
-3.560601479196956736e-05
4.906468432121721554e-05
5.586259828970588538e-05
-4.583333659164160953e-05
-4.698274879164353627e-05
-3.522906250267806606e-05
-4.940958875148870406e-05
1.081334688184983891e-04
1.071255506157454507e-04
6.923854392197963082e-05
4.341765284783891409e-05
2.294925797668313021e-05
-5.228391759585067572e-05
-8.265497636295296901e-05
-1.002051757047685857e-04
-7.586935698674908917e-06
-7.708874800863282285e-07
-1.340238839019483306e-06
4.006776786132036109e-06
9.509948351651060811e-06
-2.291042429941466774e-07
-5.103549596616217581e-06
-3.563204883943504827e-08
-6.037312930227483286e-06
8.779876471735537286e-05
2.604406160131620502e-04
1.519381715627943880e-04
-6.252282895184208726e-05
-6.523108381175329970e-05
-1.770405911198898250e-04
-2.077737467240663605e-04
1.239069831423987320e-05
8.975204951316120741e-05
2.193727373827345569e-04
6.235709724365228477e-05
-2.592485868630847756e-05
-5.296367790782133690e-05
-9.427224032260181992e-05
-1.173495106534069339e-04
-8.097159656940931816e-05
-1.741075645970040556e-05
1.272005299357200096e-04
1.975698341201752523e-04
-5.936718407932264595e-06
-1.523389596756886080e-05
-1.001783420300783340e-04
-1.375412112144641077e-04
-4.846943997615120112e-05
1.634940704362387409e-04
3.954786506295418849e-04
1.269517900844460939e-04
6.256874213646908755e-05
-1.839995910968282339e-04
-2.555983104730263585e-04
-2.414523922350998329e-04
-6.744295948174163944e-05
-5.533520427212297084e-05
-5.036775935109339851e-05
-5.243628018395912711e-05
-4.324978594356170230e-05
-5.117050255654089012e-05
-5.018003721138881377e-05
-2.468047360860376534e-05
3.274200431272707222e-04
-1.816826253570892117e-05
-4.944380333100243131e-06
2.935237644427605318e-05
2.036027292716334380e-05
-2.643680800938300672e-05
5.068531583708209067e-06
-4.915603397626336666e-05
4.392430389930792147e-05
3.584955232026432810e-05
1.911925264333364253e-04
1.982143078141524459e-04
-5.572841562907466742e-05
-9.774810139498512718e-05
-1.240894940267995010e-04
-1.122636349260159981e-04
-3.542674059087816315e-05
-5.123981431767613768e-05
1.507053108726124301e-04
8.122802608862315314e-05
4.149323564313826362e-04
-1.514922740895115876e-05
-2.608999833163266218e-04
-3.315466275024519095e-04
1.196995915278809111e-05
-9.058880983354437486e-05
-8.904525755639188910e-05
-6.692528394218802672e-05
-1.288445536877127849e-06
-7.334636010692041012e-05
-1.097182517719603583e-04
-7.294275827354269100e-05
5.038551670214246785e-04
5.197184980552732662e-05
3.122931003318965451e-04
1.890856333267335824e-04
-3.793999161952714281e-05
-1.546162977549526637e-04
-1.935303561811777039e-04
-1.455134003721523161e-04
-2.175053753634753948e-05
6.175275743260016008e-06
2.088829338421145816e-04
1.285757075094226250e-04
2.514201239118590738e-05
-9.630092183422047172e-05
-1.250483935054561924e-04
-1.968986506706771800e-04
4.947203652437047943e-05
-5.489867818414872683e-05
2.768091588148882546e-04
1.613374670484737114e-05
-4.984599521205917894e-06
-1.104544604077239864e-04
-1.360747681970804089e-04
-1.339247321123628943e-04
1.473943329027857876e-04
-1.526669433959610260e-05
-1.647669811224220830e-05
-1.070600131243057413e-05
-1.472764901074748619e-05
-4.252746915919923514e-06
-9.028034929718287932e-06
-8.929409846623649966e-06
7.938723446727830632e-05
-7.614425445287811476e-05
2.747725169511626133e-05
1.544289375166755856e-04
-1.916484307140355558e-04
-2.125801745278896456e-04
-3.466693179165663608e-04
-3.687933704821547923e-04
1.013929358881732060e-03
6.468065223918991477e-06
9.608472219744083412e-06
2.914354720468624181e-05
4.705386942857303375e-06
-3.267593002835364057e-05
-1.148621627180161978e-05
-1.087776268098976689e-05
5.114437389938413933e-06
1.144886419508095900e-05
4.635173810681965467e-06
7.469920954504994726e-07
-1.268149654471338619e-05
8.104961328116810730e-06
3.478584720289185605e-06
-1.131714746933143781e-05
-4.415932135574581133e-06
6.962928965033990717e-05
6.821325934157255284e-04
3.549078037662047524e-04
1.959094505273241697e-06
-3.361298245887485263e-04
-5.091111969778846580e-04
-4.860841384384571124e-04
2.226963786675477137e-04
2.893379806300650772e-04
2.187555243370696144e-04
-2.040772353765115871e-05
-1.296544822607585516e-04
-2.253234429905183564e-04
-2.541460055897519846e-04
-2.836904115186895297e-04
4.051285609302348657e-04
9.849199622882773893e-04
1.622328791037341454e-03
4.810271612353315377e-04
-4.698650800585538905e-04
-7.600229090754917049e-04
-1.121344866521019248e-03
-1.289749327266422052e-03
5.527062683605371649e-04
7.827582728490058020e-04
3.658091473305716051e-04
2.318245845692290096e-04
-2.316966791571218025e-04
-3.098721492082705665e-04
-3.675522478412848152e-04
-4.265526447807333811e-04
-4.471828376139666463e-05
-4.359327561583842118e-05
-4.429048183605260191e-05
-5.096153009213719328e-05
-3.602406745804696700e-05
-5.357965199889683786e-05
-4.739726198686732039e-05
-4.676487513493792034e-05
3.226111441227773975e-04
-9.564953052819794336e-06
2.167572285488694305e-04
1.845050485821307868e-04
6.098765331984406313e-07
-1.544139878509755810e-04
-1.702306572818572253e-04
-1.906430471735156337e-04
1.229804916949697789e-04
3.577721574875091610e-05
1.859479359400540018e-04
1.177892488240333651e-04
-7.234680489508613012e-05
-8.812825968073773584e-05
-1.239428608414284549e-04
-1.169589229528989632e-04
6.186244785731274346e-05
-2.612369222438221263e-05
8.817588796034644841e-05
5.175096998502464482e-05
1.342540196350668394e-05
-1.366353149707446311e-04
-1.725333952468870006e-04
-1.929464898020204406e-04
3.748866323351568940e-04
-5.546066125061100359e-05
3.357062336673739844e-04
2.835054475143825698e-04
-7.141647007310924426e-05
-1.696647121486982821e-04
-1.570852711497143397e-04
-2.033984049280862126e-04
3.781383836846269070e-05
-2.288795073941905621e-05
-4.271913422943386489e-05
1.045266922054291877e-04
-8.084509784434042737e-06
-2.918789061745349789e-05
-5.996954338881372351e-05
-7.774552704392866359e-05
1.360678635980537966e-04
-1.003564269067259388e-04
7.237866301415698091e-05
4.316891332316476177e-05
-5.305084500180035848e-05
-4.938067278797300897e-05
-1.108149251037877366e-04
-1.614524895964388287e-04
3.595077830594036817e-04
1.717179673669218330e-04
2.733276025357658226e-04
-4.044437936339858577e-06
-1.857597097790170766e-04
-2.560095456018044260e-04
-2.575316393287293594e-04
-3.058605816460930270e-04
5.641603443892954754e-04
-2.848031588788134567e-04
1.871140872171921142e-03
6.987934567756485171e-04
-2.714459433780327968e-04
-5.673050282659216573e-04
-7.130677082397421981e-04
-7.564730986038875529e-04
2.316060841882799890e-05
1.369617396347132634e-04
8.088847428534724771e-04
4.840332453800513801e-04
-2.339422864346536420e-04
-3.931623551914565566e-04
-5.748836943851432348e-04
-5.284015459971120633e-04
3.005101541401287556e-04
-8.616678755200170964e-05
-1.926302170469204456e-05
1.401920445331966583e-04
3.004379550302935193e-05
-5.002698243879772526e-05
-1.103534174316109706e-04
-9.298627744609415532e-05
1.885606465369705782e-04
-4.494847472143995750e-05
6.979226631601762450e-06
-2.856221503995618407e-05
-2.851351640106685920e-05
-9.324672503613145539e-05
-7.844714318954701436e-05
-8.095396462208695563e-05
3.476928123786262605e-04
3.693503473316154064e-04
2.829860226820582621e-04
1.000152183039595689e-04
-1.159390360289420257e-04
-1.742667688607080797e-04
-2.066604009747723505e-04
-1.979132226260452306e-04
-5.757215982716570678e-05
6.317161895482413005e-05
1.845563057162848879e-04
1.344123728235993988e-04
-5.920617526782878285e-05
-1.241033188022101633e-04
-1.871902092462483140e-04
-2.087910602311795550e-04
1.971504660527585273e-04
-9.613903519931118048e-05
2.312512541685651541e-04
1.096410871718302496e-04
-3.637380713913662678e-05
-1.104388183546835809e-04
-1.382699081981596625e-04
-1.897611196392338918e-04
2.300903471901293896e-04
-5.413324917831493599e-05
-4.281295304508843926e-06
-2.238686518917985363e-05
4.846601041566972354e-05
-1.111426433919305673e-04
-1.463789835224700228e-04
-9.410811174155414799e-05
3.839651379122887404e-04
3.883764603152233398e-04
2.842942596596370391e-04
-8.199227676682566818e-05
-1.851270068112388742e-04
-3.561354076573642366e-04
-3.885225649965999388e-04
-4.598360316672002544e-04
7.989425679243693929e-04
-6.917554169984324001e-05
7.666619956559113120e-04
4.182413855676042885e-04
-1.195812944670906504e-04
-3.376588412099388497e-04
-5.009740756986941169e-04
-5.352873285696583107e-04
3.777737004217091065e-04
4.266548584134382031e-04
2.025136948780067829e-04
4.272013345248233879e-05
-5.057265487129852891e-05
-2.079599080787894016e-04
-2.149443059646569652e-04
-2.609782478230466781e-04
6.256642999386360536e-05
5.572095113884044409e-07
3.879006827277981201e-04
4.293836477940418022e-04
6.146777486201098015e-05
-1.617739700477038498e-04
-2.441041471827308800e-04
-2.254678306508026185e-04
-2.479633670140024386e-04
8.206583105872993032e-04
7.553702314594099064e-04
2.543315238014600527e-04
-1.400814607101140365e-04
-4.330137917369265041e-04
-5.041076028117546723e-04
-5.546819227085371916e-04
-1.984752878808368850e-04
-1.927156039823776213e-05
6.427751327636327405e-05
9.155173255969125735e-05
-1.596534463147750049e-05
-1.273947197086789588e-04
-1.938988002856343034e-04
-3.267860816416571644e-04
5.274872608296312087e-04
1.852966264843927604e-04
1.246043687707110587e-05
3.521876736223271532e-06
-8.023281612797420229e-05
-1.103168867784432711e-04
-8.857201062202804253e-05
-1.452486246225833408e-04
2.230913980533416943e-04
2.202531887354056204e-04
1.697142502100244419e-03
4.158362494448536017e-04
-4.631808355023714916e-04
-6.382776878367202268e-04
-9.213112825647035847e-04
-1.013481747638684139e-03
7.030196132619743370e-04
1.983401511036273268e-05
-7.541544605698362195e-07
-3.546199931892103350e-07
-4.862894925309868126e-06
-4.634353201344924530e-06
4.678665454701322243e-07
-4.485633288021996951e-06
-5.210225787397032453e-06
1.046608042350643316e-04
6.758804034036909993e-04
3.897186852115452167e-04
-2.028837258714123498e-04
-3.689260333363075079e-04
-4.838035971000922324e-04
-5.538424659249223695e-04
4.391959293824338308e-04
-5.073225046010235959e-06
-5.445734585753680390e-06
-5.216337517355657245e-06
-4.894593955428235185e-06
-4.730457922435464192e-06
-4.654343438888576396e-06
3.882312990709684206e-07
2.962646116680088402e-05
5.220205108558497348e-05
1.785377958683922713e-03
6.420664620381660295e-04
-2.067781879749049740e-04
-6.823724816138010234e-04
-8.894554587409705991e-04
-1.035884361197527553e-03
3.348440177195287468e-04
3.069444079777908403e-04
2.065175127461346422e-03
8.360558638704323727e-04
-3.582758947685277381e-04
-1.391259381991424762e-03
-1.694527778816500149e-03
-1.766861633985504932e-03
2.002749290252390114e-03
1.553388822142343260e-05
2.853473351778652574e-04
1.764080220431839784e-04
-8.677334415875190277e-05
-2.952556287346956728e-04
-3.133076726328378565e-04
-2.825264419428103759e-04
5.005738420266229397e-04
-1.361966314498704413e-04
4.171344422759435647e-04
3.209985876540787922e-04
-9.595165871723565466e-05
-1.019054305296004492e-04
-2.059342202204920535e-04
-2.855699829559904773e-04
8.742489394316594665e-05
3.470256584412291035e-04
4.309555727316715062e-04
2.832317491961525982e-04
-2.254259010940211133e-04
-3.221945903132789296e-04
-3.819672362776435387e-04
-3.843752703595911110e-04
2.527500176754815661e-04
6.419360162913677380e-04
2.217648913185894105e-03
1.058874087599045435e-03
-5.424792057809773357e-04
-9.318099641744553591e-04
-1.281364086685277126e-03
-1.396842131523347037e-03
2.340363710877451070e-04
9.472942251745322868e-05
3.610698898272237268e-04
1.881770001221412406e-04
-1.024184365550102888e-04
-1.990104518083031255e-04
-1.806700700566218703e-04
-2.165807520286799057e-04
5.470339798179687228e-05
-3.604664812776857147e-04
7.949711774445940684e-04
5.966640588933593784e-04
-1.467915458066691866e-04
-3.630251276996701213e-04
-4.102414018858243066e-04
-4.214709246493012059e-04
3.103602449811964379e-04
4.734356238973924853e-04
5.752345015065626118e-04
1.424514559498751950e-04
-5.159544212987857614e-05
-4.031835107540727623e-04
-5.834510089901058820e-04
-5.311103256638520075e-04
3.782187061840781633e-04
-1.055238189333060280e-04
4.050288309422964009e-04
4.318562881429731794e-04
-1.064374018659181172e-04
-2.475457714947064468e-04
-2.067921444350858209e-04
-2.664796684686669974e-04
9.589368611241403328e-05
-3.039533208775205874e-06
2.205838775445139217e-05
9.932155614896012301e-06
2.932375233925400268e-05
-8.298620962716529801e-06
-2.151820779801970346e-06
-4.152409222314715301e-05
-6.300228534160554888e-06
-4.833696203935529634e-05
7.642216789316332850e-04
3.043144769265021705e-04
4.097900663654847680e-05
-2.246608903300961139e-04
-3.687644226351957698e-04
-4.156953052477271025e-04
-5.205758224230996157e-05
-5.512469412325984606e-06
1.755460058805614350e-05
-1.127447521945926064e-06
-4.547204248395089636e-06
-3.784307783886616797e-06
-8.439967358663486038e-06
-1.326927021944510461e-05
1.912606595660603121e-05
0.000000000000000000e+00
0.000000000000000000e+00
0.000000000000000000e+00
0.000000000000000000e+00
0.000000000000000000e+00
0.000000000000000000e+00
0.000000000000000000e+00
0.000000000000000000e+00
2.673909188369721381e-05
7.959988159903873381e-05
4.395951345277563478e-05
2.465570205743774181e-05
-3.757938610280799692e-05
-5.131523725645878865e-05
-4.566703940556191796e-05
-4.039252622812059018e-05
-2.103919804009980480e-05
-2.500872705859941690e-05
-1.109793801121404693e-05
-4.417207664707224410e-05
-8.277334198437272394e-06
-2.056621291394863737e-05
-3.415265060970919513e-05
1.643141374790805956e-04
7.142677801499357931e-05
2.189864873326123412e-04
2.349219699202713732e-04
-1.804083654233693438e-05
-1.399190144911566333e-04
-9.889429552392890147e-05
-2.006915509061662735e-04
-6.778953780428881185e-05
4.733681872578503918e-05
3.319029638567582092e-04
1.122220881278232599e-04
-2.443664201591864662e-05
-1.832097332360754945e-04
-1.907886678120868562e-04
-1.868958463766476872e-04
9.386901873036245414e-05
-5.420225371043655089e-05
1.641413943283379399e-04
6.959284077877389422e-05
-1.684309063557958881e-05
-3.537548704872699819e-05
-3.738644368521526072e-05
-6.582728835666962913e-05
-2.409967167048360985e-05
5.560734185129461990e-06
1.408325482444721148e-04
5.186102813834707060e-06
-1.288655992747521132e-05
-4.714648287151011649e-05
-3.948465410136424214e-05
-3.309593351198728244e-05
-1.896575483109950679e-05
-1.383492887316794578e-05
1.448473787879891788e-04
2.879155231052607923e-05
-1.614372246061298235e-05
-3.374525173454383741e-05
-2.765604537824927170e-05
-4.709078473660020960e-05
-3.516819791534097565e-05
-2.090981706113344840e-05
-1.927562899170626154e-05
-1.965957913273684402e-06
-9.181361704633040960e-06
2.155039577364017922e-06
2.775385206908742992e-05
-1.939450497386350066e-06
2.336332452168130323e-05
-2.700413766655456558e-05
9.330300370223750233e-05
6.072779178466730074e-05
1.697065305244659764e-05
-2.502905171252779127e-05
-4.133955623079650106e-05
-9.937545694528361628e-05
2.174675401581085325e-05
4.357088628235615774e-06
-7.132917816056141100e-07
-6.693465156163908048e-07
-6.095074449453263055e-07
-5.791829750407254178e-07
-5.650868486975837651e-07
-5.570748070909958149e-07
-6.635982552389751087e-07
-1.905294776301818228e-05
-1.237699012820180900e-05
4.832182001521852249e-06
2.764748116790463793e-05
1.404079234722673778e-05
-1.532063362793417106e-05
-1.499096821170081654e-05
1.522108421420174076e-05
7.618624230458697700e-05
2.811934084021409930e-04
7.370610224118615472e-05
-7.565689944867597413e-06
-1.037671627486227901e-04
-1.724583307280118795e-04
-1.741704694884860596e-04
2.687589996207438909e-05
-8.388155221936891801e-06
-3.661276695354928162e-05
-1.615293247162296448e-05
-4.306480205377898941e-06
-3.596948888713380677e-05
2.555222327968288492e-05
-3.366303288783049951e-05
1.095406333477685158e-04
8.721289581076527990e-07
5.616369456775817084e-05
3.415672126612771830e-05
7.916008055882104553e-06
-2.031331899895580094e-05
-2.450821215088450279e-05
-2.909426174021361236e-05
-2.519275995782172776e-05
-2.121032925621011103e-06
1.651370877160075138e-04
9.771695261125506690e-05
-5.912391076672025684e-05
-2.786051500846167925e-05
-1.225940493045693373e-04
-9.486578999829992521e-05
4.371125767640974587e-05
2.427488131061559607e-05
1.817872232080853422e-05
5.324026593368078915e-05
1.695393825139808553e-05
-6.283532957817637593e-06
-6.308488504486650379e-05
-1.063914719919587600e-04
6.311208217814009459e-05
4.748152917931741228e-05
1.056442397502562624e-04
2.817882572681115923e-05
-2.231993820112491739e-05
-3.775942338844920045e-05
-5.564428891729266227e-05
-3.954036376331619235e-05
-2.604058038620189535e-05
5.102782809676734097e-07
5.073452013005004371e-06
5.355478434394511657e-06
7.297631139041554803e-07
-4.083953971081840525e-06
-3.997984565835975256e-06
1.048268236708821055e-06
-4.635301542062344368e-06
-1.388940524032374013e-06
8.015369951697288005e-06
-1.629856949870187077e-06
3.887632424577471213e-06
9.148976440437558660e-06
-5.727023581100880208e-06
-5.658961745933877523e-06
-6.647196015774992916e-06
1.663307070767296702e-06
7.959444683205900331e-07
1.348274412148894422e-06
-2.924764113948542312e-06
2.436437831572179853e-06
-7.393508114827550365e-06
-2.304835372830506413e-06
6.379143818797637339e-06
-3.690712822904798954e-05
-2.162399307856489354e-05
7.256460458689680047e-05
-4.711900017316144991e-06
-2.316044024832797507e-05
-6.506731426912842669e-05
-8.848721333890552344e-05
1.673933845943941748e-04
-2.045592238108189016e-05
5.411768246981152287e-04
4.217366898390618795e-04
-5.766658898024677596e-05
-1.786588819453665872e-04
-2.801119202710370976e-04
-3.831127421037773691e-04
-4.290745885566747290e-05
9.938455584631092354e-05
2.213844312964397855e-04
6.278964930179459334e-05
-3.794224703313491172e-05
-8.134717069882742031e-05
-8.833139443611815844e-05
-1.068105685942412727e-04
-6.912725568222371543e-05
3.255556133612521382e-04
2.382308232751736748e-04
4.598848850241584005e-05
-7.777455640324467670e-05
-2.241524925285767386e-04
-3.155252376024379269e-04
-3.185374351450917020e-04
3.262147965405096215e-04
2.693939976329923170e-04
3.917940880416771895e-04
2.096740747410539478e-04
-1.023487928462310271e-04
-1.574074332044383376e-04
-2.507076810121949568e-04
-2.275852526935171632e-04
-1.328130006593422000e-04
-3.217430391846991315e-05
4.784944646832628732e-05
9.507348054479757395e-05
-2.187771676168746878e-05
-8.071029469707090948e-05
-2.357672010061721910e-04
-1.908708740921888141e-04
4.184774634624657775e-04
6.703527969037581058e-05
4.775559968489963649e-04
2.872910957617437065e-04
-4.900386946932276390e-05
-1.930658839356222574e-04
-2.810881784211841615e-04
-3.299049043544326535e-04
2.118046387944575094e-05
-3.771525720205901527e-05
-2.428582576322724541e-05
1.276034431686190586e-05
3.760641396382546366e-05
2.235531643303641212e-05
-7.537573802761768675e-05
-6.925963466059849825e-05
1.339143809397784794e-04
-7.375022963026718387e-05
5.874955954016569584e-04
2.329910201932314110e-04
1.597584254296171777e-05
-2.315082089529169333e-04
-2.486240459686222702e-04
-2.347725098670198148e-04
-4.780746371902337672e-05
1.776973360787222143e-04
5.825570421476453315e-04
3.619901885510460552e-04
-4.702062184314040311e-05
-3.777007856064557218e-04
-3.878582014998117758e-04
-5.576090082356281426e-04
2.479440504076239806e-04
1.284760142590502507e-05
6.118858715988195133e-05
2.737476001378804378e-04
-2.653283392184375918e-05
-1.215870975974292295e-04
-1.069087217488861479e-04
-1.294174645897405371e-04
3.666232913423213920e-05
1.500196178016860483e-05
1.248350475576206325e-05
2.399140598024898581e-05
6.242040226860444584e-06
2.402122907938739539e-06
-2.204340073298081783e-05
-1.173910832361680239e-05
-2.633852659438121313e-05
-1.591264848850105010e-05
-2.703891079066008597e-05
9.459612184053031389e-05
-1.541636531438938493e-05
4.643816065778406816e-06
-2.797100991045572331e-05
-5.670017339907542855e-05
4.379916999677297080e-05
2.954591303149467808e-06
2.273895764465192863e-06
2.769457637903480110e-05
-6.709743188983653292e-06
-6.412556030100086447e-06
-6.270618424342606686e-06
-6.194111255050172702e-06
-7.336034548172923583e-06
3.730526686945570126e-06
3.618546106405362780e-06
-1.319547118067848671e-06
-1.221317750715162488e-06
-1.170122679737501663e-06
-1.144409643709183778e-06
-1.130217250944382757e-06
-1.363458350176855667e-06
-5.769014829829532037e-06
4.602554800093745509e-05
5.624411521254197958e-05
-1.842569584381420565e-06
-2.354828710333883672e-05
-3.702609766906176330e-05
-4.125665033063520874e-05
7.172956303767205351e-06
2.926364723017049087e-05
9.814628407269858346e-05
-2.965702555247689260e-06
2.004787826237708305e-06
-3.063003636897479730e-05
-2.953892789301191147e-05
-2.397885206503406867e-05
-4.230120024683847984e-05
2.922266825579706849e-05
8.706272077135102485e-05
6.634171230791941561e-05
-2.780772438615908201e-05
-3.492369139103118912e-05
-3.857421423837204493e-05
-5.288927262438564657e-05
-2.843219869511958019e-05
4.644646343667687403e-05
1.329245597508563735e-04
7.630026791388789067e-05
-2.529163262892733973e-06
-2.212900211979707915e-05
-5.961338251552484300e-05
-9.829025793099472783e-05
-7.310948527221175844e-05
-3.545726208501677269e-06
-1.521944037032880637e-05
-9.086271940222402903e-06
-1.277305162390431027e-05
-1.215873331312968263e-05
-6.876597369576545290e-06
-6.747275035202345941e-06
6.640709586086568936e-05
-4.143335843040640956e-06
-5.924381507918659240e-06
1.012897810285660728e-05
3.166375881443577036e-05
-2.550095614539536187e-06
-1.217382646845277225e-05
-6.973035355517864524e-06
-1.002806212782292735e-05
-1.572325318839768906e-06
2.490671714197742145e-04
8.741527333587182909e-05
-4.324286845719882153e-06
-1.279359454874078766e-04
-1.327373229232800891e-04
-1.600907079268635539e-04
9.017814374646499723e-05
-1.297454341492647635e-06
8.519849816780327001e-06
-1.354354060594079169e-06
-1.210071193054215266e-06
-1.143520360969587280e-06
-1.113921310606620273e-06
-1.099351761651577384e-06
-1.301176788411604865e-06
-5.123561987066155625e-06
7.603190194354027189e-05
-1.533033968795244881e-06
6.432015152980914455e-06
7.791950055111870907e-06
-2.659287843068882060e-05
-2.628089928636111934e-05
-3.072549347872163253e-05
3.290675560328543885e-05
5.373611286373871537e-05
3.136514425918566742e-05
-1.536676614233672798e-05
-2.879429262406198766e-05
-1.807611377616789424e-05
-2.771087297915836341e-05
-2.805996720448487882e-05
2.742814916217693529e-06
6.527061081755451222e-05
3.004389864904643276e-05
2.105551900131983375e-05
-2.109894641378228091e-05
-3.479057911917722513e-05
-2.911355403621204024e-05
-3.410976381496691793e-05
-3.091245601084429063e-05
1.437633165245380919e-04
9.020875765386152545e-05
3.494409193956288073e-06
-3.742422904398017924e-05
-5.555348059241519695e-05
-5.458389393131224962e-05
-5.899242379380398478e-05
9.521740780725200417e-05
1.629162821643248473e-05
-6.210127679974039801e-06
-1.784531165987630482e-05
-1.127169098552350853e-05
-1.554966362853677002e-05
-2.518604534135281291e-05
-3.544619672842106892e-05
1.636040618217939416e-04
8.702264191978090462e-04
1.708755295926863479e-04
-8.825745409489159073e-05
-2.695726659975211702e-04
-3.188332410247089548e-04
-3.484150570430265834e-04
-1.796275924521407519e-04
5.332118060696131989e-04
6.766051561907649023e-04
1.938995523383435005e-04
-2.639695970406382482e-04
-4.042978923179732227e-04
-4.259454988760111955e-04
-4.712964974951590097e-04
1.617929711310600745e-04
-1.421834499377032558e-05
-1.593486757288022584e-05
2.421576006409994043e-07
1.667873373343011099e-06
-2.643579438201225526e-06
-2.332685598063470487e-06
-7.177104960550914952e-06
4.039655158948212869e-05
3.962179080252367386e-04
3.717872100960742149e-04
1.908941713731481405e-04
-2.526264054618645397e-04
-4.851010775725508027e-04
-5.182161898527765662e-04
-5.770742265919445464e-04
8.741186099846777946e-04
0.000000000000000000e+00
0.000000000000000000e+00
0.000000000000000000e+00
0.000000000000000000e+00
0.000000000000000000e+00
0.000000000000000000e+00
0.000000000000000000e+00
0.000000000000000000e+00
2.810953853225107199e-05
3.665665059875530991e-04
1.537840773677256329e-04
-1.027406092957478570e-04
-1.565929031356144653e-04
-2.517885579409994681e-04
-2.666951447087071011e-04
2.293570931935393314e-04
-3.184762821544610958e-06
-3.488048867258064491e-06
-3.312779574133645373e-06
-3.056053612504007181e-06
-2.930468948488515404e-06
-2.870016805514129435e-06
2.161653848971803726e-06
1.668047678047117208e-05
2.049808214489463526e-05
1.240246692790587454e-04
5.779738788375911784e-05
6.165462583867794142e-07
-5.724836507904455208e-06
-6.667735069019071212e-05
-1.145788930582489472e-04
-1.595560530975530421e-05
3.375518580934579237e-05
8.059726981707642276e-07
3.354709349975904447e-05
-2.994124557186360851e-05
-6.903739780622315315e-05
-7.129523594168891683e-05
-8.478122575016267719e-05
1.869468530626625916e-04
1.386834255381585979e-04
8.839207977679635134e-04
3.613378984799422338e-04
-6.409387821498478135e-05
-4.582439177037619916e-04
-4.928365136919366125e-04
-6.071147614346846877e-04
2.383469492593039856e-04
9.111980407942966137e-07
8.219038622857535096e-05
4.321384269244270325e-05
-2.844930646994775210e-05
-1.244951737746279269e-04
-1.781547136941449090e-04
-1.048837884831786156e-04
3.096675554600870667e-04
-2.589805819605586419e-06
9.429133580251076649e-05
1.418070394510093600e-04
-1.307001384520810874e-05
-7.519833377775084779e-05
-8.923847703029771114e-05
-1.460126063959459053e-04
9.001086161528782531e-05
-1.861016250919184320e-05
3.531189610441148700e-04
3.075498853660338025e-04
-8.402000638530961088e-05
-2.329019215860617077e-04
-2.510589288556949630e-04
-2.698197970012012280e-04
1.957419699273111376e-04
2.032312466099493460e-04
3.001497705278877940e-04
4.445201786886167794e-05
-8.584087032823973910e-05
-1.683893370705880381e-04
-2.581459776653224946e-04
-3.379043293917480717e-04
3.024474794492000812e-04
3.020380520643386977e-05
8.637632482174936819e-04
5.480692117045944884e-04
-5.992568653864108837e-05
-4.382922543483861681e-04
-5.706404959123172584e-04
-7.909451682600409208e-04
4.177673399308637174e-04
1.059148814599918360e-05
-4.498270607428624489e-06
1.264800984677293811e-04
-3.444578765195081648e-05
-2.491717560753064516e-05
-4.783835032146098644e-05
-1.673112487762172486e-05
-8.640877547735753686e-06
-4.458955392347406803e-05
2.636512156317564898e-05
4.454758915978440030e-05
1.221970994919950216e-05
-3.613299511775591705e-05
-3.303164723757055543e-05
-5.630180621964198578e-05
8.692358182628306972e-05
3.939260130363222344e-05
7.460453633565720748e-05
5.446357644890354772e-05
-8.242779710422158226e-06
-6.664953901612123872e-05
-5.626235307043292070e-05
-1.182518023805382765e-04
8.094576008932160703e-05
6.956669075625132907e-05
1.797652354329522923e-05
4.751374931295080273e-05
-2.945363225021451473e-05
-1.447875752375963341e-04
-1.806446288238308835e-04
-1.506348547667033487e-04
3.704637274658476183e-04
-1.328257348968239300e-05
-1.714373484546521755e-05
3.149360028694867339e-05
-1.680774412086470204e-05
-3.611153716905674043e-05
6.531773814565551155e-06
-5.207638455631030574e-05
9.739660007986527483e-05
-2.652437112354500394e-05
1.916645901669454511e-04
4.765167412032120502e-05
-8.690235194771398633e-06
-4.226248391177096135e-05
-8.932532506134646807e-05
-7.786507403002728052e-05
5.351225034194630886e-06
5.699458607328846169e-05
1.260220634280351467e-05
2.527598003351439867e-05
-8.207476872051339242e-07
-2.884480391861453635e-05
-2.790955233572552351e-05
-2.241407288614906038e-05
-1.488359562191215305e-05
-1.096348195614965597e-07
1.040109579956190736e-04
4.401051574334459069e-05
-2.255013879691238155e-05
-6.093906489361766775e-05
-6.286541900367519618e-05
-8.624691759151028908e-05
8.468970136631325484e-05
9.570437772070668911e-06
1.156132008051691566e-04
2.929292178910293027e-05
-4.296007130363092807e-06
-5.875131900398001779e-05
-7.115473682710787623e-05
-8.479023484565497348e-05
6.451573744076313257e-05
1.354878698254819043e-04
3.931551738803300283e-05
-1.065573771045231485e-05
-5.861754452981418162e-05
-7.037909966874879763e-05
-5.919546497061950035e-05
-1.109025969839392688e-04
1.349470566500594881e-04
-5.366521261216867004e-05
5.693155637978994594e-04
1.826291078910519572e-04
-1.258356539924271658e-04
-1.763290577594374224e-04
-2.423368143554724386e-04
-2.527481526129103867e-04
9.897021964346488392e-05
-7.243210831394247806e-05
3.984048957061403777e-04
9.200386474583054509e-05
-6.980590286670837138e-05
-9.403452473871427365e-05
-1.391023633238362375e-04
-1.716054203589821277e-04
5.657155915021244350e-05
-1.705239957092312734e-04
5.084540253963922181e-04
3.140008138660276742e-04
-2.881633697523877235e-05
-2.016492414877503491e-04
-3.016822367877426822e-04
-3.289585425905267794e-04
2.091755142880704656e-04
1.802082265592568218e-04
1.319692362840619877e-04
4.594299432450966623e-05
-1.011189914289068972e-04
-1.877402701064196408e-04
-2.743882259980432803e-04
-2.974439443884932879e-04
5.025709747540345763e-04
-1.805162360995062474e-06
6.733737778956595680e-04
3.905834354203080558e-04
-8.051905949178551393e-05
-2.831847922244559767e-04
-3.008089848288399626e-04
-4.044632237054791423e-04
6.824009295588113353e-06
1.551208417286979851e-05
4.962587937401695024e-05
3.628256920444639674e-05
1.074182264839422883e-05
-2.458850460952694621e-05
-5.237126975222154728e-05
-4.120363288409455594e-05
6.001051846115663241e-06
2.626614399074818387e-05
-5.742931144900578984e-06
8.859070370361076067e-06
-2.018939736893021324e-05
-2.255707997904698904e-06
-2.588143220172201120e-05
-4.016674048480319584e-05
5.911099483715146830e-05
3.518880901923309150e-05
2.168317248687319444e-04
8.358061537373829045e-05
-4.637846260200412289e-05
-7.923703196772592509e-05
-9.093409162456280251e-05
-9.921668697821240106e-05
-1.983487608919804097e-05
7.355335858793391498e-05
1.566266205505933203e-04
1.582655579243116394e-04
-9.876204320977965425e-05
-1.025098000813712355e-04
-1.272658108823608732e-04
-1.445236662148983238e-04
8.461578332557103581e-05
-1.486707057842040275e-04
3.795833237648718063e-04
3.222223355162719301e-04
-8.848882277370436215e-05
-2.073702788220435395e-04
-2.029343703595499050e-04
-3.353260416836051296e-04
2.809845601419635390e-04
-3.044283559931734365e-05
4.637794123822750896e-05
1.413328443401492922e-04
-1.908094769081008084e-06
-2.867556261325932777e-05
-4.717374460440901181e-05
-5.139226030553388101e-05
-2.811828768677622376e-05
3.482122633472604492e-07
7.024298215236778541e-06
2.561082058062411440e-05
2.191048160115727472e-05
-1.750509870318929108e-05
-2.989009633961381754e-05
-4.854299178542983474e-05
4.104437416786754935e-05
1.076491474990218758e-05
3.737821976854553875e-06
4.978622625723002212e-06
1.720933866555656512e-06
-2.416067046309235781e-06
-2.009055045252028556e-06
-1.178836815648678197e-05
-4.988802970987347308e-06
-3.694995683444363539e-05
1.605046423712704680e-04
2.821089760469811837e-05
8.443058698580677927e-06
-4.150213628084230711e-05
-4.414723165035505588e-05
-6.292281812976433886e-05
-1.163645577914372210e-05
-3.320590026912791131e-06
5.568311581395789283e-05
3.445211340842369219e-05
-2.048072737182173687e-05
-2.999583488861181650e-06
-2.183597513432032714e-05
-3.121403356644478596e-05
-1.028431963402078599e-05
1.014499882608216308e-04
2.319729780475964106e-04
4.554863847368196286e-05
-8.014532037810407738e-05
-8.343241594386651815e-05
-1.279487122155056086e-04
-1.551786783552748766e-04
6.773352211065115100e-05
4.483196095731661424e-05
7.230584846475040964e-05
2.361317166682545463e-04
-9.707189828173002187e-06
-8.537606658397142679e-05
-1.110087879042006014e-04
-1.237506426685774799e-04
-2.342683910539919369e-05
2.626462009745751428e-06
6.104061218519829816e-05
5.272142836974648469e-06
-9.091211038075474769e-06
-3.613215876912824850e-05
-2.473084259153673646e-05
-3.400578362588420410e-05
3.502077899270585818e-05
-7.391134912104581150e-05
5.793637927323423372e-05
1.090937966850332727e-04
4.952732372217536843e-06
-3.177855789634451866e-05
-7.786662626200087898e-05
-9.581416751359572855e-05
1.073877924625017818e-04
-4.527896004906370101e-05
-4.439716872257399330e-05
-4.688209991462346615e-05
-3.844929371486063071e-05
-3.678559397748755076e-05
-1.100801997184608006e-05
-1.061642973038684563e-05
2.334175660808422541e-04
-1.423236202666749897e-04
4.350263958902060666e-04
2.618906581703186217e-04
-5.932902493090447558e-05
-1.483949110562019316e-04
-2.260648007242077465e-04
-1.824286732647157564e-04
6.162397618217971675e-05
-2.526233220798438780e-05
6.077368563872590640e-04
1.888141207990948873e-04
-3.123995794366756309e-05
-1.750921205364903044e-04
-2.304023217152837745e-04
-2.355368364006033206e-04
-9.901740838232499058e-05
-1.364005768287320254e-05
4.640138758636286445e-05
3.779396746412216998e-05
1.076320078684621961e-06
1.523409478879204390e-07
-3.297116982449384325e-05
-5.697709866664975428e-05
1.816431009695925388e-05
9.840150826533221174e-06
5.396583992701545386e-05
2.764833673803725178e-05
-7.382692787109814268e-06
-1.489932566513180176e-05
-2.374854469922627233e-05
-2.312526249521898799e-05
-2.229850184489909451e-05
1.622759421166513573e-06
-9.445015135615561443e-06
6.177883980367141011e-06
7.132625957413625818e-06
1.764628248783368247e-05
-2.102942402819034367e-06
-6.961261650114657095e-06
-1.407033265823169769e-05
-3.049690475249197162e-06
1.630215075107629985e-04
1.516242001143714953e-04
4.290619919344815925e-05
-1.114312167290704787e-04
-8.383592495060693706e-05
-1.325176715618968230e-04
-2.671740310175940180e-05
-1.913717187300208990e-06
-2.099676157171290604e-06
3.012347714094854155e-06
3.169399954882394174e-06
-1.751727548704911065e-06
-1.714199300671613310e-06
-1.693585837714053804e-06
2.991158362584831138e-06
-3.326135975286577042e-06
2.771208760605219806e-04
1.009338189675417223e-04
5.874338818896236263e-07
-8.245367250909540026e-05
-1.318952040280869703e-04
-1.740011632110744465e-04
1.303404681358987411e-05
5.065863112366762473e-05
2.164624286755270979e-04
1.061781397344849952e-04
-7.987684532574105200e-05
-1.229668149223722467e-04
-2.200631819367834254e-04
-2.059706411130325979e-04
2.555782837642495229e-04
-4.456619431750963339e-05
-5.921061454676982024e-05
-5.653993609747502930e-05
-3.769881972766474541e-05
-3.073673652224604964e-05
-1.979883112911990918e-05
-1.931348427764326166e-05
2.678646166184283370e-04
-2.464492947198393719e-05
3.494492407224992201e-04
1.281634891206975162e-04
2.785354364886485298e-06
-1.011659947782091591e-04
-1.185900859740691196e-04
-1.124364294553087770e-04
-1.235606445285124190e-04
-8.934578567425505142e-06
2.028558047519193070e-05
1.574293826668813907e-05
-8.562829860807723731e-06
6.806238045401128540e-06
-8.015497615417415387e-06
-7.917214949983812780e-06
-9.404635793646703995e-06
-5.213129523182335441e-06
1.391219207663259388e-05
1.441942720354623721e-05
5.201764867450229815e-06
-4.395663334790867343e-06
-9.203637618996296399e-06
-4.095896968676025514e-06
-1.062505670198354129e-05
4.609148674661335510e-05
1.464895776883633725e-04
1.155728277311575386e-04
-6.725026218957858243e-05
-8.134712736704031435e-05
-3.861508913098030170e-05
-8.217937018558245138e-05
-3.876204329295279938e-05
3.485192725507499870e-08
4.278016908743752656e-05
9.208966776954472319e-06
-1.382816105661574402e-05
-2.847659250583418139e-06
-1.738569760903566977e-05
-7.134380605036793088e-06
-1.082808927037539057e-05
4.195187849577128810e-06
-1.448460420705052626e-06
3.972676224728657799e-06
9.532236596241972071e-06
-5.183640105346918349e-06
-5.050594315394336400e-06
-4.978449930849707155e-06
-1.038955898251744998e-06
-1.367181339557545778e-05
2.469607608219863179e-05
1.887604637757397513e-05
-4.771429945662412057e-05
-8.767393370896794350e-05
-1.206762038439150223e-04
-1.168565164448668052e-04
3.430206443901771558e-04
9.644527129323583053e-05
1.409642895414832246e-04
1.207877729588147190e-04
-3.653407619334848470e-05
-8.043676483826872809e-05
-8.270693188143968038e-05
-9.129039880090442452e-05
-6.722916207957273422e-05
-1.390217249380241943e-05
3.333660725601575008e-05
-1.595560221587163910e-06
4.905903109174348244e-06
-2.188347967727788236e-05
-2.542571833826018710e-05
-4.468492235410151701e-05
6.924934271983918942e-05
-1.418198814200159146e-06
7.184628130775989896e-05
5.627670806933440838e-05
-1.035228693381932386e-05
-1.004584373648134124e-04
-1.286141507591348975e-04
-1.199035947207216919e-04
2.326236792155951972e-04
-4.705680503808565079e-05
1.406788776474661060e-04
1.244111025476275605e-04
1.243242223287425584e-04
-1.112580896313877723e-04
-2.097812959659284987e-04
-1.715882670294677085e-04
1.502702551410335001e-04
-8.331631566792090679e-05
2.631063382125695886e-04
2.749258857715580176e-04
1.132596427778164816e-04
-1.281289531854439630e-04
-2.174564828622918306e-04
-2.219411933724247028e-04
-4.489216738631320853e-07
3.145394912346181600e-04
4.355557632405691209e-04
2.942574547836653421e-04
-1.732669846360500939e-04
-2.505421945619448710e-04
-3.181062649343342026e-04
-3.418519948867262829e-04
3.941472976020315251e-05
1.369047218945359658e-05
3.721450887667197729e-04
2.895577576354284267e-04
3.639195600462240060e-05
-2.154800759689577585e-04
-3.231854173053479683e-04
-3.643227856897292998e-04
1.912030043678111585e-04
1.297217310202395811e-04
7.323818993870355161e-05
1.763828673155187678e-04
5.067008950750419950e-05
-1.145279329614044172e-04
-9.511206179244954134e-05
-1.227722319441818747e-04
-9.760065108392989414e-05
1.371168376481730158e-05
1.023817349432865889e-04
1.050081922792523023e-04
1.094176851577935441e-05
-7.857572680713711098e-05
-1.714993254443831724e-04
-1.278206885987808123e-04
1.458523613471652961e-04
-2.243051984203078413e-05
1.685456734664786361e-04
5.240022344725298270e-05
-4.121526360930450109e-05
-1.577347363799082338e-05
-7.324141752490444680e-05
-8.695246609963927574e-05
1.866724380013797175e-05
-3.171853924864137644e-05
1.640416935035244066e-04
1.761896787472773938e-04
-1.331141131657286459e-05
-3.574958802190562174e-05
-1.022634199551706073e-04
-9.052049455522119157e-05
-6.666791915328975249e-05
-3.560601479196956736e-05
4.906468432121721554e-05
5.586259828970588538e-05
-4.583333659164160953e-05
-4.698274879164353627e-05
-3.522906250267806606e-05
-4.940958875148870406e-05
1.081334688184983891e-04
1.071255506157454507e-04
6.923854392197963082e-05
4.341765284783891409e-05
2.294925797668313021e-05
-5.228391759585067572e-05
-8.265497636295296901e-05
-1.002051757047685857e-04
-7.586935698674908917e-06
-7.708874800863282285e-07
-1.340238839019483306e-06
4.006776786132036109e-06
9.509948351651060811e-06
-2.291042429941466774e-07
-5.103549596616217581e-06
-3.563204883943504827e-08
-6.037312930227483286e-06
8.779876471735537286e-05
2.604406160131620502e-04
1.519381715627943880e-04
-6.252282895184208726e-05
-6.523108381175329970e-05
-1.770405911198898250e-04
-2.077737467240663605e-04
1.239069831423987320e-05
8.975204951316120741e-05
2.193727373827345569e-04
6.235709724365228477e-05
-2.592485868630847756e-05
-5.296367790782133690e-05
-9.427224032260181992e-05
-1.173495106534069339e-04
-8.097159656940931816e-05
-1.741075645970040556e-05
1.272005299357200096e-04
1.975698341201752523e-04
-5.936718407932264595e-06
-1.523389596756886080e-05
-1.001783420300783340e-04
-1.375412112144641077e-04
-4.846943997615120112e-05
1.634940704362387409e-04
3.954786506295418849e-04
1.269517900844460939e-04
6.256874213646908755e-05
-1.839995910968282339e-04
-2.555983104730263585e-04
-2.414523922350998329e-04
-6.744295948174163944e-05
-5.533520427212297084e-05
-5.036775935109339851e-05
-5.243628018395912711e-05
-4.324978594356170230e-05
-5.117050255654089012e-05
-5.018003721138881377e-05
-2.468047360860376534e-05
3.274200431272707222e-04
-1.124458547583794850e-04
-1.173962905930513298e-04
-1.074619606640550123e-04
-8.535009970673597846e-05
-8.937700488822355560e-05
-7.169171005228807303e-05
1.457812198923709835e-05
5.691447986734967475e-04
-1.816826253570892117e-05
-4.944380333100243131e-06
2.935237644427605318e-05
2.036027292716334380e-05
-2.643680800938300672e-05
5.068531583708209067e-06
-4.915603397626336666e-05
4.392430389930792147e-05
3.584955232026432810e-05
1.911925264333364253e-04
1.982143078141524459e-04
-5.572841562907466742e-05
-9.774810139498512718e-05
-1.240894940267995010e-04
-1.122636349260159981e-04
-3.542674059087816315e-05
-8.020607676335211826e-06
2.156290746532821506e-04
1.116217308756663516e-04
2.818214907357655452e-05
-7.075034715453431156e-05
-1.156059602454776846e-04
-1.530192532176299761e-04
-8.036786308547960606e-06
-2.623760287488001238e-05
-1.037309158321245991e-05
1.537319227379598213e-05
2.346284752669229346e-05
-2.729248304784324334e-05
-6.031629998942541419e-05
-3.929442353731254199e-05
1.246778612321852980e-04
-5.833290643143361763e-05
-9.812499896724075391e-05
-2.978434224128022882e-05
3.806890908057714040e-04
6.866790411897011890e-05
-1.426357775947302564e-04
-1.610746377099855496e-04
4.059566801992931721e-05
5.197184980552732662e-05
3.122931003318965451e-04
1.890856333267335824e-04
-3.793999161952714281e-05
-1.546162977549526637e-04
-1.935303561811777039e-04
-1.455134003721523161e-04
-2.175053753634753948e-05
6.175275743260016008e-06
2.088829338421145816e-04
1.285757075094226250e-04
2.514201239118590738e-05
-9.630092183422047172e-05
-1.250483935054561924e-04
-1.968986506706771800e-04
4.947203652437047943e-05
1.511369979009270533e-05
3.320123518657094533e-05
-6.093625457630801426e-07
6.061116552034401595e-06
-1.306678437338695085e-05
-2.658245476118484263e-06
-1.745273657483625160e-05
-2.058892255859326380e-05
-5.489867818414872683e-05
2.768091588148882546e-04
1.613374670484737114e-05
-4.984599521205917894e-06
-1.104544604077239864e-04
-1.360747681970804089e-04
-1.339247321123628943e-04
1.473943329027857876e-04
-6.435120695866437942e-05
-7.867216597317938176e-05
-8.229847621598398175e-05
-2.475129306356940140e-05
-4.605387705907711934e-05
-4.940195178253494412e-05
-3.364833473623025066e-05
3.791773057892397058e-04
-1.526669433959610260e-05
-1.647669811224220830e-05
-1.070600131243057413e-05
-1.472764901074748619e-05
-4.252746915919923514e-06
-9.028034929718287932e-06
-8.929409846623649966e-06
7.938723446727830632e-05
-3.923712622383001002e-05
4.910124477368113115e-05
8.186433292977883937e-05
-1.869365306967193312e-04
-1.894197342795616841e-04
-2.816020036474384085e-04
-2.803061571432492825e-04
8.465359742873378038e-04
6.468065223918991477e-06
9.608472219744083412e-06
2.914354720468624181e-05
4.705386942857303375e-06
-3.267593002835364057e-05
-1.148621627180161978e-05
-1.087776268098976689e-05
5.114437389938413933e-06
1.144886419508095900e-05
4.635173810681965467e-06
7.469920954504994726e-07
-1.268149654471338619e-05
8.104961328116810730e-06
3.478584720289185605e-06
-1.131714746933143781e-05
-4.415932135574581133e-06
-8.467487854281217159e-05
-4.894579606016926721e-05
-4.398974930087850074e-05
6.279095626362728394e-05
-5.654766066496079403e-05
-6.898434044752266021e-05
-8.780215564155781241e-05
3.281536243942737800e-04
2.893379806300650772e-04
2.187555243370696144e-04
-2.040772353765115871e-05
-1.296544822607585516e-04
-2.253234429905183564e-04
-2.541460055897519846e-04
-2.836904115186895297e-04
4.051285609302348657e-04
-1.307505780908500175e-04
5.502374719048895926e-04
2.255511749272446416e-04
-8.554421859146395994e-05
-1.701129431213808376e-04
-2.207123502833277854e-04
-2.262145040388784784e-04
5.754594729376632281e-05
8.950272472593909755e-04
4.248440149926274874e-04
-3.523766133082743672e-05
-2.653403801093359108e-04
-2.911867752553697476e-04
-5.455173279436604291e-04
-6.176907358662281442e-04
4.351016182534041135e-04
7.827582728490058020e-04
3.658091473305716051e-04
2.318245845692290096e-04
-2.316966791571218025e-04
-3.098721492082705665e-04
-3.675522478412848152e-04
-4.265526447807333811e-04
-4.471828376139666463e-05
-4.359327561583842118e-05
-4.429048183605260191e-05
-5.096153009213719328e-05
-3.602406745804696700e-05
-5.357965199889683786e-05
-4.739726198686732039e-05
-4.676487513493792034e-05
3.226111441227773975e-04
-9.564953052819794336e-06
2.167572285488694305e-04
1.845050485821307868e-04
6.098765331984406313e-07
-1.544139878509755810e-04
-1.702306572818572253e-04
-1.906430471735156337e-04
1.229804916949697789e-04
1.543041681931521601e-04
7.310783894758947007e-04
3.988975530670831244e-04
-6.083186175835405537e-05
-2.795821639237878000e-04
-4.401268565303623637e-04
-3.982819827968988257e-04
-1.054572457267261747e-04
3.577721574875091610e-05
1.859479359400540018e-04
1.177892488240333651e-04
-7.234680489508613012e-05
-8.812825968073773584e-05
-1.239428608414284549e-04
-1.169589229528989632e-04
6.186244785731274346e-05
-2.612369222438221263e-05
8.817588796034644841e-05
5.175096998502464482e-05
1.342540196350668394e-05
-1.366353149707446311e-04
-1.725333952468870006e-04
-1.929464898020204406e-04
3.748866323351568940e-04
-5.546066125061100359e-05
3.357062336673739844e-04
2.835054475143825698e-04
-7.141647007310924426e-05
-1.696647121486982821e-04
-1.570852711497143397e-04
-2.033984049280862126e-04
3.781383836846269070e-05
-2.288795073941905621e-05
-4.271913422943386489e-05
1.045266922054291877e-04
-8.084509784434042737e-06
-2.918789061745349789e-05
-5.996954338881372351e-05
-7.774552704392866359e-05
1.360678635980537966e-04
-1.003564269067259388e-04
7.237866301415698091e-05
4.316891332316476177e-05
-5.305084500180035848e-05
-4.938067278797300897e-05
-1.108149251037877366e-04
-1.614524895964388287e-04
3.595077830594036817e-04
1.717179673669218330e-04
2.733276025357658226e-04
-4.044437936339858577e-06
-1.857597097790170766e-04
-2.560095456018044260e-04
-2.575316393287293594e-04
-3.058605816460930270e-04
5.641603443892954754e-04
1.591991492674462070e-05
6.642736020158877168e-04
3.728863234237736099e-04
-1.331314837052953643e-04
-3.288378767913425560e-04
-3.107177054655343106e-04
-3.892389914575620754e-04
1.088462170533282538e-04
-2.848031588788134567e-04
1.871140872171921142e-03
6.987934567756485171e-04
-2.714459433780327968e-04
-5.673050282659216573e-04
-7.130677082397421981e-04
-7.564730986038875529e-04
2.316060841882799890e-05
1.369617396347132634e-04
8.088847428534724771e-04
4.840332453800513801e-04
-2.339422864346536420e-04
-3.931623551914565566e-04
-5.748836943851432348e-04
-5.284015459971120633e-04
3.005101541401287556e-04
-5.413324917831493599e-05
-4.281295304508843926e-06
-2.238686518917985363e-05
4.846601041566972354e-05
-1.111426433919305673e-04
-1.463789835224700228e-04
-9.410811174155414799e-05
3.839651379122887404e-04
-4.494847472143995750e-05
6.979226631601762450e-06
-2.856221503995618407e-05
-2.851351640106685920e-05
-9.324672503613145539e-05
-7.844714318954701436e-05
-8.095396462208695563e-05
3.476928123786262605e-04
3.693503473316154064e-04
2.829860226820582621e-04
1.000152183039595689e-04
-1.159390360289420257e-04
-1.742667688607080797e-04
-2.066604009747723505e-04
-1.979132226260452306e-04
-5.757215982716570678e-05
6.317161895482413005e-05
1.845563057162848879e-04
1.344123728235993988e-04
-5.920617526782878285e-05
-1.241033188022101633e-04
-1.871902092462483140e-04
-2.087910602311795550e-04
1.971504660527585273e-04
-1.128718954055460383e-04
-6.967094003975779541e-06
7.745270231419398681e-05
3.358777028277427375e-05
-2.550832928745196433e-05
-1.002954415559438145e-04
-7.253823461792819650e-05
2.071405222738772480e-04
-4.568481924435092490e-05
5.457523742284416807e-04
2.892628829443689683e-04
-2.232500362719050136e-05
-2.069412137727307552e-04
-1.651508832693563669e-04
-2.468356315566931636e-04
-1.480777057024889438e-04
3.883764603152233398e-04
2.842942596596370391e-04
-8.199227676682566818e-05
-1.851270068112388742e-04
-3.561354076573642366e-04
-3.885225649965999388e-04
-4.598360316672002544e-04
7.989425679243693929e-04
4.369635370570285255e-05
7.736290896598868984e-04
3.407886832534105185e-04
-1.531690647498650123e-04
-3.121505119224874986e-04
-4.006786341427503702e-04
-4.627490939517302226e-04
1.706331781478321566e-04
4.266548584134382031e-04
2.025136948780067829e-04
4.272013345248233879e-05
-5.057265487129852891e-05
-2.079599080787894016e-04
-2.149443059646569652e-04
-2.609782478230466781e-04
6.256642999386360536e-05
6.699223121505236509e-05
2.322511095052189349e-04
2.918778678678940804e-06
-5.087287266401496744e-05
-9.123407976849702518e-05
-1.368144353992609109e-04
-1.297267001939664309e-04
1.064859686267885405e-04
5.572095113884044409e-07
3.879006827277981201e-04
4.293836477940418022e-04
6.146777486201098015e-05
-1.617739700477038498e-04
-2.441041471827308800e-04
-2.254678306508026185e-04
-2.479633670140024386e-04
8.206583105872993032e-04
7.553702314594099064e-04
2.543315238014600527e-04
-1.400814607101140365e-04
-4.330137917369265041e-04
-5.041076028117546723e-04
-5.546819227085371916e-04
-1.984752878808368850e-04
-1.927156039823776213e-05
6.427751327636327405e-05
9.155173255969125735e-05
-1.596534463147750049e-05
-1.273947197086789588e-04
-1.938988002856343034e-04
-3.267860816416571644e-04
5.274872608296312087e-04
1.852966264843927604e-04
1.246043687707110587e-05
3.521876736223271532e-06
-8.023281612797420229e-05
-1.103168867784432711e-04
-8.857201062202804253e-05
-1.452486246225833408e-04
2.230913980533416943e-04
2.467852004856959866e-04
1.564330804786315124e-03
3.868186369895107619e-04
-4.896815672639568936e-04
-5.908840802324883670e-04
-8.741851076402686396e-04
-9.091089658371132465e-04
6.659250787123041897e-04
3.725125987563677565e-04
6.124265803559681516e-04
8.235060940445174257e-05
2.382948904070243291e-05
-4.493887199939550279e-04
-5.509107328674812693e-04
-6.041675226964301560e-04
5.133476980003767254e-04
1.983401511036273268e-05
-7.541544605698362195e-07
-3.546199931892103350e-07
-4.862894925309868126e-06
-4.634353201344924530e-06
4.678665454701322243e-07
-4.485633288021996951e-06
-5.210225787397032453e-06
-3.071009505621202925e-05
8.888532471628162509e-04
2.662613599357144300e-04
-2.277383160559438139e-05
-2.623005250539616590e-04
-4.419233178761757842e-04
-5.169186695459988302e-04
1.195118320394117492e-04
1.585997358545312703e-04
6.742495670141859581e-04
3.317644276088419614e-04
-2.408099922160122106e-04
-4.819630562586559031e-04
-6.999985984778596794e-04
-7.519444579752913123e-04
1.010102374450259563e-03
1.050208025123719794e-04
6.389018715251314554e-04
3.971172556589938661e-04
-1.594479588644022190e-04
-2.704238239919713304e-04
-3.473668206420364160e-04
-4.360772280085339209e-04
7.227590181044665307e-05
-3.599982773075417723e-07
3.697853187855982177e-05
-7.398570447448774820e-06
-4.343576700701011055e-05
-9.850220934433621814e-05
-1.364367764580557893e-04
-1.177652379163884758e-04
3.669200275719873539e-04
-1.440390074641225625e-05
3.172389184710760220e-06
-5.169301788697470566e-06
1.853913495576707552e-06
-1.217901283275048025e-05
-1.174808361759060938e-05
-6.537286228854530549e-06
4.501128253401786227e-05
-5.073225046010235959e-06
-5.445734585753680390e-06
-5.216337517355657245e-06
-4.894593955428235185e-06
-4.730457922435464192e-06
-4.654343438888576396e-06
3.882312990709684206e-07
2.962646116680088402e-05
1.553388822142343260e-05
2.853473351778652574e-04
1.764080220431839784e-04
-8.677334415875190277e-05
-2.952556287346956728e-04
-3.133076726328378565e-04
-2.825264419428103759e-04
5.005738420266229397e-04
-1.361966314498704413e-04
4.171344422759435647e-04
3.209985876540787922e-04
-9.595165871723565466e-05
-1.019054305296004492e-04
-2.059342202204920535e-04
-2.855699829559904773e-04
8.742489394316594665e-05
3.470256584412291035e-04
4.309555727316715062e-04
2.832317491961525982e-04
-2.254259010940211133e-04
-3.221945903132789296e-04
-3.819672362776435387e-04
-3.843752703595911110e-04
2.527500176754815661e-04
1.926179619046384768e-04
8.704239932135404353e-04
4.228050021564131789e-04
-2.729426760873050945e-04
-3.746461699820898363e-04
-5.402003915460491757e-04
-5.884287230397321428e-04
2.903710033805853509e-04
9.472942251745322868e-05
3.610698898272237268e-04
1.881770001221412406e-04
-1.024184365550102888e-04
-1.990104518083031255e-04
-1.806700700566218703e-04
-2.165807520286799057e-04
5.470339798179687228e-05
-8.616678755200170964e-05
-1.926302170469204456e-05
1.401920445331966583e-04
3.004379550302935193e-05
-5.002698243879772526e-05
-1.103534174316109706e-04
-9.298627744609415532e-05
1.885606465369705782e-04
-3.604664812776857147e-04
7.949711774445940684e-04
5.966640588933593784e-04
-1.467915458066691866e-04
-3.630251276996701213e-04
-4.102414018858243066e-04
-4.214709246493012059e-04
3.103602449811964379e-04
9.159330006249063094e-05
2.527451158084936746e-04
3.072668980060153554e-04
-2.700117114268683325e-06
-1.465076223109501791e-04
-2.567024357947969874e-04
-2.568004412060220288e-04
1.110530254903806146e-05
-2.653201175029017305e-05
1.328116973139280212e-04
2.901761245534292783e-05
2.650073176158547313e-05
-4.739360760423118215e-05
-4.712617492443511451e-05
-1.043727818015700523e-04
3.709453454966997108e-05
-9.613903519931118048e-05
2.312512541685651541e-04
1.096410871718302496e-04
-3.637380713913662678e-05
-1.104388183546835809e-04
-1.382699081981596625e-04
-1.897611196392338918e-04
2.300903471901293896e-04
1.208563161497811552e-04
4.216776299520854653e-06
7.025266923947508029e-05
8.206014152910105774e-05
-9.477633398349747621e-05
-1.536669365329583915e-04
-1.356282879925293432e-04
1.066856552911071019e-04
-9.111991818689375139e-05
4.018564417575859384e-04
4.370255899316702569e-04
-1.082913153614947820e-04
-2.353667586619560207e-04
-1.950440608174951488e-04
-2.599423822398126498e-04
5.088240357839612357e-05
3.525793077476111945e-04
5.710177252070418232e-04
7.219878671040039935e-05
-1.336555836589796745e-04
-3.084071767705749202e-04
-4.297840724571474905e-04
-3.954820376713222307e-04
2.715330508929710072e-04
2.206432931197367566e-04
6.472473041398239943e-04
2.907136476389142921e-04
-1.189804813577538301e-04
-2.987231906987412281e-04
-3.551151882940315483e-04
-4.458440873613155921e-04
6.005870281336743330e-05
4.743399011474378526e-05
5.125694987163516812e-04
5.609632772565082684e-04
-5.408626391660614947e-05
-2.827595089700572295e-04
-2.579906290156593171e-04
-3.529705509558772516e-04
-1.731598132294041598e-04
3.603145601438440481e-04
1.000188468361349432e-03
1.869951479856084894e-04
-2.537663987341951259e-04
-3.354578381036649702e-04
-3.952227823141305548e-04
-4.056003608816451437e-04
-1.574507964571662290e-04
-6.603725263037822386e-05
3.501428964558006064e-04
2.401399045768237912e-04
-3.362028825929133495e-05
-1.635893870778595740e-04
-2.067758541495138386e-04
-1.784921437463265939e-04
5.823212483074543882e-05
-1.696514643575144145e-05
-2.485010942134834958e-05
-1.787776315064265375e-05
-2.065110208779691824e-05
-1.461724822368894750e-05
-1.914480255023352296e-05
-1.393127172257206281e-05
1.280374435920339081e-04
4.920416801736769713e-05
1.949136641979989102e-04
4.107253801502526078e-05
-4.263668150765893692e-05
-5.999122035233135435e-05
-5.888324944748793936e-05
-5.840114819056916917e-05
-6.527807073234445472e-05
-1.365887940445514387e-05
-1.579249374688113954e-05
-9.368906031052033821e-06
-1.267064188729510234e-05
-1.685994908106933535e-05
-1.648337092114132352e-05
-1.131335276597230196e-05
9.614759383786643970e-05
2.004699900119982922e-04
5.381272197330836228e-04
9.403773909069236916e-05
-1.617583108317220339e-04
-3.084492850961877879e-04
-4.959746221614647543e-04
-4.845262435299472819e-04
6.180735127835476281e-04
-3.039533208775205874e-06
2.205838775445139217e-05
9.932155614896012301e-06
2.932375233925400268e-05
-8.298620962716529801e-06
-2.151820779801970346e-06
-4.152409222314715301e-05
-6.300228534160554888e-06
2.926364723017049087e-05
9.814628407269858346e-05
-2.965702555247689260e-06
2.004787826237708305e-06
-3.063003636897479730e-05
-2.953892789301191147e-05
-2.397885206503406867e-05
-4.230120024683847984e-05
7.618624230458697700e-05
2.811934084021409930e-04
7.370610224118615472e-05
-7.565689944867597413e-06
-1.037671627486227901e-04
-1.724583307280118795e-04
-1.741704694884860596e-04
2.687589996207438909e-05
5.560734185129461990e-06
1.408325482444721148e-04
5.186102813834707060e-06
-1.288655992747521132e-05
-4.714648287151011649e-05
-3.948465410136424214e-05
-3.309593351198728244e-05
-1.896575483109950679e-05
-3.320590026912791131e-06
5.568311581395789283e-05
3.445211340842369219e-05
-2.048072737182173687e-05
-2.999583488861181650e-06
-2.183597513432032714e-05
-3.121403356644478596e-05
-1.028431963402078599e-05
3.883764603152233398e-04
2.842942596596370391e-04
-8.199227676682566818e-05
-1.851270068112388742e-04
-3.561354076573642366e-04
-3.885225649965999388e-04
-4.598360316672002544e-04
7.989425679243693929e-04
1.500196178016860483e-05
1.248350475576206325e-05
2.399140598024898581e-05
6.242040226860444584e-06
2.402122907938739539e-06
-2.204340073298081783e-05
-1.173910832361680239e-05
-2.633852659438121313e-05
-1.526669433959610260e-05
-1.647669811224220830e-05
-1.070600131243057413e-05
-1.472764901074748619e-05
-4.252746915919923514e-06
-9.028034929718287932e-06
-8.929409846623649966e-06
7.938723446727830632e-05
3.482122633472604492e-07
7.024298215236778541e-06
2.561082058062411440e-05
2.191048160115727472e-05
-1.750509870318929108e-05
-2.989009633961381754e-05
-4.854299178542983474e-05
4.104437416786754935e-05
1.543041681931521601e-04
7.310783894758947007e-04
3.988975530670831244e-04
-6.083186175835405537e-05
-2.795821639237878000e-04
-4.401268565303623637e-04
-3.982819827968988257e-04
-1.054572457267261747e-04
-8.467487854281217159e-05
-4.894579606016926721e-05
-4.398974930087850074e-05
6.279095626362728394e-05
-5.654766066496079403e-05
-6.898434044752266021e-05
-8.780215564155781241e-05
3.281536243942737800e-04
-2.612369222438221263e-05
8.817588796034644841e-05
5.175096998502464482e-05
1.342540196350668394e-05
-1.366353149707446311e-04
-1.725333952468870006e-04
-1.929464898020204406e-04
3.748866323351568940e-04
-1.367181339557545778e-05
2.469607608219863179e-05
1.887604637757397513e-05
-4.771429945662412057e-05
-8.767393370896794350e-05
-1.206762038439150223e-04
-1.168565164448668052e-04
3.430206443901771558e-04
-5.546066125061100359e-05
3.357062336673739844e-04
2.835054475143825698e-04
-7.141647007310924426e-05
-1.696647121486982821e-04
-1.570852711497143397e-04
-2.033984049280862126e-04
3.781383836846269070e-05
-1.383492887316794578e-05
1.448473787879891788e-04
2.879155231052607923e-05
-1.614372246061298235e-05
-3.374525173454383741e-05
-2.765604537824927170e-05
-4.709078473660020960e-05
-3.516819791534097565e-05
3.255556133612521382e-04
2.382308232751736748e-04
4.598848850241584005e-05
-7.777455640324467670e-05
-2.241524925285767386e-04
-3.155252376024379269e-04
-3.185374351450917020e-04
3.262147965405096215e-04
-4.359327561583842118e-05
-4.429048183605260191e-05
-5.096153009213719328e-05
-3.602406745804696700e-05
-5.357965199889683786e-05
-4.739726198686732039e-05
-4.676487513493792034e-05
3.226111441227773975e-04
-3.049690475249197162e-06
1.630215075107629985e-04
1.516242001143714953e-04
4.290619919344815925e-05
-1.114312167290704787e-04
-8.383592495060693706e-05
-1.325176715618968230e-04
-2.671740310175940180e-05
-5.123561987066155625e-06
7.603190194354027189e-05
-1.533033968795244881e-06
6.432015152980914455e-06
7.791950055111870907e-06
-2.659287843068882060e-05
-2.628089928636111934e-05
-3.072549347872163253e-05
-2.243051984203078413e-05
1.685456734664786361e-04
5.240022344725298270e-05
-4.121526360930450109e-05
-1.577347363799082338e-05
-7.324141752490444680e-05
-8.695246609963927574e-05
1.866724380013797175e-05
-3.171853924864137644e-05
1.640416935035244066e-04
1.761896787472773938e-04
-1.331141131657286459e-05
-3.574958802190562174e-05
-1.022634199551706073e-04
-9.052049455522119157e-05
-6.666791915328975249e-05
8.721289581076527990e-07
5.616369456775817084e-05
3.415672126612771830e-05
7.916008055882104553e-06
-2.031331899895580094e-05
-2.450821215088450279e-05
-2.909426174021361236e-05
-2.519275995782172776e-05
-1.364005768287320254e-05
4.640138758636286445e-05
3.779396746412216998e-05
1.076320078684621961e-06
1.523409478879204390e-07
-3.297116982449384325e-05
-5.697709866664975428e-05
1.816431009695925388e-05
2.626614399074818387e-05
-5.742931144900578984e-06
8.859070370361076067e-06
-2.018939736893021324e-05
-2.255707997904698904e-06
-2.588143220172201120e-05
-4.016674048480319584e-05
5.911099483715146830e-05
-1.913717187300208990e-06
-2.099676157171290604e-06
3.012347714094854155e-06
3.169399954882394174e-06
-1.751727548704911065e-06
-1.714199300671613310e-06
-1.693585837714053804e-06
2.991158362584831138e-06
-8.934578567425505142e-06
2.028558047519193070e-05
1.574293826668813907e-05
-8.562829860807723731e-06
6.806238045401128540e-06
-8.015497615417415387e-06
-7.917214949983812780e-06
-9.404635793646703995e-06
2.427488131061559607e-05
1.817872232080853422e-05
5.324026593368078915e-05
1.695393825139808553e-05
-6.283532957817637593e-06
-6.308488504486650379e-05
-1.063914719919587600e-04
6.311208217814009459e-05
9.521740780725200417e-05
1.629162821643248473e-05
-6.210127679974039801e-06
-1.784531165987630482e-05
-1.127169098552350853e-05
-1.554966362853677002e-05
-2.518604534135281291e-05
-3.544619672842106892e-05
-1.003564269067259388e-04
7.237866301415698091e-05
4.316891332316476177e-05
-5.305084500180035848e-05
-4.938067278797300897e-05
-1.108149251037877366e-04
-1.614524895964388287e-04
3.595077830594036817e-04
4.609148674661335510e-05
1.464895776883633725e-04
1.155728277311575386e-04
-6.725026218957858243e-05
-8.134712736704031435e-05
-3.861508913098030170e-05
-8.217937018558245138e-05
-3.876204329295279938e-05
4.748152917931741228e-05
1.056442397502562624e-04
2.817882572681115923e-05
-2.231993820112491739e-05
-3.775942338844920045e-05
-5.564428891729266227e-05
-3.954036376331619235e-05
-2.604058038620189535e-05
-1.805162360995062474e-06
6.733737778956595680e-04
3.905834354203080558e-04
-8.051905949178551393e-05
-2.831847922244559767e-04
-3.008089848288399626e-04
-4.044632237054791423e-04
6.824009295588113353e-06
-1.696514643575144145e-05
-2.485010942134834958e-05
-1.787776315064265375e-05
-2.065110208779691824e-05
-1.461724822368894750e-05
-1.914480255023352296e-05
-1.393127172257206281e-05
1.280374435920339081e-04
0.000000000000000000e+00
0.000000000000000000e+00
0.000000000000000000e+00
0.000000000000000000e+00
0.000000000000000000e+00
0.000000000000000000e+00
0.000000000000000000e+00
0.000000000000000000e+00
5.699458607328846169e-05
1.260220634280351467e-05
2.527598003351439867e-05
-8.207476872051339242e-07
-2.884480391861453635e-05
-2.790955233572552351e-05
-2.241407288614906038e-05
-1.488359562191215305e-05
1.663307070767296702e-06
7.959444683205900331e-07
1.348274412148894422e-06
-2.924764113948542312e-06
2.436437831572179853e-06
-7.393508114827550365e-06
-2.304835372830506413e-06
6.379143818797637339e-06
-1.390217249380241943e-05
3.333660725601575008e-05
-1.595560221587163910e-06
4.905903109174348244e-06
-2.188347967727788236e-05
-2.542571833826018710e-05
-4.468492235410151701e-05
6.924934271983918942e-05
-1.328257348968239300e-05
-1.714373484546521755e-05
3.149360028694867339e-05
-1.680774412086470204e-05
-3.611153716905674043e-05
6.531773814565551155e-06
-5.207638455631030574e-05
9.739660007986527483e-05
-7.708874800863282285e-07
-1.340238839019483306e-06
4.006776786132036109e-06
9.509948351651060811e-06
-2.291042429941466774e-07
-5.103549596616217581e-06
-3.563204883943504827e-08
-6.037312930227483286e-06
5.065863112366762473e-05
2.164624286755270979e-04
1.061781397344849952e-04
-7.987684532574105200e-05
-1.229668149223722467e-04
-2.200631819367834254e-04
-2.059706411130325979e-04
2.555782837642495229e-04
-2.464492947198393719e-05
3.494492407224992201e-04
1.281634891206975162e-04
2.785354364886485298e-06
-1.011659947782091591e-04
-1.185900859740691196e-04
-1.124364294553087770e-04
-1.235606445285124190e-04
1.553388822142343260e-05
2.853473351778652574e-04
1.764080220431839784e-04
-8.677334415875190277e-05
-2.952556287346956728e-04
-3.133076726328378565e-04
-2.825264419428103759e-04
5.005738420266229397e-04
-3.217430391846991315e-05
4.784944646832628732e-05
9.507348054479757395e-05
-2.187771676168746878e-05
